<?xml version="1.0"?>
<MethodSetup Method="BDT::2011_BDT_3">
  <GeneralInfo>
    <Info name="TMVA Release" value="4.2.0 [262656]"/>
    <Info name="ROOT Release" value="5.34/29 [336413]"/>
    <Info name="Creator" value="matt"/>
    <Info name="Date" value="Fri Apr 17 17:51:51 2015"/>
    <Info name="Host" value="Darwin pc7.home 14.1.0 Darwin Kernel Version 14.1.0: Thu Feb 26 19:26:47 PST 2015; root:xnu-2782.10.73~1/RELEASE_X86_64 x86_64"/>
    <Info name="Dir" value="/Users/matt/Scratch/lhcb/Bs2KstKst"/>
    <Info name="Training events" value="23599"/>
    <Info name="TrainingTime" value="6.32865622e+01"/>
    <Info name="AnalysisType" value="Classification"/>
  </GeneralInfo>
  <Options>
    <Option name="V" modified="Yes">False</Option>
    <Option name="VerbosityLevel" modified="No">Default</Option>
    <Option name="VarTransform" modified="Yes">D,G</Option>
    <Option name="H" modified="Yes">False</Option>
    <Option name="CreateMVAPdfs" modified="No">False</Option>
    <Option name="IgnoreNegWeightsInTraining" modified="No">False</Option>
    <Option name="NTrees" modified="Yes">400</Option>
    <Option name="MaxDepth" modified="Yes">3</Option>
    <Option name="MinNodeSize" modified="Yes">5</Option>
    <Option name="nCuts" modified="Yes">-1</Option>
    <Option name="BoostType" modified="Yes">AdaBoost</Option>
    <Option name="AdaBoostR2Loss" modified="No">quadratic</Option>
    <Option name="UseBaggedBoost" modified="Yes">True</Option>
    <Option name="Shrinkage" modified="No">1.000000e+00</Option>
    <Option name="AdaBoostBeta" modified="Yes">5.000000e-01</Option>
    <Option name="UseRandomisedTrees" modified="No">False</Option>
    <Option name="UseNvars" modified="No">4</Option>
    <Option name="UsePoissonNvars" modified="No">True</Option>
    <Option name="BaggedSampleFraction" modified="Yes">5.000000e-01</Option>
    <Option name="UseYesNoLeaf" modified="No">True</Option>
    <Option name="NegWeightTreatment" modified="Yes">ignorenegweightsintraining</Option>
    <Option name="Css" modified="No">1.000000e+00</Option>
    <Option name="Cts_sb" modified="No">1.000000e+00</Option>
    <Option name="Ctb_ss" modified="No">1.000000e+00</Option>
    <Option name="Cbb" modified="No">1.000000e+00</Option>
    <Option name="NodePurityLimit" modified="No">5.000000e-01</Option>
    <Option name="SeparationType" modified="Yes">giniindex</Option>
    <Option name="DoBoostMonitor" modified="No">False</Option>
    <Option name="UseFisherCuts" modified="No">False</Option>
    <Option name="MinLinCorrForFisher" modified="No">8.000000e-01</Option>
    <Option name="UseExclusiveVars" modified="No">False</Option>
    <Option name="DoPreselection" modified="No">False</Option>
    <Option name="SigToBkgFraction" modified="No">1.000000e+00</Option>
    <Option name="PruneMethod" modified="No">nopruning</Option>
    <Option name="PruneStrength" modified="No">0.000000e+00</Option>
    <Option name="PruningValFraction" modified="No">5.000000e-01</Option>
    <Option name="nEventsMin" modified="No">0</Option>
    <Option name="UseBaggedGrad" modified="No">False</Option>
    <Option name="GradBaggingFraction" modified="No">5.000000e-01</Option>
    <Option name="UseNTrainEvents" modified="No">0</Option>
    <Option name="NNodesMax" modified="No">0</Option>
  </Options>
  <Variables NVar="14">
    <Variable VarIndex="0" Expression="ln_B_s0_PT" Label="ln_B_s0_PT" Title="ln_B_s0_PT" Unit="" Internal="ln_B_s0_PT" Type="F" Min="2.30983877e+00" Max="1.12555046e+01"/>
    <Variable VarIndex="1" Expression="ln_Kst_PT" Label="ln_Kst_PT" Title="ln_Kst_PT" Unit="" Internal="ln_Kst_PT" Type="F" Min="6.80430222e+00" Max="1.04525452e+01"/>
    <Variable VarIndex="2" Expression="ln_Kstb_PT" Label="ln_Kstb_PT" Title="ln_Kstb_PT" Unit="" Internal="ln_Kstb_PT" Type="F" Min="6.80349398e+00" Max="1.11000319e+01"/>
    <Variable VarIndex="3" Expression="ln_max_track_PT" Label="ln_max_track_PT" Title="ln_max_track_PT" Unit="" Internal="ln_max_track_PT" Type="F" Min="7.41929197e+00" Max="1.09013062e+01"/>
    <Variable VarIndex="4" Expression="ln_min_track_PT" Label="ln_min_track_PT" Title="ln_min_track_PT" Unit="" Internal="ln_min_track_PT" Type="F" Min="6.21465731e+00" Max="8.63887978e+00"/>
    <Variable VarIndex="5" Expression="B_s0_eta" Label="B_s0_eta" Title="B_s0_eta" Unit="" Internal="B_s0_eta" Type="F" Min="1.89968419e+00" Max="9.36469841e+00"/>
    <Variable VarIndex="6" Expression="Kst_eta" Label="Kst_eta" Title="Kst_eta" Unit="" Internal="Kst_eta" Type="F" Min="1.75296366e+00" Max="5.21748734e+00"/>
    <Variable VarIndex="7" Expression="Kstb_eta" Label="Kstb_eta" Title="Kstb_eta" Unit="" Internal="Kstb_eta" Type="F" Min="1.82455802e+00" Max="5.19282579e+00"/>
    <Variable VarIndex="8" Expression="max_track_eta" Label="max_track_eta" Title="max_track_eta" Unit="" Internal="max_track_eta" Type="F" Min="2.07792258e+00" Max="5.14504910e+00"/>
    <Variable VarIndex="9" Expression="min_track_eta" Label="min_track_eta" Title="min_track_eta" Unit="" Internal="min_track_eta" Type="F" Min="1.67584753e+00" Max="4.57056665e+00"/>
    <Variable VarIndex="10" Expression="B_s0_ARCCOS_DIRA_OWNPV" Label="B_s0_ARCCOS_DIRA_OWNPV" Title="B_s0_ARCCOS_DIRA_OWNPV" Unit="" Internal="B_s0_ARCCOS_DIRA_OWNPV" Type="F" Min="6.65401512e-06" Max="1.14100091e-01"/>
    <Variable VarIndex="11" Expression="B_s0_ENDVERTEX_CHI2" Label="B_s0_ENDVERTEX_CHI2" Title="B_s0_ENDVERTEX_CHI2" Unit="" Internal="B_s0_ENDVERTEX_CHI2" Type="F" Min="9.09550339e-02" Max="5.99935989e+01"/>
    <Variable VarIndex="12" Expression="B_s0_MMERRoMM" Label="B_s0_MMERRoMM" Title="B_s0_MMERRoMM" Unit="" Internal="B_s0_MMERRoMM" Type="F" Min="1.43572630e-03" Max="7.73451664e-03"/>
    <Variable VarIndex="13" Expression="max_track_CHI2" Label="max_track_CHI2" Title="max_track_CHI2" Unit="" Internal="max_track_CHI2" Type="F" Min="6.66212142e-01" Max="2.99997377e+00"/>
  </Variables>
  <Spectators NSpec="0"/>
  <Classes NClass="2">
    <Class Name="Signal" Index="0"/>
    <Class Name="Background" Index="1"/>
  </Classes>
  <Transformations NTransformations="2">
    <Transform Name="Decorrelation">
      <Selection>
        <Input NInputs="14">
          <Input Type="Variable" Label="ln_B_s0_PT" Expression="ln_B_s0_PT"/>
          <Input Type="Variable" Label="ln_Kst_PT" Expression="ln_Kst_PT"/>
          <Input Type="Variable" Label="ln_Kstb_PT" Expression="ln_Kstb_PT"/>
          <Input Type="Variable" Label="ln_max_track_PT" Expression="ln_max_track_PT"/>
          <Input Type="Variable" Label="ln_min_track_PT" Expression="ln_min_track_PT"/>
          <Input Type="Variable" Label="B_s0_eta" Expression="B_s0_eta"/>
          <Input Type="Variable" Label="Kst_eta" Expression="Kst_eta"/>
          <Input Type="Variable" Label="Kstb_eta" Expression="Kstb_eta"/>
          <Input Type="Variable" Label="max_track_eta" Expression="max_track_eta"/>
          <Input Type="Variable" Label="min_track_eta" Expression="min_track_eta"/>
          <Input Type="Variable" Label="B_s0_ARCCOS_DIRA_OWNPV" Expression="B_s0_ARCCOS_DIRA_OWNPV"/>
          <Input Type="Variable" Label="B_s0_ENDVERTEX_CHI2" Expression="B_s0_ENDVERTEX_CHI2"/>
          <Input Type="Variable" Label="B_s0_MMERRoMM" Expression="B_s0_MMERRoMM"/>
          <Input Type="Variable" Label="max_track_CHI2" Expression="max_track_CHI2"/>
        </Input>
        <Output NOutputs="14">
          <Output Type="Variable" Label="ln_B_s0_PT" Expression="ln_B_s0_PT"/>
          <Output Type="Variable" Label="ln_Kst_PT" Expression="ln_Kst_PT"/>
          <Output Type="Variable" Label="ln_Kstb_PT" Expression="ln_Kstb_PT"/>
          <Output Type="Variable" Label="ln_max_track_PT" Expression="ln_max_track_PT"/>
          <Output Type="Variable" Label="ln_min_track_PT" Expression="ln_min_track_PT"/>
          <Output Type="Variable" Label="B_s0_eta" Expression="B_s0_eta"/>
          <Output Type="Variable" Label="Kst_eta" Expression="Kst_eta"/>
          <Output Type="Variable" Label="Kstb_eta" Expression="Kstb_eta"/>
          <Output Type="Variable" Label="max_track_eta" Expression="max_track_eta"/>
          <Output Type="Variable" Label="min_track_eta" Expression="min_track_eta"/>
          <Output Type="Variable" Label="B_s0_ARCCOS_DIRA_OWNPV" Expression="B_s0_ARCCOS_DIRA_OWNPV"/>
          <Output Type="Variable" Label="B_s0_ENDVERTEX_CHI2" Expression="B_s0_ENDVERTEX_CHI2"/>
          <Output Type="Variable" Label="B_s0_MMERRoMM" Expression="B_s0_MMERRoMM"/>
          <Output Type="Variable" Label="max_track_CHI2" Expression="max_track_CHI2"/>
        </Output>
      </Selection>
      <Matrix Rows="14" Columns="14">
        8.119575487902384e+00 -2.931648638818295e+00 -2.923650531430819e+00 -1.863678942767981e+00 -3.686855890311501e-01 4.977444141386473e+00 -2.713822297313065e+00 -2.722771697938239e+00 -2.868416918621636e-02 8.520793819290056e-01 1.241241639772491e+00 -3.256180978789758e-03 -4.535359432612966e-01 -1.998117712318901e-02 -2.931648638818295e+00 4.062246688075966e+00 2.274669506396502e+00 -5.533477358078279e-01 -8.125130927215879e-01 -1.579155750628904e+00 1.323273397124842e+00 9.657798072242860e-01 2.472409410312520e-01 -7.149293653649771e-01 -3.269259873501835e-01 -2.500001622135872e-03 -6.054398027183124e-01 2.644388409015261e-02 -2.923650531430818e+00 2.274669506396501e+00 4.022516225000787e+00 -5.371568970968699e-01 -8.240386778593959e-01 -1.589965159903685e+00 9.700858329543396e-01 1.325783051622319e+00 2.588635875990108e-01 -7.081893158421423e-01 -3.261590647756639e-01 -3.171806762141897e-03 -5.951650886610284e-01 1.959714804110816e-02 -1.863678942767981e+00 -5.533477358078285e-01 -5.371568970968704e-01 4.376723581882964e+00 7.862235892737298e-01 -1.025492022355725e-01 2.520563218431837e-01 2.607311698099870e-01 1.142159690232997e-01 -3.439193096120357e-01 1.224286608311618e-01 -5.438158565888207e-04 -1.314868598354352e+00 3.277672787586057e-02 -3.686855890311500e-01 -8.125130927215878e-01 -8.240386778593957e-01 7.862235892737295e-01 2.937450981419681e+00 -4.233198157469344e-02 -3.204893213669776e-02 -4.194520133082227e-02 2.478205320823841e-01 -6.425980666127550e-03 -2.621970502069510e-03 -5.810161885450257e-04 7.475440766740535e-01 3.360986770759347e-02 4.977444141386474e+00 -1.579155750628904e+00 -1.589965159903686e+00 -1.025492022355730e-01 -4.233198157469319e-02 8.314944443062272e+00 -3.794106188022035e+00 -3.781292896070212e+00 3.605430068699357e-01 -2.122813648235554e-01 1.371613858976838e+00 4.556630268471471e-03 -9.466975631483089e-01 1.392474741030954e-02 -2.713822297313067e+00 1.323273397124843e+00 9.700858329543407e-01 2.520563218431838e-01 -3.204893213669804e-02 -3.794106188022036e+00 8.144466537073198e+00 5.618341004176660e+00 -4.471246574704651e+00 -4.481362685434889e+00 -2.499066480334890e-01 3.804497898765158e-04 -1.208653138148069e+00 7.198339065044928e-03 -2.722771697938241e+00 9.657798072242866e-01 1.325783051622320e+00 2.607311698099871e-01 -4.194520133082257e-02 -3.781292896070211e+00 5.618341004176658e+00 8.109025003849656e+00 -4.469762916005753e+00 -4.477305084215397e+00 -2.255355080996584e-01 1.777233148899473e-03 -1.281178360017011e+00 -1.885896151622768e-02 -2.868416918621566e-02 2.472409410312518e-01 2.588635875990110e-01 1.142159690233000e-01 2.478205320823840e-01 3.605430068699367e-01 -4.471246574704651e+00 -4.469762916005754e+00 6.824344981240180e+00 2.632855778502067e+00 -4.270015885946142e-02 2.268002622876995e-03 6.894526665256058e-01 1.748969090952941e-02 8.520793819290060e-01 -7.149293653649778e-01 -7.081893158421427e-01 -3.439193096120355e-01 -6.425980666127242e-03 -2.122813648235552e-01 -4.481362685434891e+00 -4.477305084215399e+00 2.632855778502069e+00 7.705043750121815e+00 -6.885550423719553e-02 -2.390400132817145e-03 4.917763863651327e-01 1.133406743221441e-02 1.241241639772490e+00 -3.269259873501834e-01 -3.261590647756641e-01 1.224286608311617e-01 -2.621970502069553e-03 1.371613858976838e+00 -2.499066480334885e-01 -2.255355080996580e-01 -4.270015885946161e-02 -6.885550423719551e-02 3.522737065095442e+02 -8.851477505096553e-03 -1.067870400483065e+00 -2.209180065093443e-02 -3.256180978789758e-03 -2.500001622135872e-03 -3.171806762141897e-03 -5.438158565888216e-04 -5.810161885450242e-04 4.556630268471466e-03 3.804497898765228e-04 1.777233148899480e-03 2.268002622876987e-03 -2.390400132817151e-03 -8.851477505096551e-03 1.796084107188360e-01 -9.360832761612396e-04 -1.028477353557849e-02 -4.535359432612962e-01 -6.054398027183123e-01 -5.951650886610284e-01 -1.314868598354352e+00 7.475440766740535e-01 -9.466975631483087e-01 -1.208653138148069e+00 -1.281178360017013e+00 6.894526665256069e-01 4.917763863651334e-01 -1.067870400483065e+00 -9.360832761612401e-04 3.429894478147764e+03 -1.899938448840398e-01 -1.998117712318899e-02 2.644388409015259e-02 1.959714804110815e-02 3.277672787586058e-02 3.360986770759348e-02 1.392474741030959e-02 7.198339065044851e-03 -1.885896151622773e-02 1.748969090952944e-02 1.133406743221445e-02 -2.209180065093443e-02 -1.028477353557849e-02 -1.899938448840397e-01 3.181985264859562e+00 
      </Matrix>
      <Matrix Rows="14" Columns="14">
        7.574784629352001e+00 -2.941477236918576e+00 -2.891710659238053e+00 -1.234263363608814e+00 -2.024538792046062e-01 6.678604461428167e+00 -3.180207364583280e+00 -3.184267777254474e+00 -1.734270034159107e-01 3.563050055218877e-01 1.460168617721521e+00 -1.427711125889703e-02 -7.944265920814360e-01 2.152679194135785e-02 -2.941477236918576e+00 4.455287395061559e+00 2.455742968960794e+00 -7.494884140754684e-01 -7.349257192429598e-01 -2.640921850846365e+00 2.040332070770713e+00 1.513410690518150e+00 1.316737027279498e-02 -6.592972362634479e-01 -1.073721009368356e-02 -1.206151500724427e-03 -2.269238564820171e-01 2.909985198732013e-03 -2.891710659238055e+00 2.455742968960795e+00 4.473041272692567e+00 -7.293657036756857e-01 -7.773686179492203e-01 -2.590306262425616e+00 1.521815102010970e+00 2.012652777168772e+00 -3.641544144572656e-03 -6.689367633625771e-01 -1.853962832646516e-02 -1.112252404573924e-03 -3.275816820348609e-01 -3.348676557425048e-03 -1.234263363608812e+00 -7.494884140754700e-01 -7.293657036756871e-01 4.480527070203195e+00 5.545000815521128e-01 -4.021549521125211e-01 1.556514024207486e-01 1.970286398780833e-01 2.108113409724768e-01 -6.585532887202296e-02 2.959225719168286e-01 -8.327172472098363e-04 -1.006072854100637e+00 -2.554392794494131e-02 -2.024538792046055e-01 -7.349257192429602e-01 -7.773686179492205e-01 5.545000815521126e-01 4.307259084479923e+00 -2.897715353620461e-02 -1.458312748279668e-01 -1.538877263111393e-01 2.991620204728356e-01 6.113944123795814e-02 -2.098050725158200e-01 -1.317608027236227e-03 2.793587831142190e-01 7.731433991449516e-02 6.678604461428168e+00 -2.640921850846365e+00 -2.590306262425615e+00 -4.021549521125231e-01 -2.897715353620525e-02 7.775264618483143e+00 -3.396611960091430e+00 -3.381676195981335e+00 -1.310849993033487e-01 -1.252574963990077e-01 1.789614182148711e+00 1.117424196752420e-02 -9.344252159771713e-01 4.872626298266405e-02 -3.180207364583279e+00 2.040332070770712e+00 1.521815102010970e+00 1.556514024207508e-01 -1.458312748279667e-01 -3.396611960091429e+00 5.408910248062196e+00 3.111378145970200e+00 -1.823849152389613e+00 -2.247355081643422e+00 -1.679587773891509e-01 2.114729120051861e-04 -5.214179833475683e-01 4.245568854711729e-02 -3.184267777254474e+00 1.513410690518149e+00 2.012652777168771e+00 1.970286398780845e-01 -1.538877263111391e-01 -3.381676195981334e+00 3.111378145970200e+00 5.460724699129982e+00 -1.855347874287798e+00 -2.268290706477147e+00 -1.577766142785091e-01 -2.550273514483732e-04 -5.505393530618630e-01 6.082145602143230e-02 -1.734270034159121e-01 1.316737027279578e-02 -3.641544144572062e-03 2.108113409724773e-01 2.991620204728357e-01 -1.310849993033507e-01 -1.823849152389611e+00 -1.855347874287797e+00 4.104099970285598e+00 7.268312632593624e-01 -1.833919142904294e-02 -4.771143696689331e-03 2.490519099562771e-02 1.904812151661590e-02 3.563050055218885e-01 -6.592972362634482e-01 -6.689367633625769e-01 -6.585532887202340e-02 6.113944123795807e-02 -1.252574963990073e-01 -2.247355081643423e+00 -2.268290706477147e+00 7.268312632593628e-01 5.072777287305729e+00 -1.373967915558373e-01 2.791731404450856e-03 6.258627543239292e-02 8.375629109892746e-02 1.460168617721520e+00 -1.073721009368545e-02 -1.853962832646616e-02 2.959225719168281e-01 -2.098050725158200e-01 1.789614182148709e+00 -1.679587773891520e-01 -1.577766142785086e-01 -1.833919142904252e-02 -1.373967915558384e-01 1.101080759080404e+02 -2.164422059867565e-03 -3.638647856205055e+00 1.866669778477441e-02 -1.427711125889699e-02 -1.206151500724441e-03 -1.112252404573936e-03 -8.327172472098384e-04 -1.317608027236228e-03 1.117424196752423e-02 2.114729120051745e-04 -2.550273514483830e-04 -4.771143696689332e-03 2.791731404450855e-03 -2.164422059867556e-03 5.761270386590026e-02 7.237150472152454e-04 -6.331558284369189e-03 -7.944265920798740e-01 -2.269238564816244e-01 -3.275816820347706e-01 -1.006072854101042e+00 2.793587831142079e-01 -9.344252159759950e-01 -5.214179833458917e-01 -5.505393530623268e-01 2.490519099674032e-02 6.258627543239093e-02 -3.638647856205380e+00 7.237150472186381e-04 2.686582894689026e+03 -1.783800338843360e-01 2.152679194135848e-02 2.909985198731828e-03 -3.348676557425297e-03 -2.554392794494136e-02 7.731433991449520e-02 4.872626298266449e-02 4.245568854711689e-02 6.082145602143200e-02 1.904812151661585e-02 8.375629109892734e-02 1.866669778477462e-02 -6.331558284369188e-03 -1.783800338843093e-01 2.070163193895016e+00 
      </Matrix>
      <Matrix Rows="14" Columns="14">
        7.154503856559888e+00 -2.609823687110421e+00 -2.591418842082613e+00 -1.302177375592211e+00 -2.926821667108297e-01 6.086972137596713e+00 -2.840796090520375e+00 -2.852154943369733e+00 -1.296960869893744e-01 2.722682743889149e-01 1.584909436670656e+00 3.613684253748391e-03 -8.014358244099640e-01 9.799392635070793e-02 -2.609823687110421e+00 3.990699436749337e+00 2.124455432626106e+00 -8.052850160351311e-01 -8.538795429504094e-01 -2.188965554642194e+00 1.655089347925234e+00 1.229465044871851e+00 1.230291013963194e-01 -5.580113949794827e-01 -2.577113076078322e-01 5.980813782147147e-03 -3.148161175472524e-01 2.711337001016664e-02 -2.591418842082612e+00 2.124455432626106e+00 3.970455910748492e+00 -7.882239715893552e-01 -8.783465911897919e-01 -2.173669846068923e+00 1.237901923514986e+00 1.642530377504928e+00 1.253417434172664e-01 -5.593886568315432e-01 -2.619477040275699e-01 6.399258531338123e-03 -3.518947360755647e-01 2.389159353073500e-02 -1.302177375592211e+00 -8.052850160351318e-01 -7.882239715893556e-01 4.221013796756312e+00 6.946133279074254e-01 -4.513972396682940e-01 2.242785165345303e-01 2.482543461365258e-01 1.674589809029028e-01 -4.971062952264518e-02 -3.172135122865237e-02 2.539466669485619e-03 -1.061026476646646e+00 -1.512348866720362e-02 -2.926821667108294e-01 -8.538795429504095e-01 -8.783465911897917e-01 6.946133279074250e-01 3.248622407796603e+00 -4.050663908986478e-02 -7.998277753908839e-02 -8.570467735939215e-02 2.980539194732017e-01 3.342484645897734e-02 5.173184418500700e-02 8.993440137998233e-03 5.726489695738763e-01 1.031023956493082e-01 6.086972137596710e+00 -2.188965554642196e+00 -2.173669846068924e+00 -4.513972396682960e-01 -4.050663908986422e-02 7.465500052014091e+00 -3.227123767082502e+00 -3.218880606317831e+00 -8.830574716770156e-02 -1.903535048883285e-01 1.487512000469160e+00 2.652883172949787e-04 -9.196754819786293e-01 -7.975672885709264e-03 -2.840796090520373e+00 1.655089347925235e+00 1.237901923514986e+00 2.242785165345310e-01 -7.998277753908851e-02 -3.227123767082500e+00 6.053391237476882e+00 3.649400039898434e+00 -2.597292385884074e+00 -2.867735695327129e+00 -5.517198102339440e-01 -4.984136533934068e-03 -6.862197479914881e-01 1.201082057267172e-03 -2.852154943369730e+00 1.229465044871851e+00 1.642530377504929e+00 2.482543461365265e-01 -8.570467735939244e-02 -3.218880606317829e+00 3.649400039898434e+00 6.077830921739755e+00 -2.618943491367006e+00 -2.881904917079440e+00 -5.461458974401828e-01 -5.058746665461746e-03 -7.271162360552941e-01 2.481874776007338e-03 -1.296960869893752e-01 1.230291013963193e-01 1.253417434172662e-01 1.674589809029031e-01 2.980539194732018e-01 -8.830574716770247e-02 -2.597292385884075e+00 -2.618943491367006e+00 4.969222243228238e+00 1.267203986805892e+00 1.897911010773552e-02 -9.401964406537164e-03 2.332857841243991e-01 -1.134184527929419e-02 2.722682743889137e-01 -5.580113949794817e-01 -5.593886568315425e-01 -4.971062952264429e-02 3.342484645897683e-02 -1.903535048883297e-01 -2.867735695327128e+00 -2.881904917079439e+00 1.267203986805891e+00 5.866978733296682e+00 3.457768865084570e-01 5.696379306046320e-03 6.125214912487387e-02 1.114267904589077e-01 1.584909436670655e+00 -2.577113076078322e-01 -2.619477040275698e-01 -3.172135122865267e-02 5.173184418500698e-02 1.487512000469160e+00 -5.517198102339439e-01 -5.461458974401825e-01 1.897911010773527e-02 3.457768865084569e-01 1.346592103537918e+02 -2.185731385558271e-02 -1.978470443452203e-01 -3.150011987440056e-01 3.613684253748396e-03 5.980813782147146e-03 6.399258531338122e-03 2.539466669485619e-03 8.993440137998234e-03 2.652883172949816e-04 -4.984136533934062e-03 -5.058746665461740e-03 -9.401964406537172e-03 5.696379306046312e-03 -2.185731385558271e-02 6.840088057946588e-02 1.022602313442200e-03 -2.075046672627966e-02 -8.014358244122147e-01 -3.148161175453176e-01 -3.518947360731507e-01 -1.061026476646256e+00 5.726489695740057e-01 -9.196754819849704e-01 -6.862197479886011e-01 -7.271162360520710e-01 2.332857841242490e-01 6.125214912659716e-02 -1.978470443457510e-01 1.022602313445663e-03 3.035588631951383e+03 -1.652978808630803e-01 9.799392635070733e-02 2.711337001016685e-02 2.389159353073515e-02 -1.512348866720361e-02 1.031023956493082e-01 -7.975672885709533e-03 1.201082057267279e-03 2.481874776007496e-03 -1.134184527929407e-02 1.114267904589077e-01 -3.150011987440057e-01 -2.075046672627966e-02 -1.652978808630792e-01 2.437817748909187e+00 
      </Matrix>
    </Transform>
    <Transform Name="Gauss" FlatOrGauss="Gauss">
      <Selection>
        <Input NInputs="14">
          <Input Type="Variable" Label="ln_B_s0_PT" Expression="ln_B_s0_PT"/>
          <Input Type="Variable" Label="ln_Kst_PT" Expression="ln_Kst_PT"/>
          <Input Type="Variable" Label="ln_Kstb_PT" Expression="ln_Kstb_PT"/>
          <Input Type="Variable" Label="ln_max_track_PT" Expression="ln_max_track_PT"/>
          <Input Type="Variable" Label="ln_min_track_PT" Expression="ln_min_track_PT"/>
          <Input Type="Variable" Label="B_s0_eta" Expression="B_s0_eta"/>
          <Input Type="Variable" Label="Kst_eta" Expression="Kst_eta"/>
          <Input Type="Variable" Label="Kstb_eta" Expression="Kstb_eta"/>
          <Input Type="Variable" Label="max_track_eta" Expression="max_track_eta"/>
          <Input Type="Variable" Label="min_track_eta" Expression="min_track_eta"/>
          <Input Type="Variable" Label="B_s0_ARCCOS_DIRA_OWNPV" Expression="B_s0_ARCCOS_DIRA_OWNPV"/>
          <Input Type="Variable" Label="B_s0_ENDVERTEX_CHI2" Expression="B_s0_ENDVERTEX_CHI2"/>
          <Input Type="Variable" Label="B_s0_MMERRoMM" Expression="B_s0_MMERRoMM"/>
          <Input Type="Variable" Label="max_track_CHI2" Expression="max_track_CHI2"/>
        </Input>
        <Output NOutputs="14">
          <Output Type="Variable" Label="ln_B_s0_PT" Expression="ln_B_s0_PT"/>
          <Output Type="Variable" Label="ln_Kst_PT" Expression="ln_Kst_PT"/>
          <Output Type="Variable" Label="ln_Kstb_PT" Expression="ln_Kstb_PT"/>
          <Output Type="Variable" Label="ln_max_track_PT" Expression="ln_max_track_PT"/>
          <Output Type="Variable" Label="ln_min_track_PT" Expression="ln_min_track_PT"/>
          <Output Type="Variable" Label="B_s0_eta" Expression="B_s0_eta"/>
          <Output Type="Variable" Label="Kst_eta" Expression="Kst_eta"/>
          <Output Type="Variable" Label="Kstb_eta" Expression="Kstb_eta"/>
          <Output Type="Variable" Label="max_track_eta" Expression="max_track_eta"/>
          <Output Type="Variable" Label="min_track_eta" Expression="min_track_eta"/>
          <Output Type="Variable" Label="B_s0_ARCCOS_DIRA_OWNPV" Expression="B_s0_ARCCOS_DIRA_OWNPV"/>
          <Output Type="Variable" Label="B_s0_ENDVERTEX_CHI2" Expression="B_s0_ENDVERTEX_CHI2"/>
          <Output Type="Variable" Label="B_s0_MMERRoMM" Expression="B_s0_MMERRoMM"/>
          <Output Type="Variable" Label="max_track_CHI2" Expression="max_track_CHI2"/>
        </Output>
      </Selection>
      <Variable VarIndex="0">
        <CumulativePDF_cls0>
          <PDF Name="GaussTransform var0 cls0" MinNSmooth="0" MaxNSmooth="0" InterpolMethod="1" KDE_type="0" KDE_iter="1" KDE_border="1" KDE_finefactor="0.0000000000000000e+00">
            <Histogram Name="Cumulative_Var0_cls0_original" NBins="1372" XMin="6.6460433006286621e+00" XMax="1.4985602378845215e+01" HasEquidistantBins="0">
              5.28570148e-04 1.18472613e-03 1.90923177e-03 2.64285062e-03 3.37191299e-03 4.10097511e-03 4.83003724e-03 5.55909984e-03 6.28816197e-03 7.01722410e-03 7.74628622e-03 8.47534835e-03 9.20441095e-03 9.93347261e-03 1.06625352e-02 1.13915978e-02 1.21206595e-02 1.28497221e-02 1.35787847e-02 1.43078463e-02 1.50369089e-02 1.57659706e-02 1.64950341e-02 1.72240958e-02 1.79531574e-02 1.86822191e-02 1.94112826e-02 2.01403443e-02 2.08694059e-02 2.15984695e-02 2.23275311e-02 2.30565928e-02 2.37856563e-02 2.45147180e-02 2.52437796e-02 2.59728432e-02 2.67019048e-02 2.74309665e-02 2.81600300e-02 2.88890917e-02 2.96181533e-02 3.03472150e-02 3.10762785e-02 3.18053402e-02 3.25344019e-02 3.32634635e-02 3.39925289e-02 3.47215906e-02 3.54506522e-02 3.61797139e-02 3.69087756e-02 3.76378372e-02 3.83668989e-02 3.90959643e-02 3.98250259e-02 4.05540876e-02 4.12831493e-02 4.20122109e-02 4.27412726e-02 4.34703380e-02 4.41993997e-02 4.49284613e-02 4.56575230e-02 4.63865846e-02 4.71156463e-02 4.78447080e-02 4.85737734e-02 4.93028350e-02 5.00318967e-02 5.07609583e-02 5.14900200e-02 5.22190817e-02 5.29481471e-02 5.36772087e-02 5.44062704e-02 5.51353320e-02 5.58643937e-02 5.65934554e-02 5.73225208e-02 5.80515824e-02 5.87806441e-02 5.95097058e-02 6.02387674e-02 6.09678291e-02 6.16968907e-02 6.24259561e-02 6.31550178e-02 6.38840795e-02 6.46131411e-02 6.53422028e-02 6.60712644e-02 6.68003261e-02 6.75293878e-02 6.82584494e-02 6.89875111e-02 6.97165802e-02 7.04456419e-02 7.11747035e-02 7.19037652e-02 7.26328269e-02 7.33618885e-02 7.40909502e-02 7.48200119e-02 7.55490735e-02 7.62781352e-02 7.70071968e-02 7.77362585e-02 7.84653276e-02 7.91943893e-02 7.99234509e-02 8.06525126e-02 8.13815743e-02 8.21106359e-02 8.28396976e-02 8.35687593e-02 8.42978209e-02 8.50268826e-02 8.57559443e-02 8.64850059e-02 8.72140676e-02 8.79431367e-02 8.86721984e-02 8.94012600e-02 9.01303217e-02 9.08593833e-02 9.15884450e-02 9.23175067e-02 9.30465683e-02 9.37756300e-02 9.45046917e-02 9.52337533e-02 9.59628150e-02 9.66918766e-02 9.74209458e-02 9.81500074e-02 9.88790691e-02 9.96081308e-02 1.00337192e-01 1.01066254e-01 1.01795316e-01 1.02524377e-01 1.03253439e-01 1.03982501e-01 1.04711562e-01 1.05440624e-01 1.06169686e-01 1.06898755e-01 1.07627816e-01 1.08356878e-01 1.09085940e-01 1.09815001e-01 1.10544063e-01 1.11273125e-01 1.12002186e-01 1.12731248e-01 1.13460310e-01 1.14189371e-01 1.14918433e-01 1.15647495e-01 1.16376564e-01 1.17105626e-01 1.17834687e-01 1.18563749e-01 1.19292811e-01 1.20021872e-01 1.20750934e-01 1.21479996e-01 1.22209057e-01 1.22938119e-01 1.23667181e-01 1.24396242e-01 1.25125304e-01 1.25854373e-01 1.26583427e-01 1.27312496e-01 1.28041551e-01 1.28770620e-01 1.29499674e-01 1.30228743e-01 1.30957812e-01 1.31686866e-01 1.32415935e-01 1.33144990e-01 1.33874059e-01 1.34603113e-01 1.35332182e-01 1.36061236e-01 1.36790305e-01 1.37519360e-01 1.38248429e-01 1.38977483e-01 1.39706552e-01 1.40435621e-01 1.41164675e-01 1.41893744e-01 1.42622799e-01 1.43351868e-01 1.44080922e-01 1.44809991e-01 1.45539045e-01 1.46268114e-01 1.46997169e-01 1.47726238e-01 1.48455292e-01 1.49184361e-01 1.49913430e-01 1.50642484e-01 1.51371554e-01 1.52100608e-01 1.52829677e-01 1.53558731e-01 1.54287800e-01 1.55016854e-01 1.55745924e-01 1.56474978e-01 1.57204047e-01 1.57933116e-01 1.58662170e-01 1.59391239e-01 1.60120293e-01 1.60849363e-01 1.61578417e-01 1.62307486e-01 1.63036540e-01 1.63765609e-01 1.64494663e-01 1.65223733e-01 1.65952787e-01 1.66681856e-01 1.67410925e-01 1.68139979e-01 1.68869048e-01 1.69598103e-01 1.70327172e-01 1.71056226e-01 1.71785295e-01 1.72514349e-01 1.73243418e-01 1.73972473e-01 1.74701542e-01 1.75430596e-01 1.76159665e-01 1.76888734e-01 1.77617788e-01 1.78346857e-01 1.79075912e-01 1.79804981e-01 1.80534035e-01 1.81263104e-01 1.81992158e-01 1.82721227e-01 1.83450282e-01 1.84179351e-01 1.84908405e-01 1.85637474e-01 1.86366543e-01 1.87095597e-01 1.87824667e-01 1.88553721e-01 1.89282790e-01 1.90011844e-01 1.90740913e-01 1.91469967e-01 1.92199036e-01 1.92928091e-01 1.93657160e-01 1.94386214e-01 1.95115283e-01 1.95844352e-01 1.96573406e-01 1.97302476e-01 1.98031530e-01 1.98760599e-01 1.99489653e-01 2.00218722e-01 2.00947776e-01 2.01676846e-01 2.02405900e-01 2.03134969e-01 2.03864023e-01 2.04593092e-01 2.05322161e-01 2.06051216e-01 2.06780285e-01 2.07509339e-01 2.08238408e-01 2.08967462e-01 2.09696531e-01 2.10425586e-01 2.11154655e-01 2.11883709e-01 2.12612778e-01 2.13341832e-01 2.14070901e-01 2.14799970e-01 2.15529025e-01 2.16258094e-01 2.16987148e-01 2.17716217e-01 2.18445271e-01 2.19174340e-01 2.19903395e-01 2.20632464e-01 2.21361518e-01 2.22090587e-01 2.22819641e-01 2.23548710e-01 2.24277779e-01 2.25006834e-01 2.25735903e-01 2.26464957e-01 2.27194026e-01 2.27923080e-01 2.28652149e-01 2.29381204e-01 2.30110273e-01 2.30839327e-01 2.31568396e-01 2.32297450e-01 2.33026519e-01 2.33755589e-01 2.34484643e-01 2.35213712e-01 2.35942766e-01 2.36671835e-01 2.37400889e-01 2.38129959e-01 2.38859013e-01 2.39588082e-01 2.40317136e-01 2.41046205e-01 2.41775259e-01 2.42504328e-01 2.43233398e-01 2.43962452e-01 2.44691521e-01 2.45420575e-01 2.46149644e-01 2.46878698e-01 2.47607768e-01 2.48336822e-01 2.49065891e-01 2.49794945e-01 2.50524014e-01 2.51253068e-01 2.51982152e-01 2.52711207e-01 2.53440261e-01 2.54169315e-01 2.54898399e-01 2.55627453e-01 2.56356508e-01 2.57085562e-01 2.57814646e-01 2.58543700e-01 2.59272754e-01 2.60001808e-01 2.60730892e-01 2.61459947e-01 2.62189001e-01 2.62918085e-01 2.63647139e-01 2.64376193e-01 2.65105247e-01 2.65834332e-01 2.66563386e-01 2.67292440e-01 2.68021494e-01 2.68750578e-01 2.69479632e-01 2.70208687e-01 2.70937771e-01 2.71666825e-01 2.72395879e-01 2.73124933e-01 2.73854017e-01 2.74583071e-01 2.75312126e-01 2.76041180e-01 2.76770264e-01 2.77499318e-01 2.78228372e-01 2.78957427e-01 2.79686511e-01 2.80415565e-01 2.81144619e-01 2.81873703e-01 2.82602757e-01 2.83331811e-01 2.84060866e-01 2.84789950e-01 2.85519004e-01 2.86248058e-01 2.86977112e-01 2.87706196e-01 2.88435251e-01 2.89164305e-01 2.89893389e-01 2.90622443e-01 2.91351497e-01 2.92080551e-01 2.92809635e-01 2.93538690e-01 2.94267744e-01 2.94996798e-01 2.95725882e-01 2.96454936e-01 2.97183990e-01 2.97913045e-01 2.98642129e-01 2.99371183e-01 3.00100237e-01 3.00829321e-01 3.01558375e-01 3.02287430e-01 3.03016484e-01 3.03745568e-01 3.04474622e-01 3.05203676e-01 3.05932730e-01 3.06661814e-01 3.07390869e-01 3.08119923e-01 3.08849007e-01 3.09578061e-01 3.10307115e-01 3.11036170e-01 3.11765254e-01 3.12494308e-01 3.13223362e-01 3.13952416e-01 3.14681500e-01 3.15410554e-01 3.16139609e-01 3.16868663e-01 3.17597747e-01 3.18326801e-01 3.19055855e-01 3.19784939e-01 3.20513994e-01 3.21243048e-01 3.21972102e-01 3.22701186e-01 3.23430240e-01 3.24159294e-01 3.24888349e-01 3.25617433e-01 3.26346487e-01 3.27075541e-01 3.27804625e-01 3.28533679e-01 3.29262733e-01 3.29991788e-01 3.30720872e-01 3.31449926e-01 3.32178980e-01 3.32908034e-01 3.33637118e-01 3.34366173e-01 3.35095227e-01 3.35824311e-01 3.36553365e-01 3.37282419e-01 3.38011473e-01 3.38740557e-01 3.39469612e-01 3.40198666e-01 3.40927720e-01 3.41656804e-01 3.42385858e-01 3.43114913e-01 3.43843967e-01 3.44573051e-01 3.45302105e-01 3.46031159e-01 3.46760243e-01 3.47489297e-01 3.48218352e-01 3.48947406e-01 3.49676490e-01 3.50405544e-01 3.51134598e-01 3.51863652e-01 3.52592736e-01 3.53321791e-01 3.54050845e-01 3.54779929e-01 3.55508983e-01 3.56238037e-01 3.56967092e-01 3.57696176e-01 3.58425230e-01 3.59154284e-01 3.59883338e-01 3.60612422e-01 3.61341476e-01 3.62070531e-01 3.62799585e-01 3.63528669e-01 3.64257723e-01 3.64986777e-01 3.65715861e-01 3.66444916e-01 3.67173970e-01 3.67903024e-01 3.68632108e-01 3.69361162e-01 3.70090216e-01 3.70819271e-01 3.71548355e-01 3.72277409e-01 3.73006463e-01 3.73735547e-01 3.74464601e-01 3.75193655e-01 3.75922710e-01 3.76651794e-01 3.77380848e-01 3.78109902e-01 3.78838956e-01 3.79568040e-01 3.80297095e-01 3.81026149e-01 3.81755203e-01 3.82484287e-01 3.83213341e-01 3.83942395e-01 3.84671479e-01 3.85400534e-01 3.86129588e-01 3.86858642e-01 3.87587726e-01 3.88316780e-01 3.89045835e-01 3.89774889e-01 3.90503973e-01 3.91233027e-01 3.91962081e-01 3.92691165e-01 3.93420219e-01 3.94149274e-01 3.94878328e-01 3.95607412e-01 3.96336466e-01 3.97065520e-01 3.97794574e-01 3.98523659e-01 3.99252713e-01 3.99981767e-01 4.00710821e-01 4.01439905e-01 4.02168959e-01 4.02898014e-01 4.03627098e-01 4.04356152e-01 4.05085206e-01 4.05814260e-01 4.06543344e-01 4.07272398e-01 4.08001453e-01 4.08730507e-01 4.09459591e-01 4.10188645e-01 4.10917699e-01 4.11646783e-01 4.12375838e-01 4.13104892e-01 4.13833946e-01 4.14563030e-01 4.15292084e-01 4.16021138e-01 4.16750193e-01 4.17479277e-01 4.18208331e-01 4.18937385e-01 4.19666439e-01 4.20395523e-01 4.21124578e-01 4.21853632e-01 4.22582716e-01 4.23311770e-01 4.24040824e-01 4.24769878e-01 4.25498962e-01 4.26228017e-01 4.26957071e-01 4.27686125e-01 4.28415209e-01 4.29144263e-01 4.29873317e-01 4.30602401e-01 4.31331456e-01 4.32060510e-01 4.32789564e-01 4.33518648e-01 4.34247702e-01 4.34976757e-01 4.35705811e-01 4.36434895e-01 4.37163949e-01 4.37893003e-01 4.38622087e-01 4.39351141e-01 4.40080196e-01 4.40809250e-01 4.41538334e-01 4.42267388e-01 4.42996442e-01 4.43725497e-01 4.44454581e-01 4.45183635e-01 4.45912689e-01 4.46641743e-01 4.47370827e-01 4.48099881e-01 4.48828936e-01 4.49558020e-01 4.50287074e-01 4.51016128e-01 4.51745182e-01 4.52474266e-01 4.53203321e-01 4.53932375e-01 4.54661429e-01 4.55390513e-01 4.56119567e-01 4.56848621e-01 4.57577705e-01 4.58306760e-01 4.59035814e-01 4.59764868e-01 4.60493952e-01 4.61223006e-01 4.61952060e-01 4.62681115e-01 4.63410199e-01 4.64139253e-01 4.64868307e-01 4.65597361e-01 4.66326445e-01 4.67055500e-01 4.67784554e-01 4.68513638e-01 4.69242692e-01 4.69971746e-01 4.70700800e-01 4.71429884e-01 4.72158939e-01 4.72887993e-01 4.73617047e-01 4.74346131e-01 4.75075185e-01 4.75804240e-01 4.76533324e-01 4.77262378e-01 4.77991432e-01 4.78720486e-01 4.79449570e-01 4.80178624e-01 4.80907679e-01 4.81636733e-01 4.82365817e-01 4.83094871e-01 4.83823925e-01 4.84552979e-01 4.85282063e-01 4.86011118e-01 4.86740172e-01 4.87469256e-01 4.88198310e-01 4.88927364e-01 4.89656419e-01 4.90385503e-01 4.91114557e-01 4.91843611e-01 4.92572665e-01 4.93301749e-01 4.94030803e-01 4.94759858e-01 4.95488942e-01 4.96217996e-01 4.96947050e-01 4.97676104e-01 4.98405188e-01 4.99134243e-01 4.99863297e-01 5.00592351e-01 5.01321435e-01 5.02050459e-01 5.02779543e-01 5.03508627e-01 5.04237652e-01 5.04966736e-01 5.05695820e-01 5.06424844e-01 5.07153928e-01 5.07883012e-01 5.08612037e-01 5.09341121e-01 5.10070145e-01 5.10799229e-01 5.11528313e-01 5.12257338e-01 5.12986422e-01 5.13715506e-01 5.14444530e-01 5.15173614e-01 5.15902698e-01 5.16631722e-01 5.17360806e-01 5.18089831e-01 5.18818915e-01 5.19547999e-01 5.20277023e-01 5.21006107e-01 5.21735191e-01 5.22464216e-01 5.23193300e-01 5.23922384e-01 5.24651408e-01 5.25380492e-01 5.26109517e-01 5.26838601e-01 5.27567685e-01 5.28296709e-01 5.29025793e-01 5.29754877e-01 5.30483902e-01 5.31212986e-01 5.31942010e-01 5.32671094e-01 5.33400178e-01 5.34129202e-01 5.34858286e-01 5.35587370e-01 5.36316395e-01 5.37045479e-01 5.37774563e-01 5.38503587e-01 5.39232671e-01 5.39961696e-01 5.40690780e-01 5.41419864e-01 5.42148888e-01 5.42877972e-01 5.43607056e-01 5.44336081e-01 5.45065165e-01 5.45794249e-01 5.46523273e-01 5.47252357e-01 5.47981381e-01 5.48710465e-01 5.49439549e-01 5.50168574e-01 5.50897658e-01 5.51626742e-01 5.52355766e-01 5.53084850e-01 5.53813934e-01 5.54542959e-01 5.55272043e-01 5.56001067e-01 5.56730151e-01 5.57459235e-01 5.58188260e-01 5.58917344e-01 5.59646428e-01 5.60375452e-01 5.61104536e-01 5.61833620e-01 5.62562644e-01 5.63291728e-01 5.64020753e-01 5.64749837e-01 5.65478921e-01 5.66207945e-01 5.66937029e-01 5.67666113e-01 5.68395138e-01 5.69124222e-01 5.69853306e-01 5.70582330e-01 5.71311414e-01 5.72040439e-01 5.72769523e-01 5.73498607e-01 5.74227631e-01 5.74956715e-01 5.75685799e-01 5.76414824e-01 5.77143908e-01 5.77872932e-01 5.78602016e-01 5.79331100e-01 5.80060124e-01 5.80789208e-01 5.81518292e-01 5.82247317e-01 5.82976401e-01 5.83705485e-01 5.84434509e-01 5.85163593e-01 5.85892618e-01 5.86621702e-01 5.87350786e-01 5.88079810e-01 5.88808894e-01 5.89537978e-01 5.90267003e-01 5.90996087e-01 5.91725171e-01 5.92454195e-01 5.93183279e-01 5.93912303e-01 5.94641387e-01 5.95370471e-01 5.96099496e-01 5.96828580e-01 5.97557664e-01 5.98286688e-01 5.99015772e-01 5.99744856e-01 6.00473881e-01 6.01202965e-01 6.01931989e-01 6.02661073e-01 6.03390157e-01 6.04119182e-01 6.04848266e-01 6.05577350e-01 6.06306374e-01 6.07035458e-01 6.07764542e-01 6.08493567e-01 6.09222651e-01 6.09951675e-01 6.10680759e-01 6.11409843e-01 6.12138867e-01 6.12867951e-01 6.13597035e-01 6.14326060e-01 6.15055144e-01 6.15784168e-01 6.16513252e-01 6.17242336e-01 6.17971361e-01 6.18700445e-01 6.19429529e-01 6.20158553e-01 6.20887637e-01 6.21616721e-01 6.22345746e-01 6.23074830e-01 6.23803854e-01 6.24532938e-01 6.25262022e-01 6.25991046e-01 6.26720130e-01 6.27449214e-01 6.28178239e-01 6.28907323e-01 6.29636407e-01 6.30365431e-01 6.31094515e-01 6.31823540e-01 6.32552624e-01 6.33281708e-01 6.34010732e-01 6.34739816e-01 6.35468900e-01 6.36197925e-01 6.36927009e-01 6.37656093e-01 6.38385117e-01 6.39114201e-01 6.39843225e-01 6.40572309e-01 6.41301394e-01 6.42030418e-01 6.42759502e-01 6.43488586e-01 6.44217610e-01 6.44946694e-01 6.45675778e-01 6.46404803e-01 6.47133887e-01 6.47862911e-01 6.48591995e-01 6.49321079e-01 6.50050104e-01 6.50779188e-01 6.51508272e-01 6.52237296e-01 6.52966380e-01 6.53695405e-01 6.54424489e-01 6.55153573e-01 6.55882597e-01 6.56611681e-01 6.57340765e-01 6.58069789e-01 6.58798873e-01 6.59527957e-01 6.60256982e-01 6.60986066e-01 6.61715090e-01 6.62444174e-01 6.63173258e-01 6.63902283e-01 6.64631367e-01 6.65360451e-01 6.66089475e-01 6.66818559e-01 6.67547643e-01 6.68276668e-01 6.69005752e-01 6.69734776e-01 6.70463860e-01 6.71192944e-01 6.71921968e-01 6.72651052e-01 6.73380136e-01 6.74109161e-01 6.74838245e-01 6.75567329e-01 6.76296353e-01 6.77025437e-01 6.77754462e-01 6.78483546e-01 6.79212630e-01 6.79941654e-01 6.80670738e-01 6.81399822e-01 6.82128847e-01 6.82857931e-01 6.83587015e-01 6.84316039e-01 6.85045123e-01 6.85774148e-01 6.86503232e-01 6.87232316e-01 6.87961340e-01 6.88690424e-01 6.89419508e-01 6.90148532e-01 6.90877616e-01 6.91606700e-01 6.92335725e-01 6.93064809e-01 6.93793833e-01 6.94522917e-01 6.95252001e-01 6.95981026e-01 6.96710110e-01 6.97439194e-01 6.98168218e-01 6.98897302e-01 6.99626327e-01 7.00355411e-01 7.01084495e-01 7.01813519e-01 7.02542603e-01 7.03271687e-01 7.04000711e-01 7.04729795e-01 7.05458879e-01 7.06187904e-01 7.06916988e-01 7.07646012e-01 7.08375096e-01 7.09104180e-01 7.09833205e-01 7.10562289e-01 7.11291373e-01 7.12020397e-01 7.12749481e-01 7.13478565e-01 7.14207590e-01 7.14936674e-01 7.15665698e-01 7.16394782e-01 7.17123866e-01 7.17852890e-01 7.18581975e-01 7.19311059e-01 7.20040083e-01 7.20769167e-01 7.21498251e-01 7.22227275e-01 7.22956359e-01 7.23685384e-01 7.24414468e-01 7.25143552e-01 7.25872576e-01 7.26601660e-01 7.27330744e-01 7.28059769e-01 7.28788853e-01 7.29517937e-01 7.30246961e-01 7.30976045e-01 7.31705070e-01 7.32434154e-01 7.33163238e-01 7.33892262e-01 7.34621346e-01 7.35350430e-01 7.36079454e-01 7.36808538e-01 7.37537563e-01 7.38266647e-01 7.38995731e-01 7.39724755e-01 7.40453839e-01 7.41182923e-01 7.41911948e-01 7.42641032e-01 7.43370116e-01 7.44099140e-01 7.44828224e-01 7.45557249e-01 7.46286333e-01 7.47015417e-01 7.47744441e-01 7.48473525e-01 7.49202609e-01 7.49931633e-01 7.50660717e-01 7.51389802e-01 7.52118826e-01 7.52847910e-01 7.53576934e-01 7.54306018e-01 7.55035102e-01 7.55764127e-01 7.56493211e-01 7.57222295e-01 7.57951319e-01 7.58680403e-01 7.59409487e-01 7.60138512e-01 7.60867596e-01 7.61596620e-01 7.62325704e-01 7.63054788e-01 7.63783813e-01 7.64512897e-01 7.65241981e-01 7.65971005e-01 7.66700089e-01 7.67429173e-01 7.68158197e-01 7.68887281e-01 7.69616306e-01 7.70345390e-01 7.71074474e-01 7.71803498e-01 7.72532582e-01 7.73261666e-01 7.73990691e-01 7.74719775e-01 7.75448859e-01 7.76177883e-01 7.76906967e-01 7.77635992e-01 7.78365076e-01 7.79094160e-01 7.79823184e-01 7.80552268e-01 7.81281352e-01 7.82010376e-01 7.82739460e-01 7.83468485e-01 7.84197569e-01 7.84926653e-01 7.85655677e-01 7.86384761e-01 7.87113845e-01 7.87842870e-01 7.88571954e-01 7.89301038e-01 7.90030062e-01 7.90759146e-01 7.91488171e-01 7.92217255e-01 7.92946339e-01 7.93675363e-01 7.94404447e-01 7.95133531e-01 7.95862556e-01 7.96591640e-01 7.97320724e-01 7.98049748e-01 7.98778832e-01 7.99507856e-01 8.00236940e-01 8.00966024e-01 8.01695049e-01 8.02424133e-01 8.03153217e-01 8.03882241e-01 8.04611325e-01 8.05340409e-01 8.06069434e-01 8.06798518e-01 8.07527542e-01 8.08256626e-01 8.08985710e-01 8.09714735e-01 8.10443819e-01 8.11172903e-01 8.11901927e-01 8.12631011e-01 8.13360095e-01 8.14089119e-01 8.14818203e-01 8.15547228e-01 8.16276312e-01 8.17005396e-01 8.17734420e-01 8.18463504e-01 8.19192588e-01 8.19921613e-01 8.20650697e-01 8.21379721e-01 8.22108805e-01 8.22837889e-01 8.23566914e-01 8.24295998e-01 8.25025082e-01 8.25754106e-01 8.26483190e-01 8.27212274e-01 8.27941298e-01 8.28670382e-01 8.29399407e-01 8.30128491e-01 8.30857575e-01 8.31586599e-01 8.32315683e-01 8.33044767e-01 8.33773792e-01 8.34502876e-01 8.35231960e-01 8.35960984e-01 8.36690068e-01 8.37419093e-01 8.38148177e-01 8.38877261e-01 8.39606285e-01 8.40335369e-01 8.41064453e-01 8.41793478e-01 8.42522562e-01 8.43251646e-01 8.43980670e-01 8.44709754e-01 8.45438778e-01 8.46167862e-01 8.46896946e-01 8.47625971e-01 8.48355055e-01 8.49084139e-01 8.49813163e-01 8.50542247e-01 8.51271331e-01 8.52000356e-01 8.52729440e-01 8.53458464e-01 8.54187548e-01 8.54916632e-01 8.55645657e-01 8.56374741e-01 8.57103825e-01 8.57832849e-01 8.58561933e-01 8.59290957e-01 8.60020041e-01 8.60749125e-01 8.61478150e-01 8.62207234e-01 8.62936318e-01 8.63665342e-01 8.64394426e-01 8.65123510e-01 8.65852535e-01 8.66581619e-01 8.67310643e-01 8.68039727e-01 8.68768811e-01 8.69497836e-01 8.70226920e-01 8.70956004e-01 8.71685028e-01 8.72414112e-01 8.73143196e-01 8.73872221e-01 8.74601305e-01 8.75330329e-01 8.76059413e-01 8.76788497e-01 8.77517521e-01 8.78246605e-01 8.78975689e-01 8.79704714e-01 8.80433798e-01 8.81162882e-01 8.81891906e-01 8.82620990e-01 8.83350015e-01 8.84079099e-01 8.84808183e-01 8.85537207e-01 8.86266291e-01 8.86995375e-01 8.87724400e-01 8.88453484e-01 8.89182568e-01 8.89911592e-01 8.90640676e-01 8.91369700e-01 8.92098784e-01 8.92827868e-01 8.93556893e-01 8.94285977e-01 8.95015061e-01 8.95744085e-01 8.96473169e-01 8.97202253e-01 8.97931278e-01 8.98660362e-01 8.99389386e-01 9.00118470e-01 9.00847554e-01 9.01576579e-01 9.02305663e-01 9.03034747e-01 9.03763771e-01 9.04492855e-01 9.05221879e-01 9.05950963e-01 9.06680048e-01 9.07409072e-01 9.08138156e-01 9.08867240e-01 9.09596264e-01 9.10325348e-01 9.11054432e-01 9.11783457e-01 9.12512541e-01 9.13241565e-01 9.13970649e-01 9.14699733e-01 9.15428758e-01 9.16157842e-01 9.16886926e-01 9.17615950e-01 9.18345034e-01 9.19074118e-01 9.19803143e-01 9.20532227e-01 9.21261251e-01 9.21990335e-01 9.22719419e-01 9.23448443e-01 9.24177527e-01 9.24906611e-01 9.25635636e-01 9.26364720e-01 9.27093804e-01 9.27822828e-01 9.28551912e-01 9.29280937e-01 9.30010021e-01 9.30739105e-01 9.31468129e-01 9.32197213e-01 9.32926297e-01 9.33655322e-01 9.34384406e-01 9.35113490e-01 9.35842514e-01 9.36571598e-01 9.37300622e-01 9.38029706e-01 9.38758790e-01 9.39487815e-01 9.40216899e-01 9.40945983e-01 9.41675007e-01 9.42404091e-01 9.43133116e-01 9.43862200e-01 9.44591284e-01 9.45320308e-01 9.46049392e-01 9.46778476e-01 9.47507501e-01 9.48236585e-01 9.48965669e-01 9.49694693e-01 9.50423777e-01 9.51152802e-01 9.51881886e-01 9.52610970e-01 9.53339994e-01 9.54069078e-01 9.54798162e-01 9.55527186e-01 9.56256270e-01 9.56985354e-01 9.57714379e-01 9.58443463e-01 9.59172487e-01 9.59901571e-01 9.60630655e-01 9.61359680e-01 9.62088764e-01 9.62817848e-01 9.63546872e-01 9.64275956e-01 9.65005040e-01 9.65734065e-01 9.66463149e-01 9.67192173e-01 9.67921257e-01 9.68650341e-01 9.69379365e-01 9.70108449e-01 9.70837533e-01 9.71566558e-01 9.72295642e-01 9.73024726e-01 9.73753750e-01 9.74482834e-01 9.75211859e-01 9.75940943e-01 9.76670027e-01 9.77399051e-01 9.78128135e-01 9.78857219e-01 9.79586244e-01 9.80315328e-01 9.81044352e-01 9.81773436e-01 9.82502520e-01 9.83231544e-01 9.83960629e-01 9.84689713e-01 9.85418737e-01 9.86147821e-01 9.86876905e-01 9.87605929e-01 9.88335013e-01 9.89064038e-01 9.89793122e-01 9.90522206e-01 9.91251230e-01 9.91980314e-01 9.92709398e-01 9.93438423e-01 9.94167507e-01 9.94896591e-01 9.95625615e-01 9.96354699e-01 9.97083724e-01 9.97812808e-01 9.98541892e-01 9.99270916e-01 1.00000000e+00 
            </Histogram>
            <HistogramBinning NBins="1372">
              6.64604330e+00 6.64614344e+00 7.90895939e+00 8.23819160e+00 8.42227077e+00 8.53262234e+00 8.62756157e+00 8.68264484e+00 8.75767612e+00 8.78709507e+00 8.80691338e+00 8.83704662e+00 8.87532902e+00 8.91701221e+00 8.94810677e+00 8.97402954e+00 8.98920250e+00 9.00019741e+00 9.01687145e+00 9.04017162e+00 9.05750847e+00 9.07370377e+00 9.09662628e+00 9.10927773e+00 9.13572884e+00 9.14710522e+00 9.16653824e+00 9.17865562e+00 9.19662666e+00 9.20604706e+00 9.21797466e+00 9.23158169e+00 9.24526787e+00 9.25448132e+00 9.26025867e+00 9.26516533e+00 9.28045750e+00 9.28882599e+00 9.29485893e+00 9.30487633e+00 9.31707668e+00 9.32437038e+00 9.33303452e+00 9.33978271e+00 9.34580994e+00 9.35313797e+00 9.36180305e+00 9.36487675e+00 9.37062931e+00 9.37596416e+00 9.37886143e+00 9.38367367e+00 9.39199638e+00 9.39921951e+00 9.40342140e+00 9.41036606e+00 9.41698170e+00 9.42388058e+00 9.42840385e+00 9.43315315e+00 9.43783379e+00 9.44392395e+00 9.44905949e+00 9.45437813e+00 9.45836163e+00 9.46401310e+00 9.46908379e+00 9.47351551e+00 9.47630501e+00 9.48101997e+00 9.48839569e+00 9.49480057e+00 9.49967289e+00 9.50399113e+00 9.50904465e+00 9.51277161e+00 9.51718998e+00 9.52093410e+00 9.52527618e+00 9.53263760e+00 9.53500843e+00 9.53893185e+00 9.54529381e+00 9.54992867e+00 9.55477524e+00 9.55925179e+00 9.56151962e+00 9.56746960e+00 9.57060909e+00 9.57495594e+00 9.58063889e+00 9.58423901e+00 9.58679199e+00 9.59293270e+00 9.59662628e+00 9.59962463e+00 9.60110760e+00 9.60445881e+00 9.60754108e+00 9.60981750e+00 9.61152363e+00 9.61331272e+00 9.62107182e+00 9.62372017e+00 9.62570763e+00 9.62952805e+00 9.63072872e+00 9.63380337e+00 9.63616848e+00 9.63876724e+00 9.64221668e+00 9.64582920e+00 9.64942455e+00 9.65305042e+00 9.65508747e+00 9.65802479e+00 9.66163540e+00 9.66430283e+00 9.66720772e+00 9.66848469e+00 9.67117977e+00 9.67383766e+00 9.67724133e+00 9.67923546e+00 9.68226910e+00 9.68538284e+00 9.68757820e+00 9.68955898e+00 9.69316673e+00 9.69465733e+00 9.69720173e+00 9.69924355e+00 9.70149040e+00 9.70494270e+00 9.70754433e+00 9.71152687e+00 9.71353912e+00 9.71759033e+00 9.71972084e+00 9.72321510e+00 9.72464752e+00 9.72710991e+00 9.72924519e+00 9.73247528e+00 9.73495197e+00 9.73721218e+00 9.73956585e+00 9.74117661e+00 9.74344635e+00 9.74558735e+00 9.74975204e+00 9.75107861e+00 9.75379467e+00 9.75624275e+00 9.75776577e+00 9.76047802e+00 9.76285458e+00 9.76550007e+00 9.76892471e+00 9.77217865e+00 9.77493954e+00 9.77717590e+00 9.77864361e+00 9.78272152e+00 9.78438377e+00 9.78644371e+00 9.78953075e+00 9.79111576e+00 9.79233932e+00 9.79390812e+00 9.79603291e+00 9.79755688e+00 9.79933167e+00 9.80189037e+00 9.80336094e+00 9.80510998e+00 9.80775452e+00 9.81074715e+00 9.81359863e+00 9.81594944e+00 9.81802464e+00 9.81881046e+00 9.82128048e+00 9.82271194e+00 9.82567596e+00 9.82756519e+00 9.82927799e+00 9.83219719e+00 9.83516121e+00 9.83689404e+00 9.83830547e+00 9.83999920e+00 9.84138584e+00 9.84234810e+00 9.84445000e+00 9.84692860e+00 9.84809589e+00 9.85006618e+00 9.85208988e+00 9.85449982e+00 9.85608768e+00 9.85707760e+00 9.85834694e+00 9.85995865e+00 9.86119080e+00 9.86209679e+00 9.86311913e+00 9.86487865e+00 9.86847305e+00 9.87034035e+00 9.87132263e+00 9.87255287e+00 9.87485790e+00 9.87630558e+00 9.87813473e+00 9.87922573e+00 9.88108635e+00 9.88265038e+00 9.88446903e+00 9.88657856e+00 9.88782978e+00 9.89028931e+00 9.89182758e+00 9.89350700e+00 9.89619160e+00 9.89826679e+00 9.89976311e+00 9.90164280e+00 9.90318680e+00 9.90487289e+00 9.90555954e+00 9.90728378e+00 9.90904999e+00 9.91163921e+00 9.91281796e+00 9.91453457e+00 9.91607571e+00 9.91755390e+00 9.91899776e+00 9.92174625e+00 9.92285061e+00 9.92445850e+00 9.92559242e+00 9.92659760e+00 9.92886543e+00 9.93040752e+00 9.93217564e+00 9.93334579e+00 9.93416691e+00 9.93552971e+00 9.93722820e+00 9.93878937e+00 9.94020367e+00 9.94152546e+00 9.94321537e+00 9.94476414e+00 9.94641018e+00 9.94753742e+00 9.94893742e+00 9.95047283e+00 9.95237160e+00 9.95411110e+00 9.95578480e+00 9.95780182e+00 9.95918179e+00 9.96145248e+00 9.96333599e+00 9.96461010e+00 9.96581268e+00 9.96791840e+00 9.96931171e+00 9.97120762e+00 9.97256088e+00 9.97364140e+00 9.97551155e+00 9.97725296e+00 9.97832394e+00 9.97923279e+00 9.98041630e+00 9.98219013e+00 9.98336029e+00 9.98450565e+00 9.98574162e+00 9.98642826e+00 9.98708534e+00 9.98889446e+00 9.99005413e+00 9.99067497e+00 9.99157429e+00 9.99273682e+00 9.99438572e+00 9.99595261e+00 9.99733162e+00 9.99925613e+00 1.00007515e+01 1.00017138e+01 1.00027342e+01 1.00044804e+01 1.00053349e+01 1.00066109e+01 1.00076742e+01 1.00086279e+01 1.00099831e+01 1.00116434e+01 1.00127859e+01 1.00142679e+01 1.00149918e+01 1.00162048e+01 1.00172377e+01 1.00187988e+01 1.00202255e+01 1.00212889e+01 1.00229921e+01 1.00242443e+01 1.00256424e+01 1.00265894e+01 1.00279856e+01 1.00295515e+01 1.00309906e+01 1.00324316e+01 1.00340147e+01 1.00357456e+01 1.00373802e+01 1.00395174e+01 1.00412359e+01 1.00423326e+01 1.00432549e+01 1.00443869e+01 1.00450220e+01 1.00462332e+01 1.00475445e+01 1.00486670e+01 1.00500546e+01 1.00505037e+01 1.00511656e+01 1.00523939e+01 1.00542364e+01 1.00553360e+01 1.00560989e+01 1.00573130e+01 1.00584860e+01 1.00599184e+01 1.00612955e+01 1.00624037e+01 1.00631599e+01 1.00644779e+01 1.00661507e+01 1.00671692e+01 1.00690937e+01 1.00700798e+01 1.00710316e+01 1.00726604e+01 1.00742035e+01 1.00753403e+01 1.00776567e+01 1.00790539e+01 1.00797911e+01 1.00816689e+01 1.00830345e+01 1.00844660e+01 1.00853519e+01 1.00867529e+01 1.00874834e+01 1.00886011e+01 1.00908966e+01 1.00925121e+01 1.00933943e+01 1.00940056e+01 1.00947542e+01 1.00954742e+01 1.00963879e+01 1.00974398e+01 1.00991173e+01 1.01003275e+01 1.01015272e+01 1.01026373e+01 1.01037092e+01 1.01050024e+01 1.01057978e+01 1.01073074e+01 1.01088381e+01 1.01099520e+01 1.01112585e+01 1.01123161e+01 1.01136560e+01 1.01154127e+01 1.01166773e+01 1.01186485e+01 1.01200876e+01 1.01221256e+01 1.01231127e+01 1.01243238e+01 1.01254787e+01 1.01268654e+01 1.01281357e+01 1.01295233e+01 1.01306057e+01 1.01321249e+01 1.01331387e+01 1.01341887e+01 1.01358385e+01 1.01379681e+01 1.01395206e+01 1.01410666e+01 1.01426926e+01 1.01439009e+01 1.01450844e+01 1.01462831e+01 1.01472263e+01 1.01486740e+01 1.01500320e+01 1.01506224e+01 1.01525555e+01 1.01534023e+01 1.01547070e+01 1.01556320e+01 1.01564150e+01 1.01575499e+01 1.01585865e+01 1.01596870e+01 1.01602688e+01 1.01612053e+01 1.01629181e+01 1.01643381e+01 1.01652164e+01 1.01661825e+01 1.01670351e+01 1.01681137e+01 1.01691303e+01 1.01700182e+01 1.01712265e+01 1.01725073e+01 1.01737509e+01 1.01746864e+01 1.01756964e+01 1.01775703e+01 1.01784792e+01 1.01791334e+01 1.01803360e+01 1.01815882e+01 1.01828423e+01 1.01839485e+01 1.01849642e+01 1.01860495e+01 1.01871700e+01 1.01880932e+01 1.01892891e+01 1.01899490e+01 1.01910763e+01 1.01918259e+01 1.01928320e+01 1.01938057e+01 1.01947317e+01 1.01955824e+01 1.01967487e+01 1.01979017e+01 1.01994514e+01 1.01999559e+01 1.02008438e+01 1.02015676e+01 1.02025928e+01 1.02032919e+01 1.02043219e+01 1.02060108e+01 1.02070131e+01 1.02078562e+01 1.02088585e+01 1.02103252e+01 1.02113714e+01 1.02126513e+01 1.02138233e+01 1.02146635e+01 1.02157717e+01 1.02171249e+01 1.02192116e+01 1.02204313e+01 1.02213755e+01 1.02222233e+01 1.02236881e+01 1.02248325e+01 1.02258396e+01 1.02269564e+01 1.02278929e+01 1.02285786e+01 1.02294264e+01 1.02304068e+01 1.02317381e+01 1.02339916e+01 1.02348661e+01 1.02353783e+01 1.02364111e+01 1.02376108e+01 1.02391434e+01 1.02404146e+01 1.02411261e+01 1.02426109e+01 1.02433424e+01 1.02445326e+01 1.02448540e+01 1.02461767e+01 1.02472792e+01 1.02487411e+01 1.02495184e+01 1.02501192e+01 1.02508736e+01 1.02518759e+01 1.02538776e+01 1.02550535e+01 1.02564316e+01 1.02573395e+01 1.02590322e+01 1.02606239e+01 1.02615299e+01 1.02624226e+01 1.02638149e+01 1.02649698e+01 1.02662621e+01 1.02681684e+01 1.02686367e+01 1.02696962e+01 1.02709436e+01 1.02716303e+01 1.02730999e+01 1.02743168e+01 1.02751045e+01 1.02767973e+01 1.02780399e+01 1.02794065e+01 1.02810154e+01 1.02817488e+01 1.02824984e+01 1.02839108e+01 1.02845421e+01 1.02854290e+01 1.02861719e+01 1.02871494e+01 1.02877378e+01 1.02894230e+01 1.02911015e+01 1.02923040e+01 1.02930212e+01 1.02936668e+01 1.02944822e+01 1.02954245e+01 1.02967892e+01 1.02981348e+01 1.02993584e+01 1.03003569e+01 1.03020697e+01 1.03031473e+01 1.03042173e+01 1.03052111e+01 1.03065119e+01 1.03076897e+01 1.03081656e+01 1.03095789e+01 1.03102293e+01 1.03109922e+01 1.03120604e+01 1.03132257e+01 1.03141079e+01 1.03153067e+01 1.03165617e+01 1.03174715e+01 1.03186617e+01 1.03197451e+01 1.03205967e+01 1.03217649e+01 1.03229799e+01 1.03233414e+01 1.03243608e+01 1.03252354e+01 1.03263693e+01 1.03272734e+01 1.03283262e+01 1.03293533e+01 1.03303537e+01 1.03308115e+01 1.03320103e+01 1.03336277e+01 1.03344584e+01 1.03357277e+01 1.03368111e+01 1.03378553e+01 1.03388290e+01 1.03401308e+01 1.03413773e+01 1.03418941e+01 1.03431578e+01 1.03438330e+01 1.03449469e+01 1.03462114e+01 1.03480186e+01 1.03488665e+01 1.03495836e+01 1.03502836e+01 1.03509035e+01 1.03520765e+01 1.03531561e+01 1.03540449e+01 1.03548632e+01 1.03559542e+01 1.03567095e+01 1.03576469e+01 1.03588953e+01 1.03599253e+01 1.03605442e+01 1.03620462e+01 1.03641710e+01 1.03656397e+01 1.03670635e+01 1.03677425e+01 1.03688850e+01 1.03699989e+01 1.03711090e+01 1.03730288e+01 1.03740416e+01 1.03750563e+01 1.03761930e+01 1.03772497e+01 1.03782816e+01 1.03794060e+01 1.03803864e+01 1.03816290e+01 1.03827229e+01 1.03839092e+01 1.03845892e+01 1.03854122e+01 1.03860102e+01 1.03870745e+01 1.03886518e+01 1.03891525e+01 1.03901730e+01 1.03914976e+01 1.03923340e+01 1.03933945e+01 1.03942595e+01 1.03953514e+01 1.03964901e+01 1.03975763e+01 1.03989954e+01 1.04001846e+01 1.04012032e+01 1.04024029e+01 1.04037142e+01 1.04046602e+01 1.04053640e+01 1.04063730e+01 1.04070787e+01 1.04081573e+01 1.04091549e+01 1.04111662e+01 1.04120178e+01 1.04131851e+01 1.04141788e+01 1.04146128e+01 1.04158249e+01 1.04167376e+01 1.04179440e+01 1.04195929e+01 1.04207697e+01 1.04221468e+01 1.04233093e+01 1.04243908e+01 1.04253235e+01 1.04261274e+01 1.04269390e+01 1.04274530e+01 1.04286947e+01 1.04297352e+01 1.04305382e+01 1.04315939e+01 1.04329662e+01 1.04337845e+01 1.04349012e+01 1.04364223e+01 1.04384251e+01 1.04395857e+01 1.04402695e+01 1.04426203e+01 1.04438982e+01 1.04448137e+01 1.04455957e+01 1.04467583e+01 1.04479246e+01 1.04498816e+01 1.04505157e+01 1.04512749e+01 1.04522476e+01 1.04535627e+01 1.04542418e+01 1.04555130e+01 1.04563818e+01 1.04573565e+01 1.04585018e+01 1.04592876e+01 1.04607944e+01 1.04616442e+01 1.04630022e+01 1.04638891e+01 1.04652491e+01 1.04659624e+01 1.04671602e+01 1.04687881e+01 1.04700613e+01 1.04708529e+01 1.04717598e+01 1.04725761e+01 1.04741383e+01 1.04748201e+01 1.04753752e+01 1.04761391e+01 1.04768553e+01 1.04778309e+01 1.04789896e+01 1.04801254e+01 1.04813461e+01 1.04823475e+01 1.04837046e+01 1.04847670e+01 1.04859962e+01 1.04869537e+01 1.04881496e+01 1.04891634e+01 1.04900970e+01 1.04914112e+01 1.04935303e+01 1.04941301e+01 1.04960384e+01 1.04970903e+01 1.04978085e+01 1.04986906e+01 1.05001545e+01 1.05015440e+01 1.05027523e+01 1.05038233e+01 1.05048609e+01 1.05061598e+01 1.05076323e+01 1.05085258e+01 1.05097570e+01 1.05108566e+01 1.05124512e+01 1.05132637e+01 1.05142746e+01 1.05153446e+01 1.05162554e+01 1.05172911e+01 1.05184031e+01 1.05192785e+01 1.05204544e+01 1.05214825e+01 1.05225210e+01 1.05232077e+01 1.05249090e+01 1.05264406e+01 1.05278835e+01 1.05287476e+01 1.05305290e+01 1.05317955e+01 1.05329819e+01 1.05344782e+01 1.05349417e+01 1.05361147e+01 1.05365896e+01 1.05377274e+01 1.05386677e+01 1.05398788e+01 1.05411863e+01 1.05423632e+01 1.05431767e+01 1.05439243e+01 1.05448332e+01 1.05458040e+01 1.05467978e+01 1.05483484e+01 1.05496454e+01 1.05504236e+01 1.05514450e+01 1.05523958e+01 1.05544834e+01 1.05554466e+01 1.05560799e+01 1.05565977e+01 1.05580444e+01 1.05602245e+01 1.05612020e+01 1.05621958e+01 1.05637732e+01 1.05645962e+01 1.05656738e+01 1.05666380e+01 1.05676632e+01 1.05687170e+01 1.05697222e+01 1.05709162e+01 1.05723219e+01 1.05742064e+01 1.05749931e+01 1.05760345e+01 1.05769691e+01 1.05780592e+01 1.05789862e+01 1.05804844e+01 1.05817003e+01 1.05826435e+01 1.05838900e+01 1.05846472e+01 1.05856123e+01 1.05863085e+01 1.05879354e+01 1.05888319e+01 1.05899611e+01 1.05912962e+01 1.05929480e+01 1.05940638e+01 1.05953474e+01 1.05963163e+01 1.05978279e+01 1.05991993e+01 1.06002331e+01 1.06014748e+01 1.06029081e+01 1.06037760e+01 1.06049299e+01 1.06055841e+01 1.06067324e+01 1.06076202e+01 1.06081829e+01 1.06089821e+01 1.06104393e+01 1.06122112e+01 1.06132040e+01 1.06141129e+01 1.06152077e+01 1.06155615e+01 1.06164522e+01 1.06175079e+01 1.06189566e+01 1.06205893e+01 1.06210842e+01 1.06230164e+01 1.06243229e+01 1.06255331e+01 1.06269550e+01 1.06284380e+01 1.06297894e+01 1.06306486e+01 1.06317720e+01 1.06333055e+01 1.06347942e+01 1.06361418e+01 1.06379404e+01 1.06396666e+01 1.06401606e+01 1.06415825e+01 1.06431637e+01 1.06445799e+01 1.06460066e+01 1.06472464e+01 1.06482525e+01 1.06496105e+01 1.06508608e+01 1.06515093e+01 1.06523628e+01 1.06533098e+01 1.06542282e+01 1.06551886e+01 1.06566963e+01 1.06576309e+01 1.06587448e+01 1.06605005e+01 1.06614704e+01 1.06632166e+01 1.06644754e+01 1.06662598e+01 1.06674747e+01 1.06685085e+01 1.06693401e+01 1.06706362e+01 1.06716042e+01 1.06731215e+01 1.06739511e+01 1.06752071e+01 1.06762466e+01 1.06778669e+01 1.06795807e+01 1.06818819e+01 1.06830997e+01 1.06840487e+01 1.06852226e+01 1.06863966e+01 1.06881180e+01 1.06895933e+01 1.06918573e+01 1.06936884e+01 1.06945877e+01 1.06955366e+01 1.06979170e+01 1.06997452e+01 1.07015657e+01 1.07025003e+01 1.07035131e+01 1.07050829e+01 1.07056732e+01 1.07071457e+01 1.07086411e+01 1.07105751e+01 1.07119694e+01 1.07142010e+01 1.07169046e+01 1.07176962e+01 1.07186747e+01 1.07196112e+01 1.07211256e+01 1.07224503e+01 1.07238798e+01 1.07254419e+01 1.07268229e+01 1.07286911e+01 1.07294064e+01 1.07302160e+01 1.07308664e+01 1.07315950e+01 1.07332869e+01 1.07340117e+01 1.07355061e+01 1.07363777e+01 1.07372818e+01 1.07385721e+01 1.07395782e+01 1.07412214e+01 1.07435713e+01 1.07449675e+01 1.07458458e+01 1.07469988e+01 1.07482471e+01 1.07507257e+01 1.07530298e+01 1.07544384e+01 1.07560520e+01 1.07577448e+01 1.07589045e+01 1.07600613e+01 1.07613220e+01 1.07623024e+01 1.07632170e+01 1.07642736e+01 1.07657185e+01 1.07674942e+01 1.07695084e+01 1.07702618e+01 1.07713194e+01 1.07723169e+01 1.07740450e+01 1.07750177e+01 1.07769594e+01 1.07781763e+01 1.07792397e+01 1.07809219e+01 1.07827482e+01 1.07835646e+01 1.07852583e+01 1.07867031e+01 1.07888861e+01 1.07904816e+01 1.07915916e+01 1.07932320e+01 1.07945299e+01 1.07951565e+01 1.07974997e+01 1.07994900e+01 1.08014746e+01 1.08025436e+01 1.08033609e+01 1.08043737e+01 1.08053141e+01 1.08068943e+01 1.08081617e+01 1.08105650e+01 1.08120136e+01 1.08130493e+01 1.08154860e+01 1.08171396e+01 1.08190165e+01 1.08197079e+01 1.08214397e+01 1.08228798e+01 1.08244400e+01 1.08260555e+01 1.08273182e+01 1.08294735e+01 1.08324022e+01 1.08331747e+01 1.08349047e+01 1.08364697e+01 1.08379354e+01 1.08395805e+01 1.08426266e+01 1.08440704e+01 1.08462038e+01 1.08476353e+01 1.08495932e+01 1.08512497e+01 1.08525162e+01 1.08542395e+01 1.08562632e+01 1.08582926e+01 1.08599129e+01 1.08603964e+01 1.08613100e+01 1.08630486e+01 1.08646164e+01 1.08664341e+01 1.08685799e+01 1.08700151e+01 1.08728371e+01 1.08739948e+01 1.08758783e+01 1.08773012e+01 1.08794041e+01 1.08807764e+01 1.08826218e+01 1.08837013e+01 1.08859539e+01 1.08877850e+01 1.08893986e+01 1.08904648e+01 1.08920956e+01 1.08935385e+01 1.08957291e+01 1.08968248e+01 1.08984022e+01 1.08995428e+01 1.09009771e+01 1.09031048e+01 1.09050360e+01 1.09065342e+01 1.09082193e+01 1.09111214e+01 1.09131308e+01 1.09154329e+01 1.09176130e+01 1.09186668e+01 1.09197741e+01 1.09215927e+01 1.09236155e+01 1.09255047e+01 1.09263077e+01 1.09286270e+01 1.09312744e+01 1.09331913e+01 1.09344339e+01 1.09363365e+01 1.09375601e+01 1.09399452e+01 1.09426556e+01 1.09448986e+01 1.09460135e+01 1.09477177e+01 1.09497299e+01 1.09516907e+01 1.09534016e+01 1.09552250e+01 1.09571161e+01 1.09595804e+01 1.09607449e+01 1.09624949e+01 1.09648952e+01 1.09675827e+01 1.09704943e+01 1.09721384e+01 1.09739990e+01 1.09754429e+01 1.09773531e+01 1.09794245e+01 1.09815874e+01 1.09837170e+01 1.09855347e+01 1.09867134e+01 1.09886026e+01 1.09914103e+01 1.09943962e+01 1.09956388e+01 1.09982929e+01 1.10013857e+01 1.10039539e+01 1.10070581e+01 1.10094271e+01 1.10126534e+01 1.10156012e+01 1.10177126e+01 1.10192394e+01 1.10216551e+01 1.10235081e+01 1.10259800e+01 1.10279741e+01 1.10308084e+01 1.10325756e+01 1.10344582e+01 1.10356007e+01 1.10396519e+01 1.10418520e+01 1.10440960e+01 1.10474634e+01 1.10489311e+01 1.10507622e+01 1.10535612e+01 1.10571880e+01 1.10593624e+01 1.10612326e+01 1.10625792e+01 1.10652008e+01 1.10682774e+01 1.10708017e+01 1.10727415e+01 1.10752430e+01 1.10773954e+01 1.10786047e+01 1.10810976e+01 1.10824261e+01 1.10865383e+01 1.10885334e+01 1.10916004e+01 1.10931139e+01 1.10951967e+01 1.10973787e+01 1.10993195e+01 1.11019468e+01 1.11046638e+01 1.11080551e+01 1.11115513e+01 1.11144276e+01 1.11176195e+01 1.11195679e+01 1.11225519e+01 1.11255112e+01 1.11287241e+01 1.11298246e+01 1.11339579e+01 1.11356945e+01 1.11394978e+01 1.11434097e+01 1.11453400e+01 1.11494236e+01 1.11512585e+01 1.11537981e+01 1.11554661e+01 1.11576824e+01 1.11606045e+01 1.11632719e+01 1.11653652e+01 1.11680508e+01 1.11735134e+01 1.11751108e+01 1.11785660e+01 1.11808386e+01 1.11839037e+01 1.11878777e+01 1.11915808e+01 1.11962271e+01 1.12001305e+01 1.12043066e+01 1.12058458e+01 1.12099380e+01 1.12130051e+01 1.12168283e+01 1.12199373e+01 1.12240572e+01 1.12273817e+01 1.12303629e+01 1.12337866e+01 1.12378044e+01 1.12412949e+01 1.12472382e+01 1.12504168e+01 1.12543640e+01 1.12575417e+01 1.12615576e+01 1.12650890e+01 1.12669544e+01 1.12685413e+01 1.12725258e+01 1.12747297e+01 1.12764730e+01 1.12781410e+01 1.12804098e+01 1.12837391e+01 1.12868299e+01 1.12885408e+01 1.12926521e+01 1.12964725e+01 1.12992935e+01 1.13018637e+01 1.13068476e+01 1.13106203e+01 1.13122778e+01 1.13147917e+01 1.13170595e+01 1.13206968e+01 1.13229284e+01 1.13256779e+01 1.13270893e+01 1.13300791e+01 1.13325138e+01 1.13359013e+01 1.13389482e+01 1.13429174e+01 1.13478079e+01 1.13510418e+01 1.13531103e+01 1.13574190e+01 1.13618307e+01 1.13649387e+01 1.13690968e+01 1.13736973e+01 1.13769369e+01 1.13788843e+01 1.13841515e+01 1.13861971e+01 1.13913412e+01 1.13962994e+01 1.13985147e+01 1.14044323e+01 1.14092550e+01 1.14169674e+01 1.14223003e+01 1.14267807e+01 1.14310513e+01 1.14386749e+01 1.14434032e+01 1.14486313e+01 1.14512072e+01 1.14586172e+01 1.14617929e+01 1.14668798e+01 1.14729004e+01 1.14756422e+01 1.14809809e+01 1.14840097e+01 1.14893885e+01 1.14917459e+01 1.14974680e+01 1.15046034e+01 1.15086765e+01 1.15149775e+01 1.15186205e+01 1.15226755e+01 1.15267572e+01 1.15349884e+01 1.15388670e+01 1.15422955e+01 1.15476847e+01 1.15533085e+01 1.15595026e+01 1.15632515e+01 1.15665064e+01 1.15735378e+01 1.15805893e+01 1.15899105e+01 1.15964642e+01 1.16007080e+01 1.16044922e+01 1.16101694e+01 1.16158495e+01 1.16232986e+01 1.16261177e+01 1.16356459e+01 1.16417122e+01 1.16460943e+01 1.16525364e+01 1.16558838e+01 1.16616974e+01 1.16651649e+01 1.16737185e+01 1.16818867e+01 1.16844606e+01 1.16895475e+01 1.16973848e+01 1.17013865e+01 1.17098932e+01 1.17147017e+01 1.17224941e+01 1.17281322e+01 1.17352743e+01 1.17421741e+01 1.17473316e+01 1.17555418e+01 1.17584810e+01 1.17691317e+01 1.17761736e+01 1.17873325e+01 1.17990170e+01 1.18030090e+01 1.18083210e+01 1.18146772e+01 1.18203669e+01 1.18310127e+01 1.18391657e+01 1.18473625e+01 1.18592358e+01 1.18693104e+01 1.18771896e+01 1.18870964e+01 1.18971806e+01 1.19022465e+01 1.19116278e+01 1.19253654e+01 1.19304447e+01 1.19378042e+01 1.19440079e+01 1.19567928e+01 1.19703865e+01 1.19791765e+01 1.19903975e+01 1.20004740e+01 1.20103397e+01 1.20204401e+01 1.20309019e+01 1.20359545e+01 1.20457487e+01 1.20544443e+01 1.20664120e+01 1.20741024e+01 1.20857811e+01 1.20966692e+01 1.21153288e+01 1.21318750e+01 1.21461353e+01 1.21659822e+01 1.21762066e+01 1.21971712e+01 1.22147551e+01 1.22257891e+01 1.22525778e+01 1.22659550e+01 1.22766886e+01 1.22872276e+01 1.23081598e+01 1.23220053e+01 1.23397398e+01 1.23474932e+01 1.23616514e+01 1.23887911e+01 1.24095621e+01 1.24275427e+01 1.24448948e+01 1.24587259e+01 1.24806194e+01 1.25061474e+01 1.25380945e+01 1.25871325e+01 1.26179495e+01 1.26442404e+01 1.26905451e+01 1.27302399e+01 1.27724342e+01 1.28009739e+01 1.28462248e+01 1.29104185e+01 1.29555902e+01 1.30042229e+01 1.30672064e+01 1.31439724e+01 1.31926899e+01 1.32804222e+01 1.33330231e+01 1.33887234e+01 1.34855947e+01 1.35891304e+01 1.37742586e+01 1.42773294e+01 1.49856024e+01 
            </HistogramBinning>
          </PDF>
        </CumulativePDF_cls0>
        <CumulativePDF_cls1>
          <PDF Name="GaussTransform var0 cls1" MinNSmooth="0" MaxNSmooth="0" InterpolMethod="1" KDE_type="0" KDE_iter="1" KDE_border="1" KDE_finefactor="0.0000000000000000e+00">
            <Histogram Name="Cumulative_Var0_cls1_original" NBins="991" XMin="3.5040862560272217e+00" XMax="1.4579051017761230e+01" HasEquidistantBins="0">
              7.31861219e-04 1.64037850e-03 2.64353305e-03 3.65930609e-03 4.66876989e-03 5.67823322e-03 6.68769702e-03 7.69716082e-03 8.70662462e-03 9.71608795e-03 1.07255522e-02 1.17350155e-02 1.27444798e-02 1.37539431e-02 1.47634065e-02 1.57728698e-02 1.67823341e-02 1.77917983e-02 1.88012626e-02 1.98107250e-02 2.08201893e-02 2.18296535e-02 2.28391159e-02 2.38485802e-02 2.48580445e-02 2.58675087e-02 2.68769711e-02 2.78864354e-02 2.88958997e-02 2.99053621e-02 3.09148263e-02 3.19242887e-02 3.29337530e-02 3.39432172e-02 3.49526815e-02 3.59621458e-02 3.69716100e-02 3.79810743e-02 3.89905348e-02 3.99999991e-02 4.10094634e-02 4.20189276e-02 4.30283919e-02 4.40378562e-02 4.50473204e-02 4.60567810e-02 4.70662452e-02 4.80757095e-02 4.90851738e-02 5.00946380e-02 5.11041023e-02 5.21135628e-02 5.31230271e-02 5.41324914e-02 5.51419556e-02 5.61514199e-02 5.71608841e-02 5.81703484e-02 5.91798089e-02 6.01892732e-02 6.11987375e-02 6.22082017e-02 6.32176623e-02 6.42271265e-02 6.52365908e-02 6.62460551e-02 6.72555193e-02 6.82649836e-02 6.92744479e-02 7.02839121e-02 7.12933764e-02 7.23028407e-02 7.33123049e-02 7.43217692e-02 7.53312334e-02 7.63406977e-02 7.73501545e-02 7.83596188e-02 7.93690830e-02 8.03785473e-02 8.13880116e-02 8.23974758e-02 8.34069401e-02 8.44164044e-02 8.54258686e-02 8.64353329e-02 8.74447972e-02 8.84542614e-02 8.94637257e-02 9.04731825e-02 9.14826468e-02 9.24921110e-02 9.35015753e-02 9.45110396e-02 9.55205038e-02 9.65299681e-02 9.75394323e-02 9.85488966e-02 9.95583609e-02 1.00567825e-01 1.01577289e-01 1.02586754e-01 1.03596218e-01 1.04605675e-01 1.05615139e-01 1.06624603e-01 1.07634068e-01 1.08643532e-01 1.09652996e-01 1.10662460e-01 1.11671925e-01 1.12681389e-01 1.13690853e-01 1.14700317e-01 1.15709782e-01 1.16719246e-01 1.17728710e-01 1.18738167e-01 1.19747631e-01 1.20757096e-01 1.21766560e-01 1.22776024e-01 1.23785488e-01 1.24794953e-01 1.25804409e-01 1.26813874e-01 1.27823338e-01 1.28832802e-01 1.29842266e-01 1.30851731e-01 1.31861195e-01 1.32870659e-01 1.33880123e-01 1.34889588e-01 1.35899052e-01 1.36908516e-01 1.37917981e-01 1.38927445e-01 1.39936909e-01 1.40946373e-01 1.41955838e-01 1.42965302e-01 1.43974766e-01 1.44984230e-01 1.45993695e-01 1.47003159e-01 1.48012623e-01 1.49022087e-01 1.50031552e-01 1.51041016e-01 1.52050480e-01 1.53059930e-01 1.54069394e-01 1.55078858e-01 1.56088322e-01 1.57097787e-01 1.58107251e-01 1.59116715e-01 1.60126179e-01 1.61135644e-01 1.62145108e-01 1.63154572e-01 1.64164037e-01 1.65173501e-01 1.66182965e-01 1.67192429e-01 1.68201894e-01 1.69211358e-01 1.70220822e-01 1.71230286e-01 1.72239751e-01 1.73249215e-01 1.74258679e-01 1.75268143e-01 1.76277608e-01 1.77287072e-01 1.78296536e-01 1.79306000e-01 1.80315465e-01 1.81324914e-01 1.82334378e-01 1.83343843e-01 1.84353307e-01 1.85362771e-01 1.86372235e-01 1.87381700e-01 1.88391164e-01 1.89400628e-01 1.90410092e-01 1.91419557e-01 1.92429021e-01 1.93438485e-01 1.94447950e-01 1.95457414e-01 1.96466878e-01 1.97476342e-01 1.98485807e-01 1.99495271e-01 2.00504735e-01 2.01514199e-01 2.02523664e-01 2.03533128e-01 2.04542592e-01 2.05552056e-01 2.06561521e-01 2.07570985e-01 2.08580434e-01 2.09589899e-01 2.10599363e-01 2.11608827e-01 2.12618291e-01 2.13627756e-01 2.14637220e-01 2.15646684e-01 2.16656148e-01 2.17665613e-01 2.18675077e-01 2.19684541e-01 2.20694005e-01 2.21703470e-01 2.22712934e-01 2.23722398e-01 2.24731863e-01 2.25741327e-01 2.26750791e-01 2.27760255e-01 2.28769720e-01 2.29779184e-01 2.30788648e-01 2.31798112e-01 2.32807577e-01 2.33817041e-01 2.34826505e-01 2.35835969e-01 2.36845419e-01 2.37854883e-01 2.38864347e-01 2.39873812e-01 2.40883276e-01 2.41892740e-01 2.42902204e-01 2.43911669e-01 2.44921133e-01 2.45930597e-01 2.46940061e-01 2.47949526e-01 2.48958990e-01 2.49968454e-01 2.50977904e-01 2.51987368e-01 2.52996832e-01 2.54006296e-01 2.55015761e-01 2.56025225e-01 2.57034689e-01 2.58044153e-01 2.59053618e-01 2.60063082e-01 2.61072546e-01 2.62082011e-01 2.63091475e-01 2.64100939e-01 2.65110403e-01 2.66119868e-01 2.67129332e-01 2.68138796e-01 2.69148260e-01 2.70157725e-01 2.71167189e-01 2.72176653e-01 2.73186117e-01 2.74195582e-01 2.75205046e-01 2.76214510e-01 2.77223974e-01 2.78233439e-01 2.79242903e-01 2.80252367e-01 2.81261832e-01 2.82271296e-01 2.83280760e-01 2.84290224e-01 2.85299689e-01 2.86309153e-01 2.87318617e-01 2.88328081e-01 2.89337546e-01 2.90347010e-01 2.91356474e-01 2.92365938e-01 2.93375403e-01 2.94384867e-01 2.95394331e-01 2.96403795e-01 2.97413260e-01 2.98422724e-01 2.99432188e-01 3.00441653e-01 3.01451117e-01 3.02460581e-01 3.03470045e-01 3.04479510e-01 3.05488974e-01 3.06498408e-01 3.07507873e-01 3.08517337e-01 3.09526801e-01 3.10536265e-01 3.11545730e-01 3.12555194e-01 3.13564658e-01 3.14574122e-01 3.15583587e-01 3.16593051e-01 3.17602515e-01 3.18611979e-01 3.19621444e-01 3.20630908e-01 3.21640372e-01 3.22649837e-01 3.23659301e-01 3.24668765e-01 3.25678229e-01 3.26687694e-01 3.27697158e-01 3.28706622e-01 3.29716086e-01 3.30725551e-01 3.31735015e-01 3.32744479e-01 3.33753943e-01 3.34763408e-01 3.35772872e-01 3.36782336e-01 3.37791800e-01 3.38801265e-01 3.39810729e-01 3.40820193e-01 3.41829658e-01 3.42839122e-01 3.43848586e-01 3.44858050e-01 3.45867515e-01 3.46876979e-01 3.47886443e-01 3.48895907e-01 3.49905372e-01 3.50914836e-01 3.51924300e-01 3.52933764e-01 3.53943229e-01 3.54952693e-01 3.55962157e-01 3.56971622e-01 3.57981086e-01 3.58990550e-01 3.60000014e-01 3.61009479e-01 3.62018913e-01 3.63028377e-01 3.64037842e-01 3.65047306e-01 3.66056770e-01 3.67066234e-01 3.68075699e-01 3.69085163e-01 3.70094627e-01 3.71104091e-01 3.72113556e-01 3.73123020e-01 3.74132484e-01 3.75141948e-01 3.76151413e-01 3.77160877e-01 3.78170341e-01 3.79179806e-01 3.80189270e-01 3.81198734e-01 3.82208198e-01 3.83217663e-01 3.84227127e-01 3.85236591e-01 3.86246055e-01 3.87255520e-01 3.88264984e-01 3.89274448e-01 3.90283912e-01 3.91293377e-01 3.92302841e-01 3.93312305e-01 3.94321769e-01 3.95331234e-01 3.96340698e-01 3.97350162e-01 3.98359627e-01 3.99369091e-01 4.00378555e-01 4.01388019e-01 4.02397484e-01 4.03406948e-01 4.04416412e-01 4.05425876e-01 4.06435341e-01 4.07444805e-01 4.08454269e-01 4.09463733e-01 4.10473198e-01 4.11482662e-01 4.12492126e-01 4.13501590e-01 4.14511055e-01 4.15520519e-01 4.16529983e-01 4.17539418e-01 4.18548882e-01 4.19558346e-01 4.20567811e-01 4.21577275e-01 4.22586739e-01 4.23596203e-01 4.24605668e-01 4.25615132e-01 4.26624596e-01 4.27634060e-01 4.28643525e-01 4.29652989e-01 4.30662453e-01 4.31671917e-01 4.32681382e-01 4.33690846e-01 4.34700310e-01 4.35709774e-01 4.36719239e-01 4.37728703e-01 4.38738167e-01 4.39747632e-01 4.40757096e-01 4.41766560e-01 4.42776024e-01 4.43785489e-01 4.44794953e-01 4.45804417e-01 4.46813881e-01 4.47823346e-01 4.48832810e-01 4.49842274e-01 4.50851738e-01 4.51861203e-01 4.52870667e-01 4.53880131e-01 4.54889596e-01 4.55899060e-01 4.56908524e-01 4.57917988e-01 4.58927453e-01 4.59936917e-01 4.60946381e-01 4.61955845e-01 4.62965310e-01 4.63974774e-01 4.64984238e-01 4.65993702e-01 4.67003167e-01 4.68012631e-01 4.69022095e-01 4.70031559e-01 4.71041024e-01 4.72050488e-01 4.73059922e-01 4.74069387e-01 4.75078851e-01 4.76088315e-01 4.77097780e-01 4.78107244e-01 4.79116708e-01 4.80126172e-01 4.81135637e-01 4.82145101e-01 4.83154565e-01 4.84164029e-01 4.85173494e-01 4.86182958e-01 4.87192422e-01 4.88201886e-01 4.89211351e-01 4.90220815e-01 4.91230279e-01 4.92239743e-01 4.93249208e-01 4.94258672e-01 4.95268136e-01 4.96277601e-01 4.97287065e-01 4.98296529e-01 4.99305993e-01 5.00315428e-01 5.01324892e-01 5.02334356e-01 5.03343821e-01 5.04353285e-01 5.05362749e-01 5.06372213e-01 5.07381678e-01 5.08391142e-01 5.09400606e-01 5.10410070e-01 5.11419535e-01 5.12428999e-01 5.13438463e-01 5.14447927e-01 5.15457392e-01 5.16466856e-01 5.17476320e-01 5.18485785e-01 5.19495249e-01 5.20504713e-01 5.21514177e-01 5.22523642e-01 5.23533106e-01 5.24542570e-01 5.25552034e-01 5.26561499e-01 5.27570963e-01 5.28580427e-01 5.29589891e-01 5.30599356e-01 5.31608820e-01 5.32618284e-01 5.33627748e-01 5.34637213e-01 5.35646677e-01 5.36656141e-01 5.37665606e-01 5.38675070e-01 5.39684534e-01 5.40693998e-01 5.41703463e-01 5.42712927e-01 5.43722391e-01 5.44731855e-01 5.45741320e-01 5.46750784e-01 5.47760248e-01 5.48769712e-01 5.49779177e-01 5.50788641e-01 5.51798105e-01 5.52807570e-01 5.53817034e-01 5.54826498e-01 5.55835962e-01 5.56845427e-01 5.57854891e-01 5.58864355e-01 5.59873819e-01 5.60883284e-01 5.61892748e-01 5.62902212e-01 5.63911676e-01 5.64921141e-01 5.65930605e-01 5.66940069e-01 5.67949533e-01 5.68958998e-01 5.69968462e-01 5.70977926e-01 5.71987391e-01 5.72996855e-01 5.74006319e-01 5.75015783e-01 5.76025248e-01 5.77034712e-01 5.78044176e-01 5.79053640e-01 5.80063105e-01 5.81072569e-01 5.82082033e-01 5.83091497e-01 5.84100962e-01 5.85110426e-01 5.86119890e-01 5.87129354e-01 5.88138819e-01 5.89148283e-01 5.90157747e-01 5.91167212e-01 5.92176676e-01 5.93186140e-01 5.94195604e-01 5.95205069e-01 5.96214533e-01 5.97223997e-01 5.98233461e-01 5.99242926e-01 6.00252390e-01 6.01261854e-01 6.02271318e-01 6.03280783e-01 6.04290247e-01 6.05299711e-01 6.06309175e-01 6.07318640e-01 6.08328104e-01 6.09337568e-01 6.10347033e-01 6.11356437e-01 6.12365901e-01 6.13375366e-01 6.14384830e-01 6.15394294e-01 6.16403759e-01 6.17413223e-01 6.18422687e-01 6.19432151e-01 6.20441616e-01 6.21451080e-01 6.22460544e-01 6.23470008e-01 6.24479473e-01 6.25488937e-01 6.26498401e-01 6.27507865e-01 6.28517330e-01 6.29526794e-01 6.30536258e-01 6.31545722e-01 6.32555187e-01 6.33564651e-01 6.34574115e-01 6.35583580e-01 6.36593044e-01 6.37602508e-01 6.38611972e-01 6.39621437e-01 6.40630901e-01 6.41640365e-01 6.42649829e-01 6.43659294e-01 6.44668758e-01 6.45678222e-01 6.46687686e-01 6.47697151e-01 6.48706615e-01 6.49716079e-01 6.50725543e-01 6.51735008e-01 6.52744472e-01 6.53753936e-01 6.54763401e-01 6.55772865e-01 6.56782329e-01 6.57791793e-01 6.58801258e-01 6.59810722e-01 6.60820186e-01 6.61829650e-01 6.62839115e-01 6.63848579e-01 6.64858043e-01 6.65867507e-01 6.66876972e-01 6.67886436e-01 6.68895900e-01 6.69905365e-01 6.70914829e-01 6.71924293e-01 6.72933757e-01 6.73943222e-01 6.74952686e-01 6.75962150e-01 6.76971614e-01 6.77981079e-01 6.78990543e-01 6.80000007e-01 6.81009471e-01 6.82018936e-01 6.83028400e-01 6.84037864e-01 6.85047328e-01 6.86056793e-01 6.87066257e-01 6.88075721e-01 6.89085186e-01 6.90094650e-01 6.91104114e-01 6.92113578e-01 6.93123043e-01 6.94132507e-01 6.95141971e-01 6.96151435e-01 6.97160900e-01 6.98170364e-01 6.99179828e-01 7.00189292e-01 7.01198757e-01 7.02208221e-01 7.03217685e-01 7.04227149e-01 7.05236614e-01 7.06246078e-01 7.07255542e-01 7.08265007e-01 7.09274471e-01 7.10283935e-01 7.11293399e-01 7.12302864e-01 7.13312328e-01 7.14321792e-01 7.15331256e-01 7.16340721e-01 7.17350185e-01 7.18359649e-01 7.19369113e-01 7.20378578e-01 7.21388042e-01 7.22397447e-01 7.23406911e-01 7.24416375e-01 7.25425839e-01 7.26435304e-01 7.27444768e-01 7.28454232e-01 7.29463696e-01 7.30473161e-01 7.31482625e-01 7.32492089e-01 7.33501554e-01 7.34511018e-01 7.35520482e-01 7.36529946e-01 7.37539411e-01 7.38548875e-01 7.39558339e-01 7.40567803e-01 7.41577268e-01 7.42586732e-01 7.43596196e-01 7.44605660e-01 7.45615125e-01 7.46624589e-01 7.47634053e-01 7.48643517e-01 7.49652982e-01 7.50662446e-01 7.51671910e-01 7.52681375e-01 7.53690839e-01 7.54700303e-01 7.55709767e-01 7.56719232e-01 7.57728696e-01 7.58738160e-01 7.59747624e-01 7.60757089e-01 7.61766553e-01 7.62776017e-01 7.63785481e-01 7.64794946e-01 7.65804410e-01 7.66813874e-01 7.67823339e-01 7.68832803e-01 7.69842267e-01 7.70851731e-01 7.71861196e-01 7.72870660e-01 7.73880124e-01 7.74889588e-01 7.75899053e-01 7.76908517e-01 7.77917981e-01 7.78927445e-01 7.79936910e-01 7.80946374e-01 7.81955838e-01 7.82965302e-01 7.83974767e-01 7.84984231e-01 7.85993695e-01 7.87003160e-01 7.88012624e-01 7.89022088e-01 7.90031552e-01 7.91041017e-01 7.92050481e-01 7.93059945e-01 7.94069409e-01 7.95078874e-01 7.96088338e-01 7.97097802e-01 7.98107266e-01 7.99116731e-01 8.00126195e-01 8.01135659e-01 8.02145123e-01 8.03154588e-01 8.04164052e-01 8.05173516e-01 8.06182981e-01 8.07192445e-01 8.08201909e-01 8.09211373e-01 8.10220838e-01 8.11230302e-01 8.12239766e-01 8.13249230e-01 8.14258695e-01 8.15268159e-01 8.16277623e-01 8.17287087e-01 8.18296552e-01 8.19306016e-01 8.20315480e-01 8.21324944e-01 8.22334409e-01 8.23343873e-01 8.24353337e-01 8.25362802e-01 8.26372266e-01 8.27381730e-01 8.28391194e-01 8.29400659e-01 8.30410123e-01 8.31419587e-01 8.32429051e-01 8.33438456e-01 8.34447920e-01 8.35457385e-01 8.36466849e-01 8.37476313e-01 8.38485777e-01 8.39495242e-01 8.40504706e-01 8.41514170e-01 8.42523634e-01 8.43533099e-01 8.44542563e-01 8.45552027e-01 8.46561491e-01 8.47570956e-01 8.48580420e-01 8.49589884e-01 8.50599349e-01 8.51608813e-01 8.52618277e-01 8.53627741e-01 8.54637206e-01 8.55646670e-01 8.56656134e-01 8.57665598e-01 8.58675063e-01 8.59684527e-01 8.60693991e-01 8.61703455e-01 8.62712920e-01 8.63722384e-01 8.64731848e-01 8.65741313e-01 8.66750777e-01 8.67760241e-01 8.68769705e-01 8.69779170e-01 8.70788634e-01 8.71798098e-01 8.72807562e-01 8.73817027e-01 8.74826491e-01 8.75835955e-01 8.76845419e-01 8.77854884e-01 8.78864348e-01 8.79873812e-01 8.80883276e-01 8.81892741e-01 8.82902205e-01 8.83911669e-01 8.84921134e-01 8.85930598e-01 8.86940062e-01 8.87949526e-01 8.88958991e-01 8.89968455e-01 8.90977919e-01 8.91987383e-01 8.92996848e-01 8.94006312e-01 8.95015776e-01 8.96025240e-01 8.97034705e-01 8.98044169e-01 8.99053633e-01 9.00063097e-01 9.01072562e-01 9.02082026e-01 9.03091490e-01 9.04100955e-01 9.05110419e-01 9.06119883e-01 9.07129347e-01 9.08138812e-01 9.09148276e-01 9.10157740e-01 9.11167204e-01 9.12176669e-01 9.13186133e-01 9.14195597e-01 9.15205061e-01 9.16214526e-01 9.17223990e-01 9.18233454e-01 9.19242918e-01 9.20252383e-01 9.21261847e-01 9.22271311e-01 9.23280776e-01 9.24290240e-01 9.25299704e-01 9.26309168e-01 9.27318633e-01 9.28328097e-01 9.29337561e-01 9.30347025e-01 9.31356490e-01 9.32365954e-01 9.33375418e-01 9.34384882e-01 9.35394347e-01 9.36403811e-01 9.37413275e-01 9.38422740e-01 9.39432204e-01 9.40441668e-01 9.41451132e-01 9.42460597e-01 9.43470061e-01 9.44479465e-01 9.45488930e-01 9.46498394e-01 9.47507858e-01 9.48517323e-01 9.49526787e-01 9.50536251e-01 9.51545715e-01 9.52555180e-01 9.53564644e-01 9.54574108e-01 9.55583572e-01 9.56593037e-01 9.57602501e-01 9.58611965e-01 9.59621429e-01 9.60630894e-01 9.61640358e-01 9.62649822e-01 9.63659286e-01 9.64668751e-01 9.65678215e-01 9.66687679e-01 9.67697144e-01 9.68706608e-01 9.69716072e-01 9.70725536e-01 9.71735001e-01 9.72744465e-01 9.73753929e-01 9.74763393e-01 9.75772858e-01 9.76782322e-01 9.77791786e-01 9.78801250e-01 9.79810715e-01 9.80820179e-01 9.81829643e-01 9.82839108e-01 9.83848572e-01 9.84858036e-01 9.85867500e-01 9.86876965e-01 9.87886429e-01 9.88895893e-01 9.89905357e-01 9.90914822e-01 9.91924286e-01 9.92933750e-01 9.93943214e-01 9.94952679e-01 9.95962143e-01 9.96971607e-01 9.97981071e-01 9.98990536e-01 1.00000000e+00 
            </Histogram>
            <HistogramBinning NBins="991">
              3.50408626e+00 3.50418615e+00 5.47299194e+00 5.86588907e+00 6.24951029e+00 6.34608603e+00 6.58707762e+00 6.67008781e+00 6.75780249e+00 6.86139536e+00 6.92781782e+00 7.02538538e+00 7.08350992e+00 7.14537048e+00 7.19048071e+00 7.25415516e+00 7.29100847e+00 7.31364632e+00 7.33811140e+00 7.37065887e+00 7.39783716e+00 7.43233013e+00 7.46674681e+00 7.48721838e+00 7.51725292e+00 7.53514290e+00 7.55978489e+00 7.57049322e+00 7.58589745e+00 7.60930920e+00 7.62545061e+00 7.64667654e+00 7.68984365e+00 7.70527554e+00 7.71630907e+00 7.72956800e+00 7.74887514e+00 7.77166557e+00 7.78530788e+00 7.80007982e+00 7.82040787e+00 7.84453344e+00 7.85793495e+00 7.86623621e+00 7.88007259e+00 7.89097214e+00 7.90772009e+00 7.92493010e+00 7.93951797e+00 7.95251560e+00 7.96452856e+00 7.97829294e+00 7.99169064e+00 8.00253201e+00 8.01365471e+00 8.02614498e+00 8.03894424e+00 8.05536366e+00 8.06542587e+00 8.08072186e+00 8.08448505e+00 8.09057045e+00 8.10016441e+00 8.10783482e+00 8.11776352e+00 8.12411499e+00 8.13352585e+00 8.14430237e+00 8.14853859e+00 8.15361214e+00 8.16941357e+00 8.18166733e+00 8.19069386e+00 8.19881153e+00 8.20643044e+00 8.21200275e+00 8.21892929e+00 8.22486687e+00 8.23614216e+00 8.24646282e+00 8.25415993e+00 8.26246834e+00 8.26827145e+00 8.27456284e+00 8.28447151e+00 8.28759766e+00 8.29716015e+00 8.30431271e+00 8.31269169e+00 8.31955051e+00 8.32397366e+00 8.33063221e+00 8.34198952e+00 8.34870243e+00 8.35846615e+00 8.36663723e+00 8.37179089e+00 8.37606049e+00 8.38254738e+00 8.38819695e+00 8.39688301e+00 8.40324497e+00 8.41123962e+00 8.41785526e+00 8.42605686e+00 8.42947102e+00 8.43439579e+00 8.43728924e+00 8.44159889e+00 8.44425011e+00 8.44970417e+00 8.45800591e+00 8.46528053e+00 8.47057819e+00 8.47530365e+00 8.48013306e+00 8.48588753e+00 8.49297333e+00 8.49820995e+00 8.50773525e+00 8.51195431e+00 8.51485634e+00 8.52063465e+00 8.52537727e+00 8.52906799e+00 8.53323650e+00 8.53905106e+00 8.54412937e+00 8.55059147e+00 8.55347157e+00 8.56283092e+00 8.56667614e+00 8.57274437e+00 8.58224392e+00 8.58946419e+00 8.59223366e+00 8.59651852e+00 8.60064125e+00 8.60964298e+00 8.61571312e+00 8.62014008e+00 8.62618351e+00 8.62850475e+00 8.63492489e+00 8.63889313e+00 8.64225769e+00 8.64578533e+00 8.65013790e+00 8.65483761e+00 8.65881824e+00 8.66444206e+00 8.66989708e+00 8.67273045e+00 8.67594624e+00 8.68191719e+00 8.68924999e+00 8.69597244e+00 8.70223045e+00 8.70593166e+00 8.70981216e+00 8.71388054e+00 8.71838188e+00 8.72337532e+00 8.72896671e+00 8.73730183e+00 8.74184895e+00 8.74616909e+00 8.75005150e+00 8.75427723e+00 8.76032543e+00 8.76386070e+00 8.76819801e+00 8.77268124e+00 8.77631950e+00 8.78291988e+00 8.78597260e+00 8.79048634e+00 8.79502392e+00 8.79976368e+00 8.80433846e+00 8.80739498e+00 8.81651592e+00 8.82265377e+00 8.82654381e+00 8.83068085e+00 8.83583832e+00 8.84209251e+00 8.84786034e+00 8.85020351e+00 8.85561180e+00 8.85866547e+00 8.86276817e+00 8.86909008e+00 8.87362480e+00 8.87678051e+00 8.88151264e+00 8.88611507e+00 8.88899899e+00 8.89304924e+00 8.89584923e+00 8.90240383e+00 8.90765953e+00 8.91128826e+00 8.91830158e+00 8.92150784e+00 8.92575550e+00 8.93199158e+00 8.93497086e+00 8.93873405e+00 8.94473457e+00 8.94843674e+00 8.95124531e+00 8.95557785e+00 8.96113014e+00 8.96533203e+00 8.96940613e+00 8.97406769e+00 8.97972965e+00 8.98283482e+00 8.98596287e+00 8.98937893e+00 8.99549389e+00 8.99880028e+00 9.00130177e+00 9.00543880e+00 9.00756359e+00 9.01227474e+00 9.01628494e+00 9.01963520e+00 9.02521801e+00 9.02776527e+00 9.03264618e+00 9.03649330e+00 9.03889942e+00 9.04291153e+00 9.04539013e+00 9.04759312e+00 9.05232239e+00 9.05744648e+00 9.06025028e+00 9.06440067e+00 9.06620693e+00 9.06956005e+00 9.07248688e+00 9.07644081e+00 9.07848644e+00 9.08170605e+00 9.08510017e+00 9.09156990e+00 9.09688663e+00 9.10053921e+00 9.10408020e+00 9.10683346e+00 9.10978699e+00 9.11183262e+00 9.11478996e+00 9.11647892e+00 9.11918068e+00 9.12222576e+00 9.12578297e+00 9.12798405e+00 9.13071442e+00 9.13864803e+00 9.14298916e+00 9.14552689e+00 9.15054893e+00 9.15211773e+00 9.15416145e+00 9.15670490e+00 9.16183567e+00 9.16502953e+00 9.16682625e+00 9.17026043e+00 9.17333508e+00 9.17612934e+00 9.17996025e+00 9.18225288e+00 9.18599033e+00 9.18834686e+00 9.19239044e+00 9.19464397e+00 9.19709301e+00 9.19987106e+00 9.20257568e+00 9.20740795e+00 9.21137714e+00 9.21570683e+00 9.21992302e+00 9.22442818e+00 9.22737026e+00 9.23108578e+00 9.23363876e+00 9.23607445e+00 9.23882771e+00 9.24472809e+00 9.24786568e+00 9.25000668e+00 9.25391674e+00 9.25672054e+00 9.26065254e+00 9.26414394e+00 9.26654243e+00 9.26899910e+00 9.27283192e+00 9.27488804e+00 9.27829838e+00 9.28133965e+00 9.28343868e+00 9.28633118e+00 9.29033375e+00 9.29305840e+00 9.29656410e+00 9.30013847e+00 9.30309105e+00 9.30417252e+00 9.30756760e+00 9.31240940e+00 9.31443405e+00 9.31712437e+00 9.32026768e+00 9.32243919e+00 9.32656193e+00 9.33105278e+00 9.33472157e+00 9.33820629e+00 9.34098339e+00 9.34547234e+00 9.34693146e+00 9.35118580e+00 9.35341072e+00 9.35639191e+00 9.35766792e+00 9.36124420e+00 9.36354637e+00 9.36721992e+00 9.36934280e+00 9.37210369e+00 9.37520981e+00 9.37861252e+00 9.38133526e+00 9.38478851e+00 9.38733006e+00 9.38971901e+00 9.39157963e+00 9.39349270e+00 9.39706135e+00 9.39998245e+00 9.40276718e+00 9.40516472e+00 9.40850735e+00 9.41127968e+00 9.41453934e+00 9.41723537e+00 9.42032719e+00 9.42337132e+00 9.42651844e+00 9.42986488e+00 9.43206882e+00 9.43419838e+00 9.43682384e+00 9.43980694e+00 9.44165897e+00 9.44493771e+00 9.44834900e+00 9.45094872e+00 9.45338154e+00 9.45729160e+00 9.46068001e+00 9.46385765e+00 9.46589184e+00 9.46837807e+00 9.47107887e+00 9.47411728e+00 9.47640228e+00 9.47859764e+00 9.48034573e+00 9.48267746e+00 9.48582745e+00 9.48843479e+00 9.49117088e+00 9.49555588e+00 9.49645424e+00 9.49809837e+00 9.49982548e+00 9.50204086e+00 9.50416279e+00 9.50703144e+00 9.50921440e+00 9.51162720e+00 9.51333046e+00 9.51683044e+00 9.52016544e+00 9.52210331e+00 9.52441692e+00 9.52886581e+00 9.53214550e+00 9.53638268e+00 9.54136181e+00 9.54408455e+00 9.54620075e+00 9.54795170e+00 9.55021000e+00 9.55527401e+00 9.55832863e+00 9.56097317e+00 9.56270313e+00 9.56584167e+00 9.56802750e+00 9.57242966e+00 9.57502174e+00 9.57936668e+00 9.58225918e+00 9.58516693e+00 9.58724117e+00 9.58978939e+00 9.59129620e+00 9.59318256e+00 9.59617615e+00 9.59871197e+00 9.60363483e+00 9.60632896e+00 9.60902405e+00 9.61219215e+00 9.61540890e+00 9.61945629e+00 9.62287140e+00 9.62567043e+00 9.62767029e+00 9.62981606e+00 9.63224316e+00 9.63643169e+00 9.63823986e+00 9.64035702e+00 9.64378548e+00 9.64624786e+00 9.65035915e+00 9.65261459e+00 9.65481186e+00 9.65794277e+00 9.66135216e+00 9.66445160e+00 9.66767693e+00 9.66955853e+00 9.67305660e+00 9.67559338e+00 9.67862797e+00 9.68136883e+00 9.68373489e+00 9.68674946e+00 9.68926430e+00 9.69260025e+00 9.69567871e+00 9.69819260e+00 9.70146370e+00 9.70422840e+00 9.70602036e+00 9.70811749e+00 9.70974159e+00 9.71408081e+00 9.71632671e+00 9.71956348e+00 9.72335148e+00 9.72420788e+00 9.72665024e+00 9.72943211e+00 9.73313999e+00 9.73706532e+00 9.73962593e+00 9.74211788e+00 9.74491215e+00 9.74861526e+00 9.75126266e+00 9.75482655e+00 9.75725555e+00 9.75980282e+00 9.76405048e+00 9.76732159e+00 9.76820564e+00 9.76978683e+00 9.77371216e+00 9.77614975e+00 9.78206539e+00 9.78398705e+00 9.78658390e+00 9.78803921e+00 9.78973198e+00 9.79361916e+00 9.79565334e+00 9.79713631e+00 9.79967499e+00 9.80262566e+00 9.80536461e+00 9.80780602e+00 9.81134701e+00 9.81446457e+00 9.81768703e+00 9.81974411e+00 9.82274723e+00 9.82489872e+00 9.82833481e+00 9.83091164e+00 9.83450127e+00 9.83791637e+00 9.84163857e+00 9.84354496e+00 9.84502125e+00 9.84765053e+00 9.85095978e+00 9.85364151e+00 9.85490036e+00 9.85654068e+00 9.85999584e+00 9.86253834e+00 9.86381721e+00 9.86652756e+00 9.86827087e+00 9.87065506e+00 9.87248230e+00 9.87697124e+00 9.87812710e+00 9.88007641e+00 9.88219070e+00 9.88541412e+00 9.88756943e+00 9.89177990e+00 9.89330769e+00 9.89536858e+00 9.89863873e+00 9.90157413e+00 9.90448093e+00 9.90745640e+00 9.90878010e+00 9.91059399e+00 9.91247368e+00 9.91427708e+00 9.91653633e+00 9.92067814e+00 9.92377472e+00 9.92716408e+00 9.93071461e+00 9.93218136e+00 9.93575954e+00 9.93762493e+00 9.93961143e+00 9.94177723e+00 9.94469166e+00 9.94587231e+00 9.94748592e+00 9.94915962e+00 9.95303631e+00 9.95663357e+00 9.96089077e+00 9.96354294e+00 9.96535015e+00 9.96726227e+00 9.97035217e+00 9.97282124e+00 9.97638702e+00 9.97882271e+00 9.98306084e+00 9.98645973e+00 9.98748684e+00 9.99044132e+00 9.99370861e+00 9.99583435e+00 9.99869633e+00 1.00016594e+01 1.00036631e+01 1.00057354e+01 1.00093279e+01 1.00118341e+01 1.00150776e+01 1.00174351e+01 1.00201826e+01 1.00216293e+01 1.00247927e+01 1.00268736e+01 1.00301189e+01 1.00314589e+01 1.00351334e+01 1.00402689e+01 1.00442591e+01 1.00468121e+01 1.00489912e+01 1.00522738e+01 1.00539503e+01 1.00561581e+01 1.00575771e+01 1.00592394e+01 1.00629940e+01 1.00654860e+01 1.00687513e+01 1.00722055e+01 1.00747747e+01 1.00767355e+01 1.00797014e+01 1.00811262e+01 1.00832691e+01 1.00859861e+01 1.00889378e+01 1.00928087e+01 1.00953922e+01 1.00975609e+01 1.01005468e+01 1.01026878e+01 1.01067438e+01 1.01102591e+01 1.01139469e+01 1.01178455e+01 1.01205959e+01 1.01231413e+01 1.01263695e+01 1.01286364e+01 1.01306858e+01 1.01331530e+01 1.01360569e+01 1.01385288e+01 1.01406040e+01 1.01420908e+01 1.01441336e+01 1.01459856e+01 1.01480112e+01 1.01493683e+01 1.01511831e+01 1.01532421e+01 1.01575928e+01 1.01607599e+01 1.01629038e+01 1.01655827e+01 1.01680679e+01 1.01694946e+01 1.01723232e+01 1.01741180e+01 1.01751175e+01 1.01781740e+01 1.01804543e+01 1.01832771e+01 1.01870041e+01 1.01887264e+01 1.01917419e+01 1.01941376e+01 1.01967278e+01 1.01984520e+01 1.02014856e+01 1.02039595e+01 1.02049885e+01 1.02061176e+01 1.02085934e+01 1.02113132e+01 1.02137794e+01 1.02174673e+01 1.02215919e+01 1.02240486e+01 1.02279282e+01 1.02294941e+01 1.02325106e+01 1.02352085e+01 1.02379150e+01 1.02397213e+01 1.02445688e+01 1.02482929e+01 1.02505465e+01 1.02530136e+01 1.02551689e+01 1.02592258e+01 1.02623720e+01 1.02653694e+01 1.02673235e+01 1.02704563e+01 1.02729540e+01 1.02749901e+01 1.02774611e+01 1.02801723e+01 1.02827539e+01 1.02851477e+01 1.02869873e+01 1.02906618e+01 1.02933836e+01 1.02960138e+01 1.02986059e+01 1.03019047e+01 1.03043652e+01 1.03075724e+01 1.03101349e+01 1.03123779e+01 1.03140402e+01 1.03158054e+01 1.03182964e+01 1.03207016e+01 1.03222885e+01 1.03246784e+01 1.03263454e+01 1.03286972e+01 1.03326416e+01 1.03374605e+01 1.03398838e+01 1.03420887e+01 1.03464355e+01 1.03494148e+01 1.03533173e+01 1.03573809e+01 1.03602371e+01 1.03624821e+01 1.03671589e+01 1.03694887e+01 1.03746042e+01 1.03773956e+01 1.03793812e+01 1.03839598e+01 1.03872404e+01 1.03894033e+01 1.03927994e+01 1.03948221e+01 1.03982754e+01 1.04015074e+01 1.04051218e+01 1.04087076e+01 1.04108248e+01 1.04130802e+01 1.04166288e+01 1.04197187e+01 1.04235497e+01 1.04261074e+01 1.04294920e+01 1.04312811e+01 1.04363203e+01 1.04378958e+01 1.04411049e+01 1.04441624e+01 1.04463310e+01 1.04509869e+01 1.04534397e+01 1.04574318e+01 1.04596767e+01 1.04621363e+01 1.04643478e+01 1.04664307e+01 1.04708586e+01 1.04734583e+01 1.04763269e+01 1.04791908e+01 1.04822741e+01 1.04847841e+01 1.04859810e+01 1.04891539e+01 1.04929571e+01 1.04961281e+01 1.05009356e+01 1.05030766e+01 1.05061550e+01 1.05092001e+01 1.05118141e+01 1.05144539e+01 1.05175972e+01 1.05201740e+01 1.05248089e+01 1.05283623e+01 1.05311995e+01 1.05353823e+01 1.05384569e+01 1.05409889e+01 1.05444040e+01 1.05494070e+01 1.05528250e+01 1.05546522e+01 1.05575132e+01 1.05608454e+01 1.05636234e+01 1.05658178e+01 1.05673170e+01 1.05723524e+01 1.05759869e+01 1.05799379e+01 1.05835352e+01 1.05865011e+01 1.05881166e+01 1.05919209e+01 1.05971279e+01 1.06013098e+01 1.06034336e+01 1.06060114e+01 1.06091003e+01 1.06135387e+01 1.06185417e+01 1.06210737e+01 1.06257696e+01 1.06292553e+01 1.06328621e+01 1.06355696e+01 1.06412048e+01 1.06431036e+01 1.06455498e+01 1.06480389e+01 1.06525049e+01 1.06564426e+01 1.06593122e+01 1.06634960e+01 1.06674299e+01 1.06728334e+01 1.06773891e+01 1.06834574e+01 1.06873846e+01 1.06913414e+01 1.06947231e+01 1.06996517e+01 1.07044773e+01 1.07064705e+01 1.07119722e+01 1.07177219e+01 1.07197590e+01 1.07240334e+01 1.07263269e+01 1.07320786e+01 1.07358198e+01 1.07397127e+01 1.07431984e+01 1.07474194e+01 1.07518082e+01 1.07571087e+01 1.07599125e+01 1.07652235e+01 1.07681332e+01 1.07723179e+01 1.07789116e+01 1.07828159e+01 1.07883368e+01 1.07933397e+01 1.07989426e+01 1.08029451e+01 1.08057995e+01 1.08094244e+01 1.08149309e+01 1.08192835e+01 1.08220015e+01 1.08274422e+01 1.08311014e+01 1.08341150e+01 1.08398447e+01 1.08478842e+01 1.08521938e+01 1.08555212e+01 1.08594322e+01 1.08640947e+01 1.08708038e+01 1.08776379e+01 1.08854694e+01 1.08936062e+01 1.08978291e+01 1.09031086e+01 1.09075527e+01 1.09135056e+01 1.09200592e+01 1.09264374e+01 1.09315844e+01 1.09379377e+01 1.09428673e+01 1.09470797e+01 1.09559822e+01 1.09630566e+01 1.09672785e+01 1.09747105e+01 1.09823751e+01 1.09883442e+01 1.09956465e+01 1.10016537e+01 1.10109501e+01 1.10180883e+01 1.10281839e+01 1.10352554e+01 1.10428886e+01 1.10473089e+01 1.10515804e+01 1.10584536e+01 1.10670586e+01 1.10717897e+01 1.10782394e+01 1.10824709e+01 1.10860195e+01 1.10911856e+01 1.10973454e+01 1.11045122e+01 1.11092920e+01 1.11172142e+01 1.11261063e+01 1.11342306e+01 1.11396246e+01 1.11473207e+01 1.11585360e+01 1.11656389e+01 1.11749001e+01 1.11829605e+01 1.11919336e+01 1.12010069e+01 1.12068787e+01 1.12109194e+01 1.12189331e+01 1.12263889e+01 1.12372360e+01 1.12469110e+01 1.12553368e+01 1.12639637e+01 1.12721195e+01 1.12848320e+01 1.12912903e+01 1.13053293e+01 1.13125038e+01 1.13192940e+01 1.13275299e+01 1.13357973e+01 1.13428230e+01 1.13533030e+01 1.13615866e+01 1.13755798e+01 1.13892145e+01 1.14012060e+01 1.14118156e+01 1.14224005e+01 1.14381685e+01 1.14515400e+01 1.14627209e+01 1.14743757e+01 1.14810925e+01 1.14956493e+01 1.15011301e+01 1.15127058e+01 1.15236559e+01 1.15326042e+01 1.15421247e+01 1.15491199e+01 1.15624390e+01 1.15732880e+01 1.15821762e+01 1.15996742e+01 1.16120348e+01 1.16251688e+01 1.16320515e+01 1.16537485e+01 1.16624269e+01 1.16717701e+01 1.16817160e+01 1.16902590e+01 1.17108088e+01 1.17313576e+01 1.17436352e+01 1.17588367e+01 1.17726517e+01 1.17849760e+01 1.18028545e+01 1.18176098e+01 1.18252573e+01 1.18449297e+01 1.18647757e+01 1.18755045e+01 1.18868227e+01 1.19106894e+01 1.19243279e+01 1.19397268e+01 1.19704475e+01 1.19837170e+01 1.20088081e+01 1.20161810e+01 1.20519342e+01 1.20821342e+01 1.21082067e+01 1.21349955e+01 1.21475840e+01 1.21886482e+01 1.22107649e+01 1.22604218e+01 1.22779722e+01 1.22970905e+01 1.23394194e+01 1.23866110e+01 1.24160519e+01 1.24468164e+01 1.24876480e+01 1.25408964e+01 1.25737085e+01 1.26352510e+01 1.27551756e+01 1.28166800e+01 1.28820791e+01 1.29203300e+01 1.29712896e+01 1.30759096e+01 1.31369925e+01 1.33008051e+01 1.33707008e+01 1.35740519e+01 1.38127556e+01 1.42814770e+01 1.45790510e+01 
            </HistogramBinning>
          </PDF>
        </CumulativePDF_cls1>
        <CumulativePDF_cls2>
          <PDF Name="GaussTransform var0 cls2" MinNSmooth="0" MaxNSmooth="0" InterpolMethod="1" KDE_type="0" KDE_iter="1" KDE_border="1" KDE_finefactor="0.0000000000000000e+00">
            <Histogram Name="Cumulative_Var0_cls2_original" NBins="1968" XMin="3.5040862560272217e+00" XMax="1.4985602378845215e+01" HasEquidistantBins="0">
