<?xml version="1.0"?>
<MethodSetup Method="BDT::2012_BDT_2">
  <GeneralInfo>
    <Info name="TMVA Release" value="4.2.0 [262656]"/>
    <Info name="ROOT Release" value="5.34/29 [336413]"/>
    <Info name="Creator" value="matt"/>
    <Info name="Date" value="Fri Apr 17 17:50:33 2015"/>
    <Info name="Host" value="Darwin pc7.home 14.1.0 Darwin Kernel Version 14.1.0: Thu Feb 26 19:26:47 PST 2015; root:xnu-2782.10.73~1/RELEASE_X86_64 x86_64"/>
    <Info name="Dir" value="/Users/matt/Scratch/lhcb/Bs2KstKst"/>
    <Info name="Training events" value="61112"/>
    <Info name="TrainingTime" value="2.43946041e+02"/>
    <Info name="AnalysisType" value="Classification"/>
  </GeneralInfo>
  <Options>
    <Option name="V" modified="Yes">False</Option>
    <Option name="VerbosityLevel" modified="No">Default</Option>
    <Option name="VarTransform" modified="Yes">D,G</Option>
    <Option name="H" modified="Yes">False</Option>
    <Option name="CreateMVAPdfs" modified="No">False</Option>
    <Option name="IgnoreNegWeightsInTraining" modified="No">False</Option>
    <Option name="NTrees" modified="Yes">400</Option>
    <Option name="MaxDepth" modified="Yes">3</Option>
    <Option name="MinNodeSize" modified="Yes">5</Option>
    <Option name="nCuts" modified="Yes">-1</Option>
    <Option name="BoostType" modified="Yes">AdaBoost</Option>
    <Option name="AdaBoostR2Loss" modified="No">quadratic</Option>
    <Option name="UseBaggedBoost" modified="Yes">True</Option>
    <Option name="Shrinkage" modified="No">1.000000e+00</Option>
    <Option name="AdaBoostBeta" modified="Yes">5.000000e-01</Option>
    <Option name="UseRandomisedTrees" modified="No">False</Option>
    <Option name="UseNvars" modified="No">4</Option>
    <Option name="UsePoissonNvars" modified="No">True</Option>
    <Option name="BaggedSampleFraction" modified="Yes">5.000000e-01</Option>
    <Option name="UseYesNoLeaf" modified="No">True</Option>
    <Option name="NegWeightTreatment" modified="Yes">ignorenegweightsintraining</Option>
    <Option name="Css" modified="No">1.000000e+00</Option>
    <Option name="Cts_sb" modified="No">1.000000e+00</Option>
    <Option name="Ctb_ss" modified="No">1.000000e+00</Option>
    <Option name="Cbb" modified="No">1.000000e+00</Option>
    <Option name="NodePurityLimit" modified="No">5.000000e-01</Option>
    <Option name="SeparationType" modified="Yes">giniindex</Option>
    <Option name="DoBoostMonitor" modified="No">False</Option>
    <Option name="UseFisherCuts" modified="No">False</Option>
    <Option name="MinLinCorrForFisher" modified="No">8.000000e-01</Option>
    <Option name="UseExclusiveVars" modified="No">False</Option>
    <Option name="DoPreselection" modified="No">False</Option>
    <Option name="SigToBkgFraction" modified="No">1.000000e+00</Option>
    <Option name="PruneMethod" modified="No">nopruning</Option>
    <Option name="PruneStrength" modified="No">0.000000e+00</Option>
    <Option name="PruningValFraction" modified="No">5.000000e-01</Option>
    <Option name="nEventsMin" modified="No">0</Option>
    <Option name="UseBaggedGrad" modified="No">False</Option>
    <Option name="GradBaggingFraction" modified="No">5.000000e-01</Option>
    <Option name="UseNTrainEvents" modified="No">0</Option>
    <Option name="NNodesMax" modified="No">0</Option>
  </Options>
  <Variables NVar="14">
    <Variable VarIndex="0" Expression="ln_B_s0_PT" Label="ln_B_s0_PT" Title="ln_B_s0_PT" Unit="" Internal="ln_B_s0_PT" Type="F" Min="2.17526340e+00" Max="1.11314001e+01"/>
    <Variable VarIndex="1" Expression="ln_Kst_PT" Label="ln_Kst_PT" Title="ln_Kst_PT" Unit="" Internal="ln_Kst_PT" Type="F" Min="6.80326128e+00" Max="1.09307518e+01"/>
    <Variable VarIndex="2" Expression="ln_Kstb_PT" Label="ln_Kstb_PT" Title="ln_Kstb_PT" Unit="" Internal="ln_Kstb_PT" Type="F" Min="6.80489731e+00" Max="1.09245358e+01"/>
    <Variable VarIndex="3" Expression="ln_max_track_PT" Label="ln_max_track_PT" Title="ln_max_track_PT" Unit="" Internal="ln_max_track_PT" Type="F" Min="7.34983063e+00" Max="1.07867289e+01"/>
    <Variable VarIndex="4" Expression="ln_min_track_PT" Label="ln_min_track_PT" Title="ln_min_track_PT" Unit="" Internal="ln_min_track_PT" Type="F" Min="6.21461248e+00" Max="9.06322670e+00"/>
    <Variable VarIndex="5" Expression="B_s0_eta" Label="B_s0_eta" Title="B_s0_eta" Unit="" Internal="B_s0_eta" Type="F" Min="1.90870821e+00" Max="9.81173325e+00"/>
    <Variable VarIndex="6" Expression="Kst_eta" Label="Kst_eta" Title="Kst_eta" Unit="" Internal="Kst_eta" Type="F" Min="1.79824805e+00" Max="5.23117018e+00"/>
    <Variable VarIndex="7" Expression="Kstb_eta" Label="Kstb_eta" Title="Kstb_eta" Unit="" Internal="Kstb_eta" Type="F" Min="1.75479114e+00" Max="5.24634695e+00"/>
    <Variable VarIndex="8" Expression="max_track_eta" Label="max_track_eta" Title="max_track_eta" Unit="" Internal="max_track_eta" Type="F" Min="2.09093642e+00" Max="5.15263510e+00"/>
    <Variable VarIndex="9" Expression="min_track_eta" Label="min_track_eta" Title="min_track_eta" Unit="" Internal="min_track_eta" Type="F" Min="1.71286881e+00" Max="4.54960585e+00"/>
    <Variable VarIndex="10" Expression="B_s0_ARCCOS_DIRA_OWNPV" Label="B_s0_ARCCOS_DIRA_OWNPV" Title="B_s0_ARCCOS_DIRA_OWNPV" Unit="" Internal="B_s0_ARCCOS_DIRA_OWNPV" Type="F" Min="2.00601949e-06" Max="1.39913425e-01"/>
    <Variable VarIndex="11" Expression="B_s0_ENDVERTEX_CHI2" Label="B_s0_ENDVERTEX_CHI2" Title="B_s0_ENDVERTEX_CHI2" Unit="" Internal="B_s0_ENDVERTEX_CHI2" Type="F" Min="7.85487816e-02" Max="5.99988098e+01"/>
    <Variable VarIndex="12" Expression="B_s0_MMERRoMM" Label="B_s0_MMERRoMM" Title="B_s0_MMERRoMM" Unit="" Internal="B_s0_MMERRoMM" Type="F" Min="1.39846257e-03" Max="1.50269633e-02"/>
    <Variable VarIndex="13" Expression="max_track_CHI2" Label="max_track_CHI2" Title="max_track_CHI2" Unit="" Internal="max_track_CHI2" Type="F" Min="6.37899458e-01" Max="2.99990845e+00"/>
  </Variables>
  <Spectators NSpec="0"/>
  <Classes NClass="2">
    <Class Name="Background" Index="0"/>
    <Class Name="Signal" Index="1"/>
  </Classes>
  <Transformations NTransformations="2">
    <Transform Name="Decorrelation">
      <Selection>
        <Input NInputs="14">
          <Input Type="Variable" Label="ln_B_s0_PT" Expression="ln_B_s0_PT"/>
          <Input Type="Variable" Label="ln_Kst_PT" Expression="ln_Kst_PT"/>
          <Input Type="Variable" Label="ln_Kstb_PT" Expression="ln_Kstb_PT"/>
          <Input Type="Variable" Label="ln_max_track_PT" Expression="ln_max_track_PT"/>
          <Input Type="Variable" Label="ln_min_track_PT" Expression="ln_min_track_PT"/>
          <Input Type="Variable" Label="B_s0_eta" Expression="B_s0_eta"/>
          <Input Type="Variable" Label="Kst_eta" Expression="Kst_eta"/>
          <Input Type="Variable" Label="Kstb_eta" Expression="Kstb_eta"/>
          <Input Type="Variable" Label="max_track_eta" Expression="max_track_eta"/>
          <Input Type="Variable" Label="min_track_eta" Expression="min_track_eta"/>
          <Input Type="Variable" Label="B_s0_ARCCOS_DIRA_OWNPV" Expression="B_s0_ARCCOS_DIRA_OWNPV"/>
          <Input Type="Variable" Label="B_s0_ENDVERTEX_CHI2" Expression="B_s0_ENDVERTEX_CHI2"/>
          <Input Type="Variable" Label="B_s0_MMERRoMM" Expression="B_s0_MMERRoMM"/>
          <Input Type="Variable" Label="max_track_CHI2" Expression="max_track_CHI2"/>
        </Input>
        <Output NOutputs="14">
          <Output Type="Variable" Label="ln_B_s0_PT" Expression="ln_B_s0_PT"/>
          <Output Type="Variable" Label="ln_Kst_PT" Expression="ln_Kst_PT"/>
          <Output Type="Variable" Label="ln_Kstb_PT" Expression="ln_Kstb_PT"/>
          <Output Type="Variable" Label="ln_max_track_PT" Expression="ln_max_track_PT"/>
          <Output Type="Variable" Label="ln_min_track_PT" Expression="ln_min_track_PT"/>
          <Output Type="Variable" Label="B_s0_eta" Expression="B_s0_eta"/>
          <Output Type="Variable" Label="Kst_eta" Expression="Kst_eta"/>
          <Output Type="Variable" Label="Kstb_eta" Expression="Kstb_eta"/>
          <Output Type="Variable" Label="max_track_eta" Expression="max_track_eta"/>
          <Output Type="Variable" Label="min_track_eta" Expression="min_track_eta"/>
          <Output Type="Variable" Label="B_s0_ARCCOS_DIRA_OWNPV" Expression="B_s0_ARCCOS_DIRA_OWNPV"/>
          <Output Type="Variable" Label="B_s0_ENDVERTEX_CHI2" Expression="B_s0_ENDVERTEX_CHI2"/>
          <Output Type="Variable" Label="B_s0_MMERRoMM" Expression="B_s0_MMERRoMM"/>
          <Output Type="Variable" Label="max_track_CHI2" Expression="max_track_CHI2"/>
        </Output>
      </Selection>
      <Matrix Rows="14" Columns="14">
        7.636637424121883e+00 -2.986093773918143e+00 -2.921860740908147e+00 -1.196577282704787e+00 -2.159324826708153e-01 6.826934470438665e+00 -3.280343115721858e+00 -3.208229901505945e+00 -2.407175831792479e-01 2.994930447170896e-01 1.314217595801267e+00 -1.387286250633157e-02 -9.072928869137692e-01 3.287371271164091e-02 -2.986093773918144e+00 4.691924157284531e+00 2.584786424140816e+00 -8.266112090256483e-01 -7.948623755893448e-01 -2.707144614042535e+00 2.038620399377213e+00 1.530709674647704e+00 1.901605651593485e-02 -6.443863916120713e-01 -9.443867235304992e-02 -2.560117880809828e-03 -2.709517200914114e-01 -4.772070456908435e-03 -2.921860740908148e+00 2.584786424140815e+00 4.630145791023631e+00 -8.060766741876653e-01 -8.027220694465219e-01 -2.652307200360402e+00 1.549170721572967e+00 2.009224065114288e+00 1.238092042267847e-02 -6.653895360986566e-01 -8.309085350202849e-02 -2.072421175763577e-03 -2.750329957312178e-01 1.284695932894146e-02 -1.196577282704788e+00 -8.266112090256479e-01 -8.060766741876647e-01 4.562171595038314e+00 6.185348745657296e-01 -4.146395425077126e-01 1.489766500710777e-01 1.477145227128414e-01 1.698820741386884e-01 -1.776719599804105e-02 3.826306680368923e-01 -2.899133676250961e-03 -1.024122454018647e+00 -2.130627466877564e-02 -2.159324826708151e-01 -7.948623755893450e-01 -8.027220694465220e-01 6.185348745657305e-01 4.478145381239817e+00 -2.573538037343879e-02 -1.573866712303308e-01 -1.396288392568071e-01 3.227760764890737e-01 4.628607006165072e-02 -5.398988609203914e-02 -6.973602329340769e-04 2.666532288556406e-01 8.551802917175358e-02 6.826934470438666e+00 -2.707144614042534e+00 -2.652307200360402e+00 -4.146395425077122e-01 -2.573538037343900e-02 7.886441649619968e+00 -3.466462468188119e+00 -3.383912814058850e+00 -1.883900846824831e-01 -8.970293695904186e-02 1.686779194683083e+00 8.394352331813775e-03 -1.064733404024773e+00 3.792747328619912e-02 -3.280343115721858e+00 2.038620399377213e+00 1.549170721572967e+00 1.489766500710776e-01 -1.573866712303307e-01 -3.466462468188118e+00 5.421350158884747e+00 3.038662694387180e+00 -1.753867748344155e+00 -2.176788826823938e+00 -1.918528762757603e-01 -6.650368048607426e-04 -3.830343782753575e-01 6.102071341396966e-02 -3.208229901505946e+00 1.530709674647704e+00 2.009224065114289e+00 1.477145227128412e-01 -1.396288392568068e-01 -3.383912814058850e+00 3.038662694387181e+00 5.362890365831166e+00 -1.761500440186867e+00 -2.177040879939996e+00 -2.007965472355124e-01 -6.427902091716176e-04 -3.961737686167660e-01 6.814344763695857e-02 -2.407175831792483e-01 1.901605651593532e-02 1.238092042267865e-02 1.698820741386883e-01 3.227760764890736e-01 -1.883900846824845e-01 -1.753867748344155e+00 -1.761500440186867e+00 4.114026100283537e+00 6.585881989819174e-01 1.252477597579383e-01 -5.564412502218497e-03 2.986547870934776e-02 4.075689303382758e-02 2.994930447170869e-01 -6.443863916120717e-01 -6.653895360986581e-01 -1.776719599804087e-02 4.628607006165067e-02 -8.970293695904129e-02 -2.176788826823941e+00 -2.177040879939995e+00 6.585881989819163e-01 5.023842849702278e+00 -1.075304293300851e-01 1.872585780051574e-03 6.639938957106990e-02 8.847792965761436e-02 1.314217595801220e+00 -9.443867235301041e-02 -8.309085350198826e-02 3.826306680368994e-01 -5.398988609203903e-02 1.686779194683064e+00 -1.918528762757712e-01 -2.007965472354882e-01 1.252477597579398e-01 -1.075304293300832e-01 9.514761082397983e+01 -2.418436374955014e-04 -3.344599962997739e+00 3.207384158563916e-02 -1.387286250633156e-02 -2.560117880809831e-03 -2.072421175763580e-03 -2.899133676250961e-03 -6.973602329340766e-04 8.394352331813779e-03 -6.650368048607474e-04 -6.427902091716217e-04 -5.564412502218500e-03 1.872585780051578e-03 -2.418436374955263e-04 5.844775764998510e-02 6.270009454949634e-04 -7.459063045332754e-03 -9.072928869137648e-01 -2.709517200914122e-01 -2.750329957312186e-01 -1.024122454018647e+00 2.666532288556409e-01 -1.064733404024772e+00 -3.830343782753584e-01 -3.961737686167680e-01 2.986547870934745e-02 6.639938957107039e-02 -3.344599962997750e+00 6.270009454949637e-04 2.590168151469536e+03 -2.116855839365150e-01 3.287371271164055e-02 -4.772070456908319e-03 1.284695932894160e-02 -2.130627466877556e-02 8.551802917175357e-02 3.792747328619880e-02 6.102071341396983e-02 6.814344763695873e-02 4.075689303382755e-02 8.847792965761431e-02 3.207384158563986e-02 -7.459063045332754e-03 -2.116855839365150e-01 2.032406410793147e+00 
      </Matrix>
      <Matrix Rows="14" Columns="14">
        7.824729676732634e+00 -2.773228425882749e+00 -2.788941585982036e+00 -1.799425812963689e+00 -3.887049352190355e-01 5.048395282600407e+00 -2.800455649535386e+00 -2.814226935825328e+00 1.083723042601270e-02 8.930211525920071e-01 1.269150037261080e+00 -2.757720522101481e-03 -6.482981888474039e-01 2.086150076807210e-02 -2.773228425882750e+00 3.964265156617221e+00 2.209508791755493e+00 -5.983825000021672e-01 -8.312547798404492e-01 -1.586081634659690e+00 1.327537038085864e+00 1.004332944720730e+00 2.381729800051511e-01 -7.329851958109781e-01 -3.186130856932754e-01 -1.872451895904212e-03 -5.310131024314665e-01 3.063635983053681e-02 -2.788941585982037e+00 2.209508791755493e+00 3.985013535223314e+00 -5.919152350852350e-01 -8.416311544979428e-01 -1.606558166101990e+00 9.948733121453668e-01 1.345640805000764e+00 2.401325533989638e-01 -7.244522489109396e-01 -3.279931988539277e-01 -2.032418479459377e-03 -5.287428975526145e-01 2.812300440317144e-02 -1.799425812963689e+00 -5.983825000021668e-01 -5.919152350852348e-01 4.314242859701196e+00 8.035174280258689e-01 -1.915009688895768e-01 3.083291829579415e-01 3.136568224815073e-01 1.175795896346125e-01 -3.264916397946110e-01 1.085961132195007e-01 -8.052636106118821e-04 -1.184918766856704e+00 1.027245186336129e-02 -3.887049352190358e-01 -8.312547798404492e-01 -8.416311544979428e-01 8.035174280258692e-01 2.947953111798485e+00 -8.829628892934545e-02 -1.209608997673221e-02 -2.138640089575099e-02 2.224352029849451e-01 -1.867698679579781e-02 -3.176802083169200e-02 -2.723613078392615e-03 7.649564748591757e-01 5.495741693317374e-03 5.048395282600407e+00 -1.586081634659689e+00 -1.606558166101988e+00 -1.915009688895767e-01 -8.829628892934546e-02 8.069847083300299e+00 -3.696606673746584e+00 -3.703425220161077e+00 3.258313394291785e-01 -9.305110828472374e-02 1.399538096672964e+00 5.932609226483031e-04 -1.042639678661333e+00 2.815558182380242e-02 -2.800455649535385e+00 1.327537038085863e+00 9.948733121453646e-01 3.083291829579419e-01 -1.209608997673204e-02 -3.696606673746583e+00 8.116615879821978e+00 5.649916772360474e+00 -4.479080522272516e+00 -4.579032699385206e+00 -3.074017325938490e-01 3.157788758668676e-03 -1.224914220302357e+00 5.405262931916283e-04 -2.814226935825324e+00 1.004332944720729e+00 1.345640805000761e+00 3.136568224815075e-01 -2.138640089575087e-02 -3.703425220161074e+00 5.649916772360474e+00 8.134308424178961e+00 -4.529699512656284e+00 -4.546164705744358e+00 -3.300565054333178e-01 2.763448434914397e-03 -1.251585163336249e+00 5.276432865870987e-03 1.083723042601252e-02 2.381729800051521e-01 2.401325533989655e-01 1.175795896346119e-01 2.224352029849448e-01 3.258313394291785e-01 -4.479080522272516e+00 -4.529699512656283e+00 6.904537754848787e+00 2.694179405804400e+00 8.567481509352398e-02 2.646489797212938e-03 7.633351116243716e-01 4.939101911338130e-03 8.930211525920069e-01 -7.329851958109777e-01 -7.244522489109383e-01 -3.264916397946112e-01 -1.867698679579789e-02 -9.305110828472364e-02 -4.579032699385207e+00 -4.546164705744358e+00 2.694179405804401e+00 7.656794646045504e+00 -2.084903405360666e-02 -3.468905705801410e-04 4.933554216253390e-01 1.801701069330025e-02 1.269150037261079e+00 -3.186130856932753e-01 -3.279931988539275e-01 1.085961132195007e-01 -3.176802083169199e-02 1.399538096672964e+00 -3.074017325938497e-01 -3.300565054333184e-01 8.567481509352422e-02 -2.084903405360627e-02 3.503123510414397e+02 -7.913807019424126e-03 -5.765046322235946e-01 3.762631791300284e-02 -2.757720522101473e-03 -1.872451895904217e-03 -2.032418479459380e-03 -8.052636106118826e-04 -2.723613078392614e-03 5.932609226483092e-04 3.157788758668676e-03 2.763448434914398e-03 2.646489797212933e-03 -3.468905705801415e-04 -7.913807019424122e-03 1.739197689932107e-01 -4.314096837139614e-04 -9.825155005980309e-03 -6.482981888474024e-01 -5.310131024314672e-01 -5.287428975526151e-01 -1.184918766856704e+00 7.649564748591762e-01 -1.042639678661332e+00 -1.224914220302358e+00 -1.251585163336250e+00 7.633351116243725e-01 4.933554216253392e-01 -5.765046322235944e-01 -4.314096837139598e-04 3.338259849337073e+03 -1.956567073322916e-01 2.086150076807205e-02 3.063635983053683e-02 2.812300440317144e-02 1.027245186336131e-02 5.495741693317397e-03 2.815558182380237e-02 5.405262931916328e-04 5.276432865870987e-03 4.939101911338149e-03 1.801701069330029e-02 3.762631791300283e-02 -9.825155005980309e-03 -1.956567073322916e-01 3.092698465212920e+00 
      </Matrix>
      <Matrix Rows="14" Columns="14">
        7.150714940284107e+00 -2.666944982381550e+00 -2.644502847519103e+00 -1.262615295202477e+00 -3.021675302593250e-01 6.299276755521831e+00 -2.946723759414134e+00 -2.915081794182857e+00 -2.183132580387233e-01 2.200195578838979e-01 1.430893775852294e+00 7.879640700132091e-04 -9.840008481478435e-01 1.100566057649285e-01 -2.666944982381552e+00 4.156216904953817e+00 2.210548180965294e+00 -8.652173072583729e-01 -9.148317387920751e-01 -2.313739029057991e+00 1.726338212771868e+00 1.301571527153570e+00 1.214444358703456e-01 -5.705090541239874e-01 -1.506904421880035e-01 5.601988957759228e-03 -2.403239876925909e-01 4.283788619271502e-02 -2.644502847519105e+00 2.210548180965295e+00 4.136159147877462e+00 -8.518026514041545e-01 -9.251016402146305e-01 -2.298729876677458e+00 1.313681619156600e+00 1.725057328957155e+00 1.160821648804916e-01 -5.825793783829949e-01 -1.483166461669452e-01 6.245996233474450e-03 -2.407706962944758e-01 5.482504405161778e-02 -1.262615295202475e+00 -8.652173072583732e-01 -8.518026514041547e-01 4.306586874463403e+00 6.903880213246584e-01 -4.700272908749342e-01 2.086013878550055e-01 2.096157437450258e-01 1.858395698252447e-01 -4.640963500748468e-03 1.737829046406010e-01 2.045966023634996e-03 -9.847200142799295e-01 -9.639053163725971e-04 -3.021675302593241e-01 -9.148317387920754e-01 -9.251016402146306e-01 6.903880213246585e-01 3.525156904003243e+00 -5.664907176410854e-02 -9.602779194490076e-02 -9.466032091954010e-02 3.085388262787255e-01 2.629048796923946e-02 1.232318981515966e-01 8.604443941445321e-03 5.284673223877387e-01 1.141284455550532e-01 6.299276755521832e+00 -2.313739029057990e+00 -2.298729876677456e+00 -4.700272908749357e-01 -5.664907176410919e-02 7.487129134431672e+00 -3.220964028013626e+00 -3.177563792546818e+00 -1.671979580457333e-01 -1.403234499510300e-01 1.542799050238685e+00 1.433217837674080e-03 -1.107758623876180e+00 1.725491152272710e-02 -2.946723759414136e+00 1.726338212771867e+00 1.313681619156600e+00 2.086013878550062e-01 -9.602779194489984e-02 -3.220964028013627e+00 5.675640521434175e+00 3.271414525933685e+00 -2.180238058318580e+00 -2.519288943694660e+00 -4.549078029875755e-01 -3.487234538359675e-03 -4.569791761681632e-01 2.238567112769806e-02 -2.915081794182859e+00 1.301571527153571e+00 1.725057328957156e+00 2.096157437450274e-01 -9.466032091953984e-02 -3.177563792546820e+00 3.271414525933687e+00 5.649586530259559e+00 -2.200514323734347e+00 -2.508948792309417e+00 -4.638509229311669e-01 -3.232796552322182e-03 -4.704408678357068e-01 2.960765707692509e-02 -2.183132580387203e-01 1.214444358703450e-01 1.160821648804910e-01 1.858395698252448e-01 3.085388262787248e-01 -1.671979580457303e-01 -2.180238058318582e+00 -2.200514323734348e+00 4.598609535658675e+00 9.516353975416497e-01 1.185245197132756e-01 -8.512035727630327e-03 1.242937906385299e-01 8.256106897296301e-03 2.200195578838989e-01 -5.705090541239873e-01 -5.825793783829950e-01 -4.640963500748443e-03 2.629048796923917e-02 -1.403234499510292e-01 -2.519288943694661e+00 -2.508948792309417e+00 9.516353975416499e-01 5.429234976049357e+00 1.925617067258702e-01 4.935139161133563e-03 1.442206446743555e-02 1.135890395271048e-01 1.430893775852288e+00 -1.506904421880043e-01 -1.483166461669420e-01 1.737829046406008e-01 1.232318981515965e-01 1.542799050238678e+00 -4.549078029875722e-01 -4.638509229311680e-01 1.185245197132752e-01 1.925617067258704e-01 1.040400733732092e+02 -1.304159436010139e-02 -3.196482745318377e+00 -2.294870692672841e-01 7.879640700132109e-04 5.601988957759227e-03 6.245996233474448e-03 2.045966023634995e-03 8.604443941445321e-03 1.433217837674083e-03 -3.487234538359675e-03 -3.232796552322185e-03 -8.512035727630332e-03 4.935139161133564e-03 -1.304159436010140e-02 6.219728051559667e-02 -3.267438718550508e-04 -1.800844936321711e-02 -9.840008481476599e-01 -2.403239876922654e-01 -2.407706962942878e-01 -9.847200142797006e-01 5.284673223876959e-01 -1.107758623876780e+00 -4.569791761686933e-01 -4.704408678336190e-01 1.242937906399584e-01 1.442206446811820e-02 -3.196482745318548e+00 -3.267438718555901e-04 2.803241252314123e+03 -2.207211831625769e-01 1.100566057649281e-01 4.283788619271527e-02 5.482504405161808e-02 -9.639053163727623e-04 1.141284455550531e-01 1.725491152272697e-02 2.238567112769817e-02 2.960765707692533e-02 8.256106897296297e-03 1.135890395271047e-01 -2.294870692672841e-01 -1.800844936321711e-02 -2.207211831625386e-01 2.218587660818269e+00 
      </Matrix>
    </Transform>
    <Transform Name="Gauss" FlatOrGauss="Gauss">
      <Selection>
        <Input NInputs="14">
          <Input Type="Variable" Label="ln_B_s0_PT" Expression="ln_B_s0_PT"/>
          <Input Type="Variable" Label="ln_Kst_PT" Expression="ln_Kst_PT"/>
          <Input Type="Variable" Label="ln_Kstb_PT" Expression="ln_Kstb_PT"/>
          <Input Type="Variable" Label="ln_max_track_PT" Expression="ln_max_track_PT"/>
          <Input Type="Variable" Label="ln_min_track_PT" Expression="ln_min_track_PT"/>
          <Input Type="Variable" Label="B_s0_eta" Expression="B_s0_eta"/>
          <Input Type="Variable" Label="Kst_eta" Expression="Kst_eta"/>
          <Input Type="Variable" Label="Kstb_eta" Expression="Kstb_eta"/>
          <Input Type="Variable" Label="max_track_eta" Expression="max_track_eta"/>
          <Input Type="Variable" Label="min_track_eta" Expression="min_track_eta"/>
          <Input Type="Variable" Label="B_s0_ARCCOS_DIRA_OWNPV" Expression="B_s0_ARCCOS_DIRA_OWNPV"/>
          <Input Type="Variable" Label="B_s0_ENDVERTEX_CHI2" Expression="B_s0_ENDVERTEX_CHI2"/>
          <Input Type="Variable" Label="B_s0_MMERRoMM" Expression="B_s0_MMERRoMM"/>
          <Input Type="Variable" Label="max_track_CHI2" Expression="max_track_CHI2"/>
        </Input>
        <Output NOutputs="14">
          <Output Type="Variable" Label="ln_B_s0_PT" Expression="ln_B_s0_PT"/>
          <Output Type="Variable" Label="ln_Kst_PT" Expression="ln_Kst_PT"/>
          <Output Type="Variable" Label="ln_Kstb_PT" Expression="ln_Kstb_PT"/>
          <Output Type="Variable" Label="ln_max_track_PT" Expression="ln_max_track_PT"/>
          <Output Type="Variable" Label="ln_min_track_PT" Expression="ln_min_track_PT"/>
          <Output Type="Variable" Label="B_s0_eta" Expression="B_s0_eta"/>
          <Output Type="Variable" Label="Kst_eta" Expression="Kst_eta"/>
          <Output Type="Variable" Label="Kstb_eta" Expression="Kstb_eta"/>
          <Output Type="Variable" Label="max_track_eta" Expression="max_track_eta"/>
          <Output Type="Variable" Label="min_track_eta" Expression="min_track_eta"/>
          <Output Type="Variable" Label="B_s0_ARCCOS_DIRA_OWNPV" Expression="B_s0_ARCCOS_DIRA_OWNPV"/>
          <Output Type="Variable" Label="B_s0_ENDVERTEX_CHI2" Expression="B_s0_ENDVERTEX_CHI2"/>
          <Output Type="Variable" Label="B_s0_MMERRoMM" Expression="B_s0_MMERRoMM"/>
          <Output Type="Variable" Label="max_track_CHI2" Expression="max_track_CHI2"/>
        </Output>
      </Selection>
      <Variable VarIndex="0">
        <CumulativePDF_cls0>
          <PDF Name="GaussTransform var0 cls0" MinNSmooth="0" MaxNSmooth="0" InterpolMethod="1" KDE_type="0" KDE_iter="1" KDE_border="1" KDE_finefactor="0.0000000000000000e+00">
            <Histogram Name="Cumulative_Var0_cls0_original" NBins="1966" XMin="4.2213859558105469e+00" XMax="1.4438979148864746e+01" HasEquidistantBins="0">
              4.35070717e-04 9.16995225e-04 1.42401992e-03 1.93439133e-03 2.44308938e-03 2.95178755e-03 3.46048549e-03 3.96918366e-03 4.47788183e-03 4.98657953e-03 5.49527770e-03 6.00397587e-03 6.51267404e-03 7.02137221e-03 7.53006991e-03 8.03876854e-03 8.54746625e-03 9.05616395e-03 9.56486259e-03 1.00735603e-02 1.05822589e-02 1.10909566e-02 1.15996543e-02 1.21083530e-02 1.26170507e-02 1.31257484e-02 1.36344470e-02 1.41431447e-02 1.46518433e-02 1.51605411e-02 1.56692397e-02 1.61779374e-02 1.66866351e-02 1.71953328e-02 1.77040324e-02 1.82127301e-02 1.87214278e-02 1.92301255e-02 1.97388232e-02 2.02475209e-02 2.07562204e-02 2.12649181e-02 2.17736159e-02 2.22823136e-02 2.27910113e-02 2.32997108e-02 2.38084085e-02 2.43171062e-02 2.48258039e-02 2.53345016e-02 2.58432012e-02 2.63518989e-02 2.68605966e-02 2.73692943e-02 2.78779920e-02 2.83866916e-02 2.88953893e-02 2.94040870e-02 2.99127847e-02 3.04214824e-02 3.09301820e-02 3.14388797e-02 3.19475755e-02 3.24562751e-02 3.29649746e-02 3.34736705e-02 3.39823700e-02 3.44910659e-02 3.49997655e-02 3.55084650e-02 3.60171609e-02 3.65258604e-02 3.70345563e-02 3.75432558e-02 3.80519554e-02 3.85606512e-02 3.90693508e-02 3.95780466e-02 4.00867462e-02 4.05954458e-02 4.11041416e-02 4.16128412e-02 4.21215370e-02 4.26302366e-02 4.31389362e-02 4.36476320e-02 4.41563316e-02 4.46650274e-02 4.51737270e-02 4.56824265e-02 4.61911224e-02 4.66998219e-02 4.72085178e-02 4.77172174e-02 4.82259169e-02 4.87346128e-02 4.92433123e-02 4.97520082e-02 5.02607077e-02 5.07694073e-02 5.12781031e-02 5.17868027e-02 5.22954985e-02 5.28041981e-02 5.33128977e-02 5.38215935e-02 5.43302931e-02 5.48389889e-02 5.53476885e-02 5.58563881e-02 5.63650839e-02 5.68737835e-02 5.73824793e-02 5.78911789e-02 5.83998784e-02 5.89085743e-02 5.94172738e-02 5.99259697e-02 6.04346693e-02 6.09433688e-02 6.14520647e-02 6.19607642e-02 6.24694601e-02 6.29781559e-02 6.34868592e-02 6.39955550e-02 6.45042509e-02 6.50129542e-02 6.55216500e-02 6.60303459e-02 6.65390491e-02 6.70477450e-02 6.75564408e-02 6.80651367e-02 6.85738400e-02 6.90825358e-02 6.95912316e-02 7.00999349e-02 7.06086308e-02 7.11173266e-02 7.16260299e-02 7.21347257e-02 7.26434216e-02 7.31521174e-02 7.36608207e-02 7.41695166e-02 7.46782124e-02 7.51869157e-02 7.56956115e-02 7.62043074e-02 7.67130107e-02 7.72217065e-02 7.77304024e-02 7.82390982e-02 7.87478015e-02 7.92564973e-02 7.97651932e-02 8.02738965e-02 8.07825923e-02 8.12912881e-02 8.17999914e-02 8.23086873e-02 8.28173831e-02 8.33260790e-02 8.38347822e-02 8.43434781e-02 8.48521739e-02 8.53608772e-02 8.58695731e-02 8.63782689e-02 8.68869722e-02 8.73956680e-02 8.79043639e-02 8.84130597e-02 8.89217630e-02 8.94304588e-02 8.99391547e-02 9.04478580e-02 9.09565538e-02 9.14652497e-02 9.19739529e-02 9.24826488e-02 9.29913446e-02 9.35000405e-02 9.40087438e-02 9.45174396e-02 9.50261354e-02 9.55348387e-02 9.60435346e-02 9.65522304e-02 9.70609263e-02 9.75696295e-02 9.80783254e-02 9.85870212e-02 9.90957245e-02 9.96044204e-02 1.00113116e-01 1.00621819e-01 1.01130515e-01 1.01639211e-01 1.02147907e-01 1.02656610e-01 1.03165306e-01 1.03674002e-01 1.04182705e-01 1.04691401e-01 1.05200097e-01 1.05708800e-01 1.06217496e-01 1.06726192e-01 1.07234888e-01 1.07743591e-01 1.08252287e-01 1.08760983e-01 1.09269686e-01 1.09778382e-01 1.10287078e-01 1.10795781e-01 1.11304477e-01 1.11813173e-01 1.12321869e-01 1.12830572e-01 1.13339268e-01 1.13847964e-01 1.14356667e-01 1.14865363e-01 1.15374058e-01 1.15882762e-01 1.16391458e-01 1.16900153e-01 1.17408849e-01 1.17917553e-01 1.18426248e-01 1.18934944e-01 1.19443648e-01 1.19952343e-01 1.20461039e-01 1.20969743e-01 1.21478438e-01 1.21987134e-01 1.22495830e-01 1.23004533e-01 1.23513229e-01 1.24021925e-01 1.24530628e-01 1.25039324e-01 1.25548020e-01 1.26056716e-01 1.26565412e-01 1.27074122e-01 1.27582818e-01 1.28091514e-01 1.28600210e-01 1.29108906e-01 1.29617602e-01 1.30126297e-01 1.30635008e-01 1.31143704e-01 1.31652400e-01 1.32161096e-01 1.32669792e-01 1.33178487e-01 1.33687198e-01 1.34195894e-01 1.34704590e-01 1.35213286e-01 1.35721982e-01 1.36230677e-01 1.36739373e-01 1.37248084e-01 1.37756780e-01 1.38265476e-01 1.38774171e-01 1.39282867e-01 1.39791563e-01 1.40300259e-01 1.40808970e-01 1.41317666e-01 1.41826361e-01 1.42335057e-01 1.42843753e-01 1.43352449e-01 1.43861145e-01 1.44369856e-01 1.44878551e-01 1.45387247e-01 1.45895943e-01 1.46404639e-01 1.46913335e-01 1.47422045e-01 1.47930741e-01 1.48439437e-01 1.48948133e-01 1.49456829e-01 1.49965525e-01 1.50474221e-01 1.50982931e-01 1.51491627e-01 1.52000323e-01 1.52509019e-01 1.53017715e-01 1.53526410e-01 1.54035106e-01 1.54543817e-01 1.55052513e-01 1.55561209e-01 1.56069905e-01 1.56578600e-01 1.57087296e-01 1.57596007e-01 1.58104703e-01 1.58613399e-01 1.59122095e-01 1.59630790e-01 1.60139486e-01 1.60648182e-01 1.61156893e-01 1.61665589e-01 1.62174284e-01 1.62682980e-01 1.63191676e-01 1.63700372e-01 1.64209068e-01 1.64717779e-01 1.65226474e-01 1.65735170e-01 1.66243866e-01 1.66752562e-01 1.67261258e-01 1.67769969e-01 1.68278664e-01 1.68787360e-01 1.69296056e-01 1.69804752e-01 1.70313448e-01 1.70822144e-01 1.71330854e-01 1.71839550e-01 1.72348246e-01 1.72856942e-01 1.73365638e-01 1.73874334e-01 1.74383029e-01 1.74891740e-01 1.75400436e-01 1.75909132e-01 1.76417828e-01 1.76926523e-01 1.77435219e-01 1.77943930e-01 1.78452626e-01 1.78961322e-01 1.79470018e-01 1.79978713e-01 1.80487409e-01 1.80996105e-01 1.81504816e-01 1.82013512e-01 1.82522207e-01 1.83030903e-01 1.83539599e-01 1.84048295e-01 1.84556991e-01 1.85065702e-01 1.85574397e-01 1.86083093e-01 1.86591789e-01 1.87100485e-01 1.87609181e-01 1.88117877e-01 1.88626587e-01 1.89135283e-01 1.89643979e-01 1.90152675e-01 1.90661371e-01 1.91170067e-01 1.91678777e-01 1.92187473e-01 1.92696169e-01 1.93204865e-01 1.93713561e-01 1.94222257e-01 1.94730952e-01 1.95239663e-01 1.95748359e-01 1.96257055e-01 1.96765751e-01 1.97274446e-01 1.97783142e-01 1.98291838e-01 1.98800549e-01 1.99309245e-01 1.99817941e-01 2.00326636e-01 2.00835332e-01 2.01344028e-01 2.01852739e-01 2.02361435e-01 2.02870131e-01 2.03378826e-01 2.03887522e-01 2.04396218e-01 2.04904914e-01 2.05413625e-01 2.05922320e-01 2.06431016e-01 2.06939712e-01 2.07448408e-01 2.07957104e-01 2.08465800e-01 2.08974510e-01 2.09483206e-01 2.09991902e-01 2.10500598e-01 2.11009294e-01 2.11517990e-01 2.12026700e-01 2.12535396e-01 2.13044092e-01 2.13552788e-01 2.14061484e-01 2.14570180e-01 2.15078875e-01 2.15587586e-01 2.16096282e-01 2.16604978e-01 2.17113674e-01 2.17622370e-01 2.18131065e-01 2.18639761e-01 2.19148472e-01 2.19657168e-01 2.20165864e-01 2.20674559e-01 2.21183255e-01 2.21691951e-01 2.22200662e-01 2.22709358e-01 2.23218054e-01 2.23726749e-01 2.24235445e-01 2.24744141e-01 2.25252837e-01 2.25761548e-01 2.26270244e-01 2.26778939e-01 2.27287635e-01 2.27796331e-01 2.28305027e-01 2.28813723e-01 2.29322433e-01 2.29831129e-01 2.30339825e-01 2.30848521e-01 2.31357217e-01 2.31865913e-01 2.32374609e-01 2.32883319e-01 2.33392015e-01 2.33900711e-01 2.34409407e-01 2.34918103e-01 2.35426798e-01 2.35935509e-01 2.36444205e-01 2.36952901e-01 2.37461597e-01 2.37970293e-01 2.38478988e-01 2.38987684e-01 2.39496395e-01 2.40005091e-01 2.40513787e-01 2.41022483e-01 2.41531178e-01 2.42039874e-01 2.42548570e-01 2.43057281e-01 2.43565977e-01 2.44074672e-01 2.44583368e-01 2.45092064e-01 2.45600760e-01 2.46109471e-01 2.46618167e-01 2.47126862e-01 2.47635558e-01 2.48144254e-01 2.48652950e-01 2.49161646e-01 2.49670357e-01 2.50179052e-01 2.50687748e-01 2.51196444e-01 2.51705140e-01 2.52213836e-01 2.52722532e-01 2.53231227e-01 2.53739923e-01 2.54248619e-01 2.54757345e-01 2.55266041e-01 2.55774736e-01 2.56283432e-01 2.56792128e-01 2.57300824e-01 2.57809520e-01 2.58318216e-01 2.58826911e-01 2.59335607e-01 2.59844303e-01 2.60352999e-01 2.60861695e-01 2.61370420e-01 2.61879116e-01 2.62387812e-01 2.62896508e-01 2.63405204e-01 2.63913900e-01 2.64422596e-01 2.64931291e-01 2.65439987e-01 2.65948683e-01 2.66457379e-01 2.66966075e-01 2.67474771e-01 2.67983466e-01 2.68492192e-01 2.69000888e-01 2.69509584e-01 2.70018280e-01 2.70526975e-01 2.71035671e-01 2.71544367e-01 2.72053063e-01 2.72561759e-01 2.73070455e-01 2.73579150e-01 2.74087846e-01 2.74596542e-01 2.75105268e-01 2.75613964e-01 2.76122659e-01 2.76631355e-01 2.77140051e-01 2.77648747e-01 2.78157443e-01 2.78666139e-01 2.79174834e-01 2.79683530e-01 2.80192226e-01 2.80700922e-01 2.81209618e-01 2.81718314e-01 2.82227039e-01 2.82735735e-01 2.83244431e-01 2.83753127e-01 2.84261823e-01 2.84770519e-01 2.85279214e-01 2.85787910e-01 2.86296606e-01 2.86805302e-01 2.87313998e-01 2.87822694e-01 2.88331389e-01 2.88840115e-01 2.89348811e-01 2.89857507e-01 2.90366203e-01 2.90874898e-01 2.91383594e-01 2.91892290e-01 2.92400986e-01 2.92909682e-01 2.93418378e-01 2.93927073e-01 2.94435769e-01 2.94944465e-01 2.95453191e-01 2.95961887e-01 2.96470582e-01 2.96979278e-01 2.97487974e-01 2.97996670e-01 2.98505366e-01 2.99014062e-01 2.99522758e-01 3.00031453e-01 3.00540149e-01 3.01048845e-01 3.01557541e-01 3.02066237e-01 3.02574962e-01 3.03083658e-01 3.03592354e-01 3.04101050e-01 3.04609746e-01 3.05118442e-01 3.05627137e-01 3.06135833e-01 3.06644529e-01 3.07153225e-01 3.07661921e-01 3.08170617e-01 3.08679312e-01 3.09188038e-01 3.09696734e-01 3.10205430e-01 3.10714126e-01 3.11222821e-01 3.11731517e-01 3.12240213e-01 3.12748909e-01 3.13257605e-01 3.13766301e-01 3.14274997e-01 3.14783692e-01 3.15292388e-01 3.15801114e-01 3.16309810e-01 3.16818506e-01 3.17327201e-01 3.17835897e-01 3.18344593e-01 3.18853289e-01 3.19361985e-01 3.19870681e-01 3.20379376e-01 3.20888072e-01 3.21396768e-01 3.21905464e-01 3.22414160e-01 3.22922885e-01 3.23431581e-01 3.23940277e-01 3.24448973e-01 3.24957669e-01 3.25466365e-01 3.25975060e-01 3.26483756e-01 3.26992452e-01 3.27501148e-01 3.28009844e-01 3.28518540e-01 3.29027236e-01 3.29535961e-01 3.30044657e-01 3.30553353e-01 3.31062049e-01 3.31570745e-01 3.32079440e-01 3.32588136e-01 3.33096832e-01 3.33605528e-01 3.34114224e-01 3.34622920e-01 3.35131615e-01 3.35640311e-01 3.36149007e-01 3.36657733e-01 3.37166429e-01 3.37675124e-01 3.38183820e-01 3.38692516e-01 3.39201212e-01 3.39709908e-01 3.40218604e-01 3.40727299e-01 3.41235995e-01 3.41744691e-01 3.42253387e-01 3.42762083e-01 3.43270808e-01 3.43779504e-01 3.44288200e-01 3.44796896e-01 3.45305592e-01 3.45814288e-01 3.46322984e-01 3.46831679e-01 3.47340375e-01 3.47849071e-01 3.48357767e-01 3.48866463e-01 3.49375159e-01 3.49883884e-01 3.50392580e-01 3.50901276e-01 3.51409972e-01 3.51918668e-01 3.52427363e-01 3.52936059e-01 3.53444755e-01 3.53953451e-01 3.54462147e-01 3.54970843e-01 3.55479538e-01 3.55988234e-01 3.56496930e-01 3.57005656e-01 3.57514352e-01 3.58023047e-01 3.58531743e-01 3.59040439e-01 3.59549135e-01 3.60057831e-01 3.60566527e-01 3.61075222e-01 3.61583918e-01 3.62092614e-01 3.62601310e-01 3.63110006e-01 3.63618731e-01 3.64127427e-01 3.64636123e-01 3.65144819e-01 3.65653515e-01 3.66162211e-01 3.66670907e-01 3.67179602e-01 3.67688298e-01 3.68196994e-01 3.68705690e-01 3.69214386e-01 3.69723082e-01 3.70231777e-01 3.70740503e-01 3.71249199e-01 3.71757895e-01 3.72266591e-01 3.72775286e-01 3.73283982e-01 3.73792678e-01 3.74301374e-01 3.74810070e-01 3.75318766e-01 3.75827461e-01 3.76336157e-01 3.76844853e-01 3.77353579e-01 3.77862275e-01 3.78370970e-01 3.78879666e-01 3.79388362e-01 3.79897058e-01 3.80405754e-01 3.80914450e-01 3.81423146e-01 3.81931841e-01 3.82440537e-01 3.82949233e-01 3.83457929e-01 3.83966655e-01 3.84475350e-01 3.84984046e-01 3.85492742e-01 3.86001438e-01 3.86510134e-01 3.87018830e-01 3.87527525e-01 3.88036221e-01 3.88544917e-01 3.89053613e-01 3.89562309e-01 3.90071005e-01 3.90579700e-01 3.91088426e-01 3.91597122e-01 3.92105818e-01 3.92614514e-01 3.93123209e-01 3.93631905e-01 3.94140601e-01 3.94649297e-01 3.95157993e-01 3.95666689e-01 3.96175385e-01 3.96684080e-01 3.97192776e-01 3.97701502e-01 3.98210198e-01 3.98718894e-01 3.99227589e-01 3.99736285e-01 4.00244981e-01 4.00753677e-01 4.01262373e-01 4.01771069e-01 4.02279764e-01 4.02788460e-01 4.03297156e-01 4.03805852e-01 4.04314578e-01 4.04823273e-01 4.05331969e-01 4.05840665e-01 4.06349361e-01 4.06858057e-01 4.07366753e-01 4.07875448e-01 4.08384144e-01 4.08892840e-01 4.09401536e-01 4.09910232e-01 4.10418928e-01 4.10927624e-01 4.11436349e-01 4.11945045e-01 4.12453741e-01 4.12962437e-01 4.13471133e-01 4.13979828e-01 4.14488524e-01 4.14997220e-01 4.15505916e-01 4.16014612e-01 4.16523308e-01 4.17032003e-01 4.17540699e-01 4.18049425e-01 4.18558121e-01 4.19066817e-01 4.19575512e-01 4.20084208e-01 4.20592904e-01 4.21101600e-01 4.21610296e-01 4.22118992e-01 4.22627687e-01 4.23136383e-01 4.23645079e-01 4.24153775e-01 4.24662471e-01 4.25171196e-01 4.25679892e-01 4.26188588e-01 4.26697284e-01 4.27205980e-01 4.27714676e-01 4.28223372e-01 4.28732067e-01 4.29240763e-01 4.29749459e-01 4.30258155e-01 4.30766851e-01 4.31275547e-01 4.31784272e-01 4.32292968e-01 4.32801664e-01 4.33310360e-01 4.33819056e-01 4.34327751e-01 4.34836447e-01 4.35345143e-01 4.35853839e-01 4.36362535e-01 4.36871231e-01 4.37379926e-01 4.37888622e-01 4.38397348e-01 4.38906044e-01 4.39414740e-01 4.39923435e-01 4.40432131e-01 4.40940827e-01 4.41449523e-01 4.41958219e-01 4.42466915e-01 4.42975610e-01 4.43484306e-01 4.43993002e-01 4.44501698e-01 4.45010394e-01 4.45519120e-01 4.46027815e-01 4.46536511e-01 4.47045207e-01 4.47553903e-01 4.48062599e-01 4.48571295e-01 4.49079990e-01 4.49588686e-01 4.50097382e-01 4.50606078e-01 4.51114774e-01 4.51623470e-01 4.52132195e-01 4.52640891e-01 4.53149587e-01 4.53658283e-01 4.54166979e-01 4.54675674e-01 4.55184370e-01 4.55693066e-01 4.56201762e-01 4.56710458e-01 4.57219154e-01 4.57727849e-01 4.58236545e-01 4.58745241e-01 4.59253967e-01 4.59762663e-01 4.60271358e-01 4.60780054e-01 4.61288750e-01 4.61797446e-01 4.62306142e-01 4.62814838e-01 4.63323534e-01 4.63832229e-01 4.64340925e-01 4.64849621e-01 4.65358317e-01 4.65867043e-01 4.66375738e-01 4.66884434e-01 4.67393130e-01 4.67901826e-01 4.68410522e-01 4.68919218e-01 4.69427913e-01 4.69936609e-01 4.70445305e-01 4.70954001e-01 4.71462697e-01 4.71971393e-01 4.72480118e-01 4.72988814e-01 4.73497510e-01 4.74006206e-01 4.74514902e-01 4.75023597e-01 4.75532293e-01 4.76040989e-01 4.76549685e-01 4.77058381e-01 4.77567077e-01 4.78075773e-01 4.78584468e-01 4.79093164e-01 4.79601890e-01 4.80110586e-01 4.80619282e-01 4.81127977e-01 4.81636673e-01 4.82145369e-01 4.82654065e-01 4.83162761e-01 4.83671457e-01 4.84180152e-01 4.84688848e-01 4.85197544e-01 4.85706240e-01 4.86214966e-01 4.86723661e-01 4.87232357e-01 4.87741053e-01 4.88249749e-01 4.88758445e-01 4.89267141e-01 4.89775836e-01 4.90284532e-01 4.90793228e-01 4.91301924e-01 4.91810620e-01 4.92319316e-01 4.92828041e-01 4.93336737e-01 4.93845433e-01 4.94354129e-01 4.94862825e-01 4.95371521e-01 4.95880216e-01 4.96388912e-01 4.96897608e-01 4.97406304e-01 4.97915000e-01 4.98423696e-01 4.98932391e-01 4.99441087e-01 4.99949813e-01 5.00458479e-01 5.00967205e-01 5.01475871e-01 5.01984596e-01 5.02493262e-01 5.03001988e-01 5.03510714e-01 5.04019380e-01 5.04528105e-01 5.05036771e-01 5.05545497e-01 5.06054163e-01 5.06562889e-01 5.07071555e-01 5.07580280e-01 5.08088946e-01 5.08597672e-01 5.09106338e-01 5.09615064e-01 5.10123789e-01 5.10632455e-01 5.11141181e-01 5.11649847e-01 5.12158573e-01 5.12667239e-01 5.13175964e-01 5.13684630e-01 5.14193356e-01 5.14702022e-01 5.15210748e-01 5.15719414e-01 5.16228139e-01 5.16736865e-01 5.17245531e-01 5.17754257e-01 5.18262923e-01 5.18771648e-01 5.19280314e-01 5.19789040e-01 5.20297706e-01 5.20806432e-01 5.21315098e-01 5.21823823e-01 5.22332489e-01 5.22841215e-01 5.23349881e-01 5.23858607e-01 5.24367332e-01 5.24875998e-01 5.25384724e-01 5.25893390e-01 5.26402116e-01 5.26910782e-01 5.27419508e-01 5.27928174e-01 5.28436899e-01 5.28945565e-01 5.29454291e-01 5.29962957e-01 5.30471683e-01 5.30980408e-01 5.31489074e-01 5.31997800e-01 5.32506466e-01 5.33015192e-01 5.33523858e-01 5.34032583e-01 5.34541249e-01 5.35049975e-01 5.35558641e-01 5.36067367e-01 5.36576033e-01 5.37084758e-01 5.37593484e-01 5.38102150e-01 5.38610876e-01 5.39119542e-01 5.39628267e-01 5.40136933e-01 5.40645659e-01 5.41154325e-01 5.41663051e-01 5.42171717e-01 5.42680442e-01 5.43189108e-01 5.43697834e-01 5.44206560e-01 5.44715226e-01 5.45223951e-01 5.45732617e-01 5.46241343e-01 5.46750009e-01 5.47258735e-01 5.47767401e-01 5.48276126e-01 5.48784792e-01 5.49293518e-01 5.49802184e-01 5.50310910e-01 5.50819635e-01 5.51328301e-01 5.51837027e-01 5.52345693e-01 5.52854419e-01 5.53363085e-01 5.53871810e-01 5.54380476e-01 5.54889202e-01 5.55397868e-01 5.55906594e-01 5.56415260e-01 5.56923985e-01 5.57432652e-01 5.57941377e-01 5.58450103e-01 5.58958769e-01 5.59467494e-01 5.59976161e-01 5.60484886e-01 5.60993552e-01 5.61502278e-01 5.62010944e-01 5.62519670e-01 5.63028336e-01 5.63537061e-01 5.64045727e-01 5.64554453e-01 5.65063179e-01 5.65571845e-01 5.66080570e-01 5.66589236e-01 5.67097962e-01 5.67606628e-01 5.68115354e-01 5.68624020e-01 5.69132745e-01 5.69641411e-01 5.70150137e-01 5.70658803e-01 5.71167529e-01 5.71676254e-01 5.72184920e-01 5.72693646e-01 5.73202312e-01 5.73711038e-01 5.74219704e-01 5.74728429e-01 5.75237095e-01 5.75745821e-01 5.76254487e-01 5.76763213e-01 5.77271879e-01 5.77780604e-01 5.78289330e-01 5.78797996e-01 5.79306722e-01 5.79815388e-01 5.80324113e-01 5.80832779e-01 5.81341505e-01 5.81850171e-01 5.82358897e-01 5.82867563e-01 5.83376288e-01 5.83884954e-01 5.84393680e-01 5.84902406e-01 5.85411072e-01 5.85919797e-01 5.86428463e-01 5.86937189e-01 5.87445855e-01 5.87954581e-01 5.88463247e-01 5.88971972e-01 5.89480639e-01 5.89989364e-01 5.90498030e-01 5.91006756e-01 5.91515481e-01 5.92024148e-01 5.92532873e-01 5.93041539e-01 5.93550265e-01 5.94058931e-01 5.94567657e-01 5.95076323e-01 5.95585048e-01 5.96093714e-01 5.96602440e-01 5.97111106e-01 5.97619832e-01 5.98128498e-01 5.98637223e-01 5.99145949e-01 5.99654615e-01 6.00163341e-01 6.00672007e-01 6.01180732e-01 6.01689398e-01 6.02198124e-01 6.02706790e-01 6.03215516e-01 6.03724182e-01 6.04232907e-01 6.04741573e-01 6.05250299e-01 6.05759025e-01 6.06267691e-01 6.06776416e-01 6.07285082e-01 6.07793808e-01 6.08302474e-01 6.08811200e-01 6.09319866e-01 6.09828591e-01 6.10337257e-01 6.10845983e-01 6.11354649e-01 6.11863375e-01 6.12372100e-01 6.12880766e-01 6.13389492e-01 6.13898158e-01 6.14406884e-01 6.14915550e-01 6.15424275e-01 6.15932941e-01 6.16441667e-01 6.16950333e-01 6.17459059e-01 6.17967725e-01 6.18476450e-01 6.18985176e-01 6.19493842e-01 6.20002568e-01 6.20511234e-01 6.21019959e-01 6.21528625e-01 6.22037351e-01 6.22546017e-01 6.23054743e-01 6.23563409e-01 6.24072134e-01 6.24580801e-01 6.25089526e-01 6.25598252e-01 6.26106918e-01 6.26615644e-01 6.27124310e-01 6.27633035e-01 6.28141701e-01 6.28650427e-01 6.29159093e-01 6.29667819e-01 6.30176485e-01 6.30685210e-01 6.31193876e-01 6.31702602e-01 6.32211268e-01 6.32719994e-01 6.33228719e-01 6.33737385e-01 6.34246111e-01 6.34754777e-01 6.35263503e-01 6.35772169e-01 6.36280894e-01 6.36789560e-01 6.37298286e-01 6.37806952e-01 6.38315678e-01 6.38824344e-01 6.39333069e-01 6.39841795e-01 6.40350461e-01 6.40859187e-01 6.41367853e-01 6.41876578e-01 6.42385244e-01 6.42893970e-01 6.43402636e-01 6.43911362e-01 6.44420028e-01 6.44928753e-01 6.45437419e-01 6.45946145e-01 6.46454871e-01 6.46963537e-01 6.47472262e-01 6.47980928e-01 6.48489654e-01 6.48998320e-01 6.49507046e-01 6.50015712e-01 6.50524437e-01 6.51033103e-01 6.51541829e-01 6.52050495e-01 6.52559221e-01 6.53067946e-01 6.53576612e-01 6.54085338e-01 6.54594004e-01 6.55102730e-01 6.55611396e-01 6.56120121e-01 6.56628788e-01 6.57137513e-01 6.57646179e-01 6.58154905e-01 6.58663571e-01 6.59172297e-01 6.59681022e-01 6.60189688e-01 6.60698414e-01 6.61207080e-01 6.61715806e-01 6.62224472e-01 6.62733197e-01 6.63241863e-01 6.63750589e-01 6.64259255e-01 6.64767981e-01 6.65276647e-01 6.65785372e-01 6.66294038e-01 6.66802764e-01 6.67311490e-01 6.67820156e-01 6.68328881e-01 6.68837547e-01 6.69346273e-01 6.69854939e-01 6.70363665e-01 6.70872331e-01 6.71381056e-01 6.71889722e-01 6.72398448e-01 6.72907114e-01 6.73415840e-01 6.73924565e-01 6.74433231e-01 6.74941957e-01 6.75450623e-01 6.75959349e-01 6.76468015e-01 6.76976740e-01 6.77485406e-01 6.77994132e-01 6.78502798e-01 6.79011524e-01 6.79520190e-01 6.80028915e-01 6.80537641e-01 6.81046307e-01 6.81555033e-01 6.82063699e-01 6.82572424e-01 6.83081090e-01 6.83589816e-01 6.84098482e-01 6.84607208e-01 6.85115874e-01 6.85624599e-01 6.86133265e-01 6.86641991e-01 6.87150717e-01 6.87659383e-01 6.88168108e-01 6.88676775e-01 6.89185500e-01 6.89694166e-01 6.90202892e-01 6.90711558e-01 6.91220284e-01 6.91728950e-01 6.92237675e-01 6.92746341e-01 6.93255067e-01 6.93763793e-01 6.94272459e-01 6.94781184e-01 6.95289850e-01 6.95798576e-01 6.96307242e-01 6.96815968e-01 6.97324634e-01 6.97833359e-01 6.98342025e-01 6.98850751e-01 6.99359417e-01 6.99868143e-01 7.00376809e-01 7.00885534e-01 7.01394260e-01 7.01902926e-01 7.02411652e-01 7.02920318e-01 7.03429043e-01 7.03937709e-01 7.04446435e-01 7.04955101e-01 7.05463827e-01 7.05972493e-01 7.06481218e-01 7.06989884e-01 7.07498610e-01 7.08007336e-01 7.08516002e-01 7.09024727e-01 7.09533393e-01 7.10042119e-01 7.10550785e-01 7.11059511e-01 7.11568177e-01 7.12076902e-01 7.12585568e-01 7.13094294e-01 7.13602960e-01 7.14111686e-01 7.14620411e-01 7.15129077e-01 7.15637803e-01 7.16146469e-01 7.16655195e-01 7.17163861e-01 7.17672586e-01 7.18181252e-01 7.18689978e-01 7.19198644e-01 7.19707370e-01 7.20216036e-01 7.20724761e-01 7.21233487e-01 7.21742153e-01 7.22250879e-01 7.22759545e-01 7.23268270e-01 7.23776937e-01 7.24285662e-01 7.24794328e-01 7.25303054e-01 7.25811720e-01 7.26320446e-01 7.26829112e-01 7.27337837e-01 7.27846563e-01 7.28355229e-01 7.28863955e-01 7.29372621e-01 7.29881346e-01 7.30390012e-01 7.30898738e-01 7.31407404e-01 7.31916130e-01 7.32424796e-01 7.32933521e-01 7.33442187e-01 7.33950913e-01 7.34459579e-01 7.34968305e-01 7.35477030e-01 7.35985696e-01 7.36494422e-01 7.37003088e-01 7.37511814e-01 7.38020480e-01 7.38529205e-01 7.39037871e-01 7.39546597e-01 7.40055263e-01 7.40563989e-01 7.41072655e-01 7.41581380e-01 7.42090106e-01 7.42598772e-01 7.43107498e-01 7.43616164e-01 7.44124889e-01 7.44633555e-01 7.45142281e-01 7.45650947e-01 7.46159673e-01 7.46668339e-01 7.47177064e-01 7.47685730e-01 7.48194456e-01 7.48703182e-01 7.49211848e-01 7.49720573e-01 7.50229239e-01 7.50737965e-01 7.51246631e-01 7.51755357e-01 7.52264023e-01 7.52772748e-01 7.53281415e-01 7.53790140e-01 7.54298806e-01 7.54807532e-01 7.55316257e-01 7.55824924e-01 7.56333649e-01 7.56842315e-01 7.57351041e-01 7.57859707e-01 7.58368433e-01 7.58877099e-01 7.59385824e-01 7.59894490e-01 7.60403216e-01 7.60911882e-01 7.61420608e-01 7.61929333e-01 7.62437999e-01 7.62946725e-01 7.63455391e-01 7.63964117e-01 7.64472783e-01 7.64981508e-01 7.65490174e-01 7.65998900e-01 7.66507566e-01 7.67016292e-01 7.67524958e-01 7.68033683e-01 7.68542409e-01 7.69051075e-01 7.69559801e-01 7.70068467e-01 7.70577192e-01 7.71085858e-01 7.71594584e-01 7.72103250e-01 7.72611976e-01 7.73120642e-01 7.73629367e-01 7.74138033e-01 7.74646759e-01 7.75155425e-01 7.75664151e-01 7.76172876e-01 7.76681542e-01 7.77190268e-01 7.77698934e-01 7.78207660e-01 7.78716326e-01 7.79225051e-01 7.79733717e-01 7.80242443e-01 7.80751109e-01 7.81259835e-01 7.81768501e-01 7.82277226e-01 7.82785952e-01 7.83294618e-01 7.83803344e-01 7.84312010e-01 7.84820735e-01 7.85329401e-01 7.85838127e-01 7.86346793e-01 7.86855519e-01 7.87364185e-01 7.87872910e-01 7.88381577e-01 7.88890302e-01 7.89399028e-01 7.89907694e-01 7.90416420e-01 7.90925086e-01 7.91433811e-01 7.91942477e-01 7.92451203e-01 7.92959869e-01 7.93468595e-01 7.93977261e-01 7.94485986e-01 7.94994652e-01 7.95503378e-01 7.96012104e-01 7.96520770e-01 7.97029495e-01 7.97538161e-01 7.98046887e-01 7.98555553e-01 7.99064279e-01 7.99572945e-01 8.00081670e-01 8.00590336e-01 8.01099062e-01 8.01607728e-01 8.02116454e-01 8.02625179e-01 8.03133845e-01 8.03642571e-01 8.04151237e-01 8.04659963e-01 8.05168629e-01 8.05677354e-01 8.06186020e-01 8.06694746e-01 8.07203412e-01 8.07712138e-01 8.08220804e-01 8.08729529e-01 8.09238195e-01 8.09746921e-01 8.10255647e-01 8.10764313e-01 8.11273038e-01 8.11781704e-01 8.12290430e-01 8.12799096e-01 8.13307822e-01 8.13816488e-01 8.14325213e-01 8.14833879e-01 8.15342605e-01 8.15851271e-01 8.16359997e-01 8.16868722e-01 8.17377388e-01 8.17886114e-01 8.18394780e-01 8.18903506e-01 8.19412172e-01 8.19920897e-01 8.20429564e-01 8.20938289e-01 8.21446955e-01 8.21955681e-01 8.22464347e-01 8.22973073e-01 8.23481798e-01 8.23990464e-01 8.24499190e-01 8.25007856e-01 8.25516582e-01 8.26025248e-01 8.26533973e-01 8.27042639e-01 8.27551365e-01 8.28060031e-01 8.28568757e-01 8.29077423e-01 8.29586148e-01 8.30094874e-01 8.30603540e-01 8.31112266e-01 8.31620932e-01 8.32129657e-01 8.32638323e-01 8.33147049e-01 8.33655715e-01 8.34164441e-01 8.34673107e-01 8.35181832e-01 8.35690498e-01 8.36199224e-01 8.36707950e-01 8.37216616e-01 8.37725341e-01 8.38234007e-01 8.38742733e-01 8.39251399e-01 8.39760125e-01 8.40268791e-01 8.40777516e-01 8.41286182e-01 8.41794908e-01 8.42303574e-01 8.42812300e-01 8.43320966e-01 8.43829691e-01 8.44338417e-01 8.44847083e-01 8.45355809e-01 8.45864475e-01 8.46373200e-01 8.46881866e-01 8.47390592e-01 8.47899258e-01 8.48407984e-01 8.48916650e-01 8.49425375e-01 8.49934042e-01 8.50442767e-01 8.50951493e-01 8.51460159e-01 8.51968884e-01 8.52477551e-01 8.52986276e-01 8.53494942e-01 8.54003668e-01 8.54512334e-01 8.55021060e-01 8.55529726e-01 8.56038451e-01 8.56547117e-01 8.57055843e-01 8.57564569e-01 8.58073235e-01 8.58581960e-01 8.59090626e-01 8.59599352e-01 8.60108018e-01 8.60616744e-01 8.61125410e-01 8.61634135e-01 8.62142801e-01 8.62651527e-01 8.63160193e-01 8.63668919e-01 8.64177644e-01 8.64686310e-01 8.65195036e-01 8.65703702e-01 8.66212428e-01 8.66721094e-01 8.67229819e-01 8.67738485e-01 8.68247211e-01 8.68755877e-01 8.69264603e-01 8.69773269e-01 8.70281994e-01 8.70790720e-01 8.71299386e-01 8.71808112e-01 8.72316778e-01 8.72825503e-01 8.73334169e-01 8.73842895e-01 8.74351561e-01 8.74860287e-01 8.75368953e-01 8.75877678e-01 8.76386344e-01 8.76895070e-01 8.77403736e-01 8.77912462e-01 8.78421187e-01 8.78929853e-01 8.79438579e-01 8.79947245e-01 8.80455971e-01 8.80964637e-01 8.81473362e-01 8.81982028e-01 8.82490754e-01 8.82999420e-01 8.83508146e-01 8.84016812e-01 8.84525537e-01 8.85034263e-01 8.85542929e-01 8.86051655e-01 8.86560321e-01 8.87069046e-01 8.87577713e-01 8.88086438e-01 8.88595104e-01 8.89103830e-01 8.89612496e-01 8.90121222e-01 8.90629888e-01 8.91138613e-01 8.91647339e-01 8.92156005e-01 8.92664731e-01 8.93173397e-01 8.93682122e-01 8.94190788e-01 8.94699514e-01 8.95208180e-01 8.95716906e-01 8.96225572e-01 8.96734297e-01 8.97242963e-01 8.97751689e-01 8.98260415e-01 8.98769081e-01 8.99277806e-01 8.99786472e-01 9.00295198e-01 9.00803864e-01 9.01312590e-01 9.01821256e-01 9.02329981e-01 9.02838647e-01 9.03347373e-01 9.03856039e-01 9.04364765e-01 9.04873490e-01 9.05382156e-01 9.05890882e-01 9.06399548e-01 9.06908274e-01 9.07416940e-01 9.07925665e-01 9.08434331e-01 9.08943057e-01 9.09451723e-01 9.09960449e-01 9.10469115e-01 9.10977840e-01 9.11486506e-01 9.11995232e-01 9.12503958e-01 9.13012624e-01 9.13521349e-01 9.14030015e-01 9.14538741e-01 9.15047407e-01 9.15556133e-01 9.16064799e-01 9.16573524e-01 9.17082191e-01 9.17590916e-01 9.18099582e-01 9.18608308e-01 9.19117033e-01 9.19625700e-01 9.20134425e-01 9.20643091e-01 9.21151817e-01 9.21660483e-01 9.22169209e-01 9.22677875e-01 9.23186600e-01 9.23695266e-01 9.24203992e-01 9.24712658e-01 9.25221384e-01 9.25730109e-01 9.26238775e-01 9.26747501e-01 9.27256167e-01 9.27764893e-01 9.28273559e-01 9.28782284e-01 9.29290950e-01 9.29799676e-01 9.30308342e-01 9.30817068e-01 9.31325734e-01 9.31834459e-01 9.32343185e-01 9.32851851e-01 9.33360577e-01 9.33869243e-01 9.34377968e-01 9.34886634e-01 9.35395360e-01 9.35904026e-01 9.36412752e-01 9.36921418e-01 9.37430143e-01 9.37938809e-01 9.38447535e-01 9.38956261e-01 9.39464927e-01 9.39973652e-01 9.40482318e-01 9.40991044e-01 9.41499710e-01 9.42008436e-01 9.42517102e-01 9.43025827e-01 9.43534493e-01 9.44043219e-01 9.44551885e-01 9.45060611e-01 9.45569336e-01 9.46078002e-01 9.46586728e-01 9.47095394e-01 9.47604120e-01 9.48112786e-01 9.48621511e-01 9.49130177e-01 9.49638903e-01 9.50147569e-01 9.50656295e-01 9.51164961e-01 9.51673687e-01 9.52182353e-01 9.52691078e-01 9.53199804e-01 9.53708470e-01 9.54217196e-01 9.54725862e-01 9.55234587e-01 9.55743253e-01 9.56251979e-01 9.56760645e-01 9.57269371e-01 9.57778037e-01 9.58286762e-01 9.58795428e-01 9.59304154e-01 9.59812880e-01 9.60321546e-01 9.60830271e-01 9.61338937e-01 9.61847663e-01 9.62356329e-01 9.62865055e-01 9.63373721e-01 9.63882446e-01 9.64391112e-01 9.64899838e-01 9.65408504e-01 9.65917230e-01 9.66425955e-01 9.66934621e-01 9.67443347e-01 9.67952013e-01 9.68460739e-01 9.68969405e-01 9.69478130e-01 9.69986796e-01 9.70495522e-01 9.71004188e-01 9.71512914e-01 9.72021580e-01 9.72530305e-01 9.73039031e-01 9.73547697e-01 9.74056423e-01 9.74565089e-01 9.75073814e-01 9.75582480e-01 9.76091206e-01 9.76599872e-01 9.77108598e-01 9.77617264e-01 9.78125989e-01 9.78634655e-01 9.79143381e-01 9.79652107e-01 9.80160773e-01 9.80669498e-01 9.81178164e-01 9.81686890e-01 9.82195556e-01 9.82704282e-01 9.83212948e-01 9.83721673e-01 9.84230340e-01 9.84739065e-01 9.85247731e-01 9.85756457e-01 9.86265123e-01 9.86773849e-01 9.87282574e-01 9.87791240e-01 9.88299966e-01 9.88808632e-01 9.89317358e-01 9.89826024e-01 9.90334749e-01 9.90843415e-01 9.91352141e-01 9.91860807e-01 9.92369533e-01 9.92878199e-01 9.93386924e-01 9.93895650e-01 9.94404316e-01 9.94913042e-01 9.95421708e-01 9.95930433e-01 9.96439099e-01 9.96947825e-01 9.97456491e-01 9.97965217e-01 9.98473883e-01 9.98982608e-01 9.99491274e-01 1.00000000e+00 
            </Histogram>
            <HistogramBinning NBins="1966">
              4.22138596e+00 4.22148609e+00 4.86798382e+00 5.42554331e+00 5.61702061e+00 5.72436762e+00 5.82407856e+00 5.88748264e+00 5.97960091e+00 6.04680252e+00 6.09050131e+00 6.14718866e+00 6.18566847e+00 6.23644161e+00 6.28778648e+00 6.31090546e+00 6.34099197e+00 6.36737299e+00 6.40794659e+00 6.43044853e+00 6.45357084e+00 6.46904421e+00 6.49356699e+00 6.51916313e+00 6.53599977e+00 6.56467819e+00 6.58072853e+00 6.60319328e+00 6.62267303e+00 6.63819695e+00 6.65113020e+00 6.66770363e+00 6.68295670e+00 6.70103407e+00 6.71256685e+00 6.72669554e+00 6.73965025e+00 6.75351095e+00 6.76973391e+00 6.78709888e+00 6.79767704e+00 6.81213760e+00 6.82209969e+00 6.83235741e+00 6.84330893e+00 6.85246706e+00 6.86395836e+00 6.87334824e+00 6.88444710e+00 6.89683390e+00 6.90490723e+00 6.91571140e+00 6.92996883e+00 6.94306087e+00 6.94974375e+00 6.95734072e+00 6.96591806e+00 6.97635221e+00 6.98390579e+00 6.99312353e+00 6.99874210e+00 7.00481701e+00 7.01316738e+00 7.02266932e+00 7.03385115e+00 7.04027033e+00 7.04820633e+00 7.05625248e+00 7.06356144e+00 7.07095242e+00 7.07765579e+00 7.08580399e+00 7.09372663e+00 7.10168886e+00 7.10977173e+00 7.11504602e+00 7.12271214e+00 7.12759304e+00 7.13457870e+00 7.13969326e+00 7.14585304e+00 7.15422964e+00 7.16015816e+00 7.16543865e+00 7.16971350e+00 7.17543221e+00 7.18044186e+00 7.18566847e+00 7.19367313e+00 7.19931602e+00 7.20877218e+00 7.21388483e+00 7.21704912e+00 7.22150183e+00 7.22594833e+00 7.23173904e+00 7.23799801e+00 7.24407530e+00 7.25139141e+00 7.25811815e+00 7.26169968e+00 7.26599550e+00 7.27250767e+00 7.27725172e+00 7.28376198e+00 7.28940821e+00 7.29473591e+00 7.29947233e+00 7.30442524e+00 7.30887651e+00 7.31276798e+00 7.31569242e+00 7.32243586e+00 7.32658720e+00 7.33241701e+00 7.33623409e+00 7.33927631e+00 7.34259129e+00 7.34750509e+00 7.35143137e+00 7.35448551e+00 7.35969210e+00 7.36372900e+00 7.36773157e+00 7.37304401e+00 7.37731838e+00 7.38240433e+00 7.38552332e+00 7.39048195e+00 7.39492798e+00 7.39852428e+00 7.40140247e+00 7.40620184e+00 7.40965748e+00 7.41355562e+00 7.41811562e+00 7.42132759e+00 7.42477560e+00 7.42774343e+00 7.43095589e+00 7.43537092e+00 7.43899822e+00 7.44282436e+00 7.44553041e+00 7.44914770e+00 7.45262146e+00 7.45655203e+00 7.46014643e+00 7.46581316e+00 7.46968317e+00 7.47300148e+00 7.47683620e+00 7.48108959e+00 7.48387289e+00 7.48807192e+00 7.49319410e+00 7.49608898e+00 7.49925041e+00 7.50230312e+00 7.50596142e+00 7.50913954e+00 7.51229811e+00 7.51492596e+00 7.51690197e+00 7.51961184e+00 7.52151299e+00 7.52505541e+00 7.52761459e+00 7.53048038e+00 7.53577948e+00 7.53895092e+00 7.54279995e+00 7.54562664e+00 7.54812479e+00 7.55076933e+00 7.55279827e+00 7.55725241e+00 7.56009960e+00 7.56397581e+00 7.56661415e+00 7.57047987e+00 7.57318354e+00 7.57561207e+00 7.57909822e+00 7.58095503e+00 7.58395004e+00 7.58807325e+00 7.59089565e+00 7.59397697e+00 7.59756947e+00 7.60175085e+00 7.60490513e+00 7.60849142e+00 7.61051512e+00 7.61375380e+00 7.61648750e+00 7.61845922e+00 7.62061691e+00 7.62302637e+00 7.62590361e+00 7.62836313e+00 7.63085938e+00 7.63278484e+00 7.63586187e+00 7.63887501e+00 7.64176083e+00 7.64386988e+00 7.64643574e+00 7.64795160e+00 7.65126514e+00 7.65481901e+00 7.65778017e+00 7.66019011e+00 7.66266155e+00 7.66474628e+00 7.66687822e+00 7.66905642e+00 7.67089081e+00 7.67298460e+00 7.67603493e+00 7.67798185e+00 7.68012428e+00 7.68220854e+00 7.68492937e+00 7.68719816e+00 7.68978548e+00 7.69245434e+00 7.69634724e+00 7.69971228e+00 7.70210171e+00 7.70438623e+00 7.70699215e+00 7.70948935e+00 7.71248007e+00 7.71469831e+00 7.71739912e+00 7.71954060e+00 7.72227430e+00 7.72492313e+00 7.72715712e+00 7.73030376e+00 7.73192835e+00 7.73452568e+00 7.73696327e+00 7.73875809e+00 7.74107409e+00 7.74336958e+00 7.74639940e+00 7.74873304e+00 7.75032711e+00 7.75181770e+00 7.75450611e+00 7.75717926e+00 7.75925779e+00 7.76145315e+00 7.76353979e+00 7.76655436e+00 7.76839018e+00 7.77082777e+00 7.77333689e+00 7.77607918e+00 7.77850914e+00 7.78056145e+00 7.78273582e+00 7.78528214e+00 7.78730106e+00 7.78898525e+00 7.79100847e+00 7.79263401e+00 7.79498243e+00 7.79709625e+00 7.79917431e+00 7.80089045e+00 7.80285692e+00 7.80478430e+00 7.80693293e+00 7.80922079e+00 7.81227970e+00 7.81481314e+00 7.81700802e+00 7.81884956e+00 7.82113314e+00 7.82271099e+00 7.82382345e+00 7.82721090e+00 7.82826185e+00 7.82994461e+00 7.83122921e+00 7.83303642e+00 7.83480787e+00 7.83652163e+00 7.83750629e+00 7.83925390e+00 7.84154081e+00 7.84384108e+00 7.84592819e+00 7.84775734e+00 7.84988070e+00 7.85100174e+00 7.85344553e+00 7.85614443e+00 7.85765409e+00 7.85875225e+00 7.86045265e+00 7.86239481e+00 7.86422491e+00 7.86614752e+00 7.86815453e+00 7.86997080e+00 7.87114096e+00 7.87229681e+00 7.87465382e+00 7.87627935e+00 7.87798214e+00 7.88072538e+00 7.88292789e+00 7.88551664e+00 7.88806915e+00 7.88936615e+00 7.89126301e+00 7.89218760e+00 7.89445639e+00 7.89577389e+00 7.89839983e+00 7.90042925e+00 7.90218019e+00 7.90388060e+00 7.90614176e+00 7.90819788e+00 7.91146946e+00 7.91409445e+00 7.91595650e+00 7.91742802e+00 7.91921329e+00 7.92063904e+00 7.92260838e+00 7.92404795e+00 7.92562199e+00 7.92831612e+00 7.93068933e+00 7.93274784e+00 7.93433857e+00 7.93606377e+00 7.93876934e+00 7.94104958e+00 7.94279242e+00 7.94400215e+00 7.94620609e+00 7.94785023e+00 7.95008469e+00 7.95188951e+00 7.95399761e+00 7.95557308e+00 7.95766926e+00 7.95984840e+00 7.96183395e+00 7.96378708e+00 7.96553659e+00 7.96765661e+00 7.96891356e+00 7.97156429e+00 7.97347069e+00 7.97535944e+00 7.97721148e+00 7.97854185e+00 7.98022413e+00 7.98249531e+00 7.98416090e+00 7.98559427e+00 7.98760462e+00 7.98938179e+00 7.99066544e+00 7.99226856e+00 7.99408245e+00 7.99554253e+00 7.99672937e+00 7.99847174e+00 7.99990034e+00 8.00183487e+00 8.00346279e+00 8.00501728e+00 8.00712967e+00 8.00858498e+00 8.01109219e+00 8.01256084e+00 8.01448250e+00 8.01654530e+00 8.01804161e+00 8.01960182e+00 8.02122211e+00 8.02251244e+00 8.02448654e+00 8.02649879e+00 8.02765465e+00 8.02938652e+00 8.03060246e+00 8.03279495e+00 8.03403378e+00 8.03543186e+00 8.03664398e+00 8.03819752e+00 8.03964710e+00 8.04169178e+00 8.04316616e+00 8.04533768e+00 8.04641056e+00 8.04782867e+00 8.05031395e+00 8.05186462e+00 8.05333328e+00 8.05509949e+00 8.05627632e+00 8.05858707e+00 8.05967808e+00 8.06143856e+00 8.06268120e+00 8.06432915e+00 8.06552887e+00 8.06698418e+00 8.06850052e+00 8.06988049e+00 8.07155514e+00 8.07320404e+00 8.07434559e+00 8.07573605e+00 8.07769299e+00 8.07908821e+00 8.08070850e+00 8.08260536e+00 8.08386421e+00 8.08503246e+00 8.08596325e+00 8.08746815e+00 8.08918953e+00 8.09104824e+00 8.09239197e+00 8.09417820e+00 8.09545994e+00 8.09662724e+00 8.09814548e+00 8.09964371e+00 8.10108566e+00 8.10274601e+00 8.10471916e+00 8.10618687e+00 8.10707474e+00 8.10877419e+00 8.11049271e+00 8.11198235e+00 8.11336517e+00 8.11453342e+00 8.11578465e+00 8.11736774e+00 8.11850262e+00 8.12047863e+00 8.12224197e+00 8.12384033e+00 8.12535667e+00 8.12718487e+00 8.12879944e+00 8.12984657e+00 8.13074970e+00 8.13218880e+00 8.13348007e+00 8.13545799e+00 8.13638496e+00 8.13756561e+00 8.13871574e+00 8.14004230e+00 8.14154053e+00 8.14286804e+00 8.14445877e+00 8.14593601e+00 8.14742565e+00 8.14832878e+00 8.14940166e+00 8.15035057e+00 8.15241337e+00 8.15387630e+00 8.15550900e+00 8.15722084e+00 8.15858841e+00 8.16034126e+00 8.16144848e+00 8.16224575e+00 8.16339397e+00 8.16466808e+00 8.16599560e+00 8.16761303e+00 8.16911316e+00 8.17042637e+00 8.17209244e+00 8.17385197e+00 8.17462444e+00 8.17548180e+00 8.17683125e+00 8.17830563e+00 8.17977715e+00 8.18100739e+00 8.18265820e+00 8.18447208e+00 8.18528748e+00 8.18703938e+00 8.18882465e+00 8.19017029e+00 8.19169140e+00 8.19297791e+00 8.19417381e+00 8.19564819e+00 8.19678974e+00 8.19815159e+00 8.19954586e+00 8.20058537e+00 8.20215797e+00 8.20339203e+00 8.20485306e+00 8.20595741e+00 8.20710754e+00 8.20812798e+00 8.20961189e+00 8.21070290e+00 8.21186638e+00 8.21317387e+00 8.21436119e+00 8.21545792e+00 8.21682930e+00 8.21848011e+00 8.21994305e+00 8.22080421e+00 8.22185516e+00 8.22322083e+00 8.22468472e+00 8.22563744e+00 8.22696400e+00 8.22814274e+00 8.22973251e+00 8.23136711e+00 8.23286915e+00 8.23421764e+00 8.23592377e+00 8.23680782e+00 8.23800945e+00 8.23944473e+00 8.24087048e+00 8.24241352e+00 8.24339008e+00 8.24476719e+00 8.24599361e+00 8.24723148e+00 8.24881363e+00 8.24998856e+00 8.25101948e+00 8.25245667e+00 8.25364304e+00 8.25525856e+00 8.25641060e+00 8.25757504e+00 8.25897312e+00 8.25991821e+00 8.26091576e+00 8.26218987e+00 8.26350307e+00 8.26496887e+00 8.26718807e+00 8.26840973e+00 8.26982689e+00 8.27071953e+00 8.27255917e+00 8.27448273e+00 8.27574730e+00 8.27717781e+00 8.27869511e+00 8.27968502e+00 8.28120995e+00 8.28248978e+00 8.28387737e+00 8.28509521e+00 8.28603268e+00 8.28757763e+00 8.28862762e+00 8.28962708e+00 8.29068089e+00 8.29195023e+00 8.29314137e+00 8.29453754e+00 8.29620361e+00 8.29762650e+00 8.29889679e+00 8.29984188e+00 8.30116272e+00 8.30215549e+00 8.30328655e+00 8.30463505e+00 8.30566978e+00 8.30686188e+00 8.30773830e+00 8.30918121e+00 8.31046867e+00 8.31200790e+00 8.31316471e+00 8.31430626e+00 8.31578350e+00 8.31700611e+00 8.31814671e+00 8.31931114e+00 8.32047367e+00 8.32120800e+00 8.32276535e+00 8.32418728e+00 8.32649040e+00 8.32749939e+00 8.32820702e+00 8.32973576e+00 8.33146667e+00 8.33283329e+00 8.33383751e+00 8.33537674e+00 8.33703136e+00 8.33796406e+00 8.33896828e+00 8.33978748e+00 8.34094810e+00 8.34209061e+00 8.34306717e+00 8.34468555e+00 8.34561062e+00 8.34657288e+00 8.34851551e+00 8.34928131e+00 8.35036755e+00 8.35181141e+00 8.35281372e+00 8.35435867e+00 8.35562229e+00 8.35718632e+00 8.35875797e+00 8.36004353e+00 8.36197090e+00 8.36309147e+00 8.36422443e+00 8.36563015e+00 8.36686420e+00 8.36780071e+00 8.36904144e+00 8.37021637e+00 8.37133980e+00 8.37248135e+00 8.37392235e+00 8.37502480e+00 8.37614346e+00 8.37724304e+00 8.37830162e+00 8.37986279e+00 8.38119888e+00 8.38242435e+00 8.38385582e+00 8.38516712e+00 8.38628387e+00 8.38728905e+00 8.38807774e+00 8.38938332e+00 8.39064026e+00 8.39204979e+00 8.39306068e+00 8.39427280e+00 8.39484787e+00 8.39586639e+00 8.39749908e+00 8.39899540e+00 8.40037251e+00 8.40157223e+00 8.40261364e+00 8.40362549e+00 8.40508747e+00 8.40642357e+00 8.40746212e+00 8.40867615e+00 8.40987110e+00 8.41091251e+00 8.41227627e+00 8.41318989e+00 8.41450882e+00 8.41514874e+00 8.41757011e+00 8.41896248e+00 8.41965485e+00 8.42048836e+00 8.42179203e+00 8.42286777e+00 8.42441559e+00 8.42557621e+00 8.42669010e+00 8.42764091e+00 8.42888165e+00 8.43027496e+00 8.43101120e+00 8.43224525e+00 8.43346596e+00 8.43503189e+00 8.43663502e+00 8.43780327e+00 8.43907261e+00 8.44041538e+00 8.44167519e+00 8.44307709e+00 8.44472122e+00 8.44609547e+00 8.44706059e+00 8.44781590e+00 8.44954967e+00 8.45044708e+00 8.45213223e+00 8.45339298e+00 8.45417309e+00 8.45495129e+00 8.45614719e+00 8.45741653e+00 8.45867157e+00 8.45983696e+00 8.46096802e+00 8.46212292e+00 8.46339035e+00 8.46421337e+00 8.46558952e+00 8.46672630e+00 8.46848679e+00 8.46956730e+00 8.47055340e+00 8.47171211e+00 8.47274208e+00 8.47393894e+00 8.47536659e+00 8.47634506e+00 8.47725105e+00 8.47842884e+00 8.47960854e+00 8.48078632e+00 8.48160744e+00 8.48278999e+00 8.48404217e+00 8.48488235e+00 8.48626328e+00 8.48703480e+00 8.48807335e+00 8.48956108e+00 8.49082184e+00 8.49255371e+00 8.49348259e+00 8.49484348e+00 8.49564266e+00 8.49690151e+00 8.49811840e+00 8.49979687e+00 8.50109673e+00 8.50210285e+00 8.50324154e+00 8.50423622e+00 8.50522041e+00 8.50619411e+00 8.50714684e+00 8.50851917e+00 8.50994015e+00 8.51131535e+00 8.51244545e+00 8.51322651e+00 8.51436710e+00 8.51563263e+00 8.51671600e+00 8.51743317e+00 8.51824951e+00 8.51938438e+00 8.52013397e+00 8.52106476e+00 8.52236366e+00 8.52346611e+00 8.52440739e+00 8.52570820e+00 8.52681828e+00 8.52775002e+00 8.52877331e+00 8.52957916e+00 8.53074837e+00 8.53172588e+00 8.53283882e+00 8.53373241e+00 8.53557205e+00 8.53641033e+00 8.53728390e+00 8.53839874e+00 8.53927517e+00 8.54007721e+00 8.54175949e+00 8.54278755e+00 8.54389286e+00 8.54478741e+00 8.54583931e+00 8.54690647e+00 8.54812622e+00 8.54925632e+00 8.55045509e+00 8.55174446e+00 8.55280685e+00 8.55419827e+00 8.55539989e+00 8.55659580e+00 8.55707169e+00 8.55825615e+00 8.55939770e+00 8.56037521e+00 8.56219101e+00 8.56317329e+00 8.56409168e+00 8.56514168e+00 8.56659508e+00 8.56801796e+00 8.56922245e+00 8.57031822e+00 8.57172108e+00 8.57251263e+00 8.57377148e+00 8.57475281e+00 8.57587051e+00 8.57706642e+00 8.57791328e+00 8.57940769e+00 8.58041573e+00 8.58138275e+00 8.58243370e+00 8.58354855e+00 8.58423233e+00 8.58532906e+00 8.58624268e+00 8.58738136e+00 8.58829308e+00 8.58985233e+00 8.59091377e+00 8.59192562e+00 8.59312344e+00 8.59405136e+00 8.59500694e+00 8.59637165e+00 8.59768009e+00 8.59843731e+00 8.59944534e+00 8.60080147e+00 8.60216427e+00 8.60371780e+00 8.60507298e+00 8.60577202e+00 8.60714340e+00 8.60851574e+00 8.60993481e+00 8.61078358e+00 8.61174107e+00 8.61269379e+00 8.61394501e+00 8.61516762e+00 8.61613846e+00 8.61699677e+00 8.61818600e+00 8.61941624e+00 8.62037659e+00 8.62152195e+00 8.62224388e+00 8.62403774e+00 8.62528229e+00 8.62600231e+00 8.62706184e+00 8.62801933e+00 8.62896061e+00 8.62967396e+00 8.63087463e+00 8.63185120e+00 8.63303089e+00 8.63412380e+00 8.63517857e+00 8.63631344e+00 8.63727951e+00 8.63832664e+00 8.63984680e+00 8.64081478e+00 8.64172363e+00 8.64264774e+00 8.64379883e+00 8.64484310e+00 8.64585304e+00 8.64680386e+00 8.64782906e+00 8.64876652e+00 8.64979935e+00 8.65097046e+00 8.65205956e+00 8.65321255e+00 8.65458012e+00 8.65542221e+00 8.65657997e+00 8.65746498e+00 8.65884590e+00 8.65983391e+00 8.66115475e+00 8.66207123e+00 8.66315079e+00 8.66406345e+00 8.66548634e+00 8.66658592e+00 8.66736412e+00 8.66833973e+00 8.66934490e+00 8.67086315e+00 8.67191029e+00 8.67279053e+00 8.67358589e+00 8.67447567e+00 8.67570496e+00 8.67710876e+00 8.67845535e+00 8.67941475e+00 8.68039703e+00 8.68143368e+00 8.68300438e+00 8.68409538e+00 8.68529320e+00 8.68642616e+00 8.68766022e+00 8.68861771e+00 8.68951511e+00 8.69092655e+00 8.69209385e+00 8.69305229e+00 8.69402504e+00 8.69519520e+00 8.69632053e+00 8.69725895e+00 8.69845009e+00 8.69951344e+00 8.70068169e+00 8.70206451e+00 8.70294285e+00 8.70440865e+00 8.70538044e+00 8.70610428e+00 8.70719528e+00 8.70822430e+00 8.70900917e+00 8.70976162e+00 8.71072102e+00 8.71187496e+00 8.71304131e+00 8.71388340e+00 8.71493053e+00 8.71569252e+00 8.71640873e+00 8.71736908e+00 8.71843147e+00 8.72008991e+00 8.72145748e+00 8.72275448e+00 8.72387695e+00 8.72476006e+00 8.72547340e+00 8.72628403e+00 8.72717762e+00 8.72794056e+00 8.72895908e+00 8.72988224e+00 8.73080635e+00 8.73230267e+00 8.73301601e+00 8.73428059e+00 8.73526382e+00 8.73645782e+00 8.73808479e+00 8.73870277e+00 8.73944569e+00 8.74047089e+00 8.74145508e+00 8.74260235e+00 8.74355698e+00 8.74478722e+00 8.74561596e+00 8.74652481e+00 8.74823856e+00 8.74926376e+00 8.75043392e+00 8.75131893e+00 8.75272655e+00 8.75359821e+00 8.75432110e+00 8.75600052e+00 8.75715446e+00 8.75826645e+00 8.75948620e+00 8.76074505e+00 8.76192951e+00 8.76319218e+00 8.76427269e+00 8.76535606e+00 8.76664162e+00 8.76801109e+00 8.76967049e+00 8.77050018e+00 8.77138138e+00 8.77197647e+00 8.77319336e+00 8.77406216e+00 8.77549648e+00 8.77674389e+00 8.77774429e+00 8.77888393e+00 8.77969170e+00 8.78086662e+00 8.78163242e+00 8.78329659e+00 8.78426075e+00 8.78513527e+00 8.78642464e+00 8.78746223e+00 8.78843689e+00 8.78942204e+00 8.79063129e+00 8.79162979e+00 8.79311466e+00 8.79409695e+00 8.79510307e+00 8.79642010e+00 8.79789639e+00 8.79916763e+00 8.80056095e+00 8.80179691e+00 8.80262280e+00 8.80371475e+00 8.80478096e+00 8.80587387e+00 8.80644035e+00 8.80767727e+00 8.80909348e+00 8.81024456e+00 8.81114006e+00 8.81259823e+00 8.81376076e+00 8.81473351e+00 8.81619358e+00 8.81736755e+00 8.81856251e+00 8.81980324e+00 8.82109070e+00 8.82220459e+00 8.82379913e+00 8.82534504e+00 8.82630157e+00 8.82710075e+00 8.82826805e+00 8.82944870e+00 8.83054543e+00 8.83149338e+00 8.83270931e+00 8.83335400e+00 8.83431244e+00 8.83542156e+00 8.83620071e+00 8.83700085e+00 8.83814907e+00 8.83920860e+00 8.84046555e+00 8.84146118e+00 8.84214878e+00 8.84343052e+00 8.84419823e+00 8.84503269e+00 8.84602642e+00 8.84739494e+00 8.84827518e+00 8.84972668e+00 8.85028172e+00 8.85182095e+00 8.85338497e+00 8.85465431e+00 8.85533142e+00 8.85678196e+00 8.85809898e+00 8.85889721e+00 8.85994053e+00 8.86122799e+00 8.86211872e+00 8.86383057e+00 8.86452293e+00 8.86601925e+00 8.86720753e+00 8.86786079e+00 8.86914635e+00 8.87054443e+00 8.87164116e+00 8.87259769e+00 8.87387562e+00 8.87486267e+00 8.87635040e+00 8.87736511e+00 8.87816429e+00 8.87894535e+00 8.88009262e+00 8.88103390e+00 8.88224792e+00 8.88292980e+00 8.88407040e+00 8.88505554e+00 8.88618183e+00 8.88754082e+00 8.88809872e+00 8.88901806e+00 8.88980293e+00 8.89115715e+00 8.89225864e+00 8.89370728e+00 8.89501667e+00 8.89702320e+00 8.89787674e+00 8.89915562e+00 8.90035820e+00 8.90115452e+00 8.90206146e+00 8.90333843e+00 8.90429592e+00 8.90562057e+00 8.90656948e+00 8.90765190e+00 8.90892410e+00 8.91092777e+00 8.91193962e+00 8.91327667e+00 8.91446686e+00 8.91595745e+00 8.91689014e+00 8.91793633e+00 8.91899967e+00 8.92024422e+00 8.92142487e+00 8.92255211e+00 8.92355633e+00 8.92434025e+00 8.92569065e+00 8.92650318e+00 8.92751980e+00 8.92881298e+00 8.93006325e+00 8.93128490e+00 8.93238640e+00 8.93344116e+00 8.93444729e+00 8.93578434e+00 8.93658257e+00 8.93759823e+00 8.93953228e+00 8.94091320e+00 8.94186974e+00 8.94244099e+00 8.94315147e+00 8.94467354e+00 8.94540596e+00 8.94710732e+00 8.94848442e+00 8.95005608e+00 8.95106602e+00 8.95250130e+00 8.95340919e+00 8.95496368e+00 8.95649815e+00 8.95752716e+00 8.95832062e+00 8.95925236e+00 8.96005535e+00 8.96157455e+00 8.96308517e+00 8.96429157e+00 8.96627617e+00 8.96729660e+00 8.96874046e+00 8.96980667e+00 8.97093105e+00 8.97212982e+00 8.97381401e+00 8.97472095e+00 8.97631264e+00 8.97743797e+00 8.97891235e+00 8.97966003e+00 8.98116493e+00 8.98225784e+00 8.98398209e+00 8.98477268e+00 8.98569584e+00 8.98681068e+00 8.98778915e+00 8.98939610e+00 8.99048424e+00 8.99188042e+00 8.99259377e+00 8.99374199e+00 8.99469090e+00 8.99665737e+00 8.99785805e+00 8.99907589e+00 9.00019932e+00 9.00149918e+00 9.00261879e+00 9.00413322e+00 9.00503254e+00 9.00652885e+00 9.00747108e+00 9.00869465e+00 9.00988865e+00 9.01077747e+00 9.01191235e+00 9.01247501e+00 9.01369762e+00 9.01466179e+00 9.01638317e+00 9.01789284e+00 9.01889610e+00 9.01992893e+00 9.02145672e+00 9.02232742e+00 9.02333832e+00 9.02432728e+00 9.02588081e+00 9.02758121e+00 9.02859592e+00 9.02973938e+00 9.03077602e+00 9.03159332e+00 9.03323364e+00 9.03481865e+00 9.03560829e+00 9.03698349e+00 9.03821850e+00 9.03953266e+00 9.04076672e+00 9.04199123e+00 9.04293823e+00 9.04390430e+00 9.04526138e+00 9.04639816e+00 9.04745674e+00 9.04870892e+00 9.04978180e+00 9.05079651e+00 9.05212879e+00 9.05342865e+00 9.05499744e+00 9.05582333e+00 9.05675220e+00 9.05778790e+00 9.05933666e+00 9.06041050e+00 9.06151676e+00 9.06247425e+00 9.06416988e+00 9.06487656e+00 9.06609344e+00 9.06768322e+00 9.06881046e+00 9.07005882e+00 9.07130909e+00 9.07238579e+00 9.07344723e+00 9.07443714e+00 9.07611084e+00 9.07732773e+00 9.07850933e+00 9.07957554e+00 9.08089161e+00 9.08229828e+00 9.08361530e+00 9.08506489e+00 9.08621502e+00 9.08770657e+00 9.08899689e+00 9.08995914e+00 9.09153652e+00 9.09260941e+00 9.09426117e+00 9.09544182e+00 9.09691715e+00 9.09830379e+00 9.09921455e+00 9.10067368e+00 9.10169029e+00 9.10262489e+00 9.10380363e+00 9.10470963e+00 9.10590935e+00 9.10701942e+00 9.10914993e+00 9.11102867e+00 9.11203861e+00 9.11322117e+00 9.11465454e+00 9.11576462e+00 9.11744785e+00 9.11854267e+00 9.12057877e+00 9.12185860e+00 9.12297058e+00 9.12455654e+00 9.12589550e+00 9.12736034e+00 9.12865257e+00 9.12978077e+00 9.13081932e+00 9.13248730e+00 9.13377571e+00 9.13553143e+00 9.13658142e+00 9.13761902e+00 9.13924313e+00 9.14033985e+00 9.14127445e+00 9.14251423e+00 9.14361286e+00 9.14526558e+00 9.14683342e+00 9.14833260e+00 9.14952660e+00 9.15082645e+00 9.15238094e+00 9.15313816e+00 9.15451241e+00 9.15584660e+00 9.15750408e+00 9.15871716e+00 9.15998077e+00 9.16122341e+00 9.16231918e+00 9.16373348e+00 9.16494465e+00 9.16608047e+00 9.16726875e+00 9.16852760e+00 9.16918182e+00 9.17012215e+00 9.17126083e+00 9.17239189e+00 9.17348862e+00 9.17462921e+00 9.17578125e+00 9.17720509e+00 9.17870331e+00 9.18049908e+00 9.18205643e+00 9.18300343e+00 9.18453407e+00 9.18591881e+00 9.18772030e+00 9.18954468e+00 9.19065475e+00 9.19193554e+00 9.19327545e+00 9.19429398e+00 9.19587040e+00 9.19697094e+00 9.19796944e+00 9.19940948e+00 9.20018101e+00 9.20137405e+00 9.20311546e+00 9.20450115e+00 9.20554638e+00 9.20667076e+00 9.20774555e+00 9.20883846e+00 9.21007442e+00 9.21144485e+00 9.21398544e+00 9.21499920e+00 9.21618366e+00 9.21802807e+00 9.22040176e+00 9.22178173e+00 9.22352314e+00 9.22469139e+00 9.22631741e+00 9.22765923e+00 9.22877121e+00 9.23066044e+00 9.23167706e+00 9.23281860e+00 9.23476315e+00 9.23596096e+00 9.23783875e+00 9.23937798e+00 9.24123192e+00 9.24335289e+00 9.24423885e+00 9.24579430e+00 9.24692249e+00 9.24771500e+00 9.24966049e+00 9.25236130e+00 9.25359726e+00 9.25567532e+00 9.25717640e+00 9.25833797e+00 9.26009750e+00 9.26132107e+00 9.26223373e+00 9.26349735e+00 9.26499081e+00 9.26710987e+00 9.26863480e+00 9.26983643e+00 9.27186584e+00 9.27339649e+00 9.27445412e+00 9.27608490e+00 9.27756691e+00 9.27862740e+00 9.28093243e+00 9.28290844e+00 9.28418636e+00 9.28502274e+00 9.28641033e+00 9.28778648e+00 9.28913403e+00 9.29045677e+00 9.29256153e+00 9.29394245e+00 9.29530716e+00 9.29678154e+00 9.29864883e+00 9.29977226e+00 9.30127716e+00 9.30259132e+00 9.30361462e+00 9.30445862e+00 9.30637360e+00 9.30814934e+00 9.31036186e+00 9.31203365e+00 9.31318951e+00 9.31492329e+00 9.31632519e+00 9.31831169e+00 9.31964493e+00 9.32062149e+00 9.32175541e+00 9.32297707e+00 9.32406807e+00 9.32595634e+00 9.32781506e+00 9.33041763e+00 9.33179665e+00 9.33330441e+00 9.33468533e+00 9.33542442e+00 9.33683491e+00 9.33828163e+00 9.33983994e+00 9.34124756e+00 9.34281921e+00 9.34436512e+00 9.34631062e+00 9.34841633e+00 9.34972000e+00 9.35146236e+00 9.35328102e+00 9.35524654e+00 9.35688210e+00 9.35835457e+00 9.36064816e+00 9.36152935e+00 9.36268711e+00 9.36409664e+00 9.36581898e+00 9.36761951e+00 9.36890125e+00 9.37024784e+00 9.37150478e+00 9.37326813e+00 9.37509727e+00 9.37699604e+00 9.37836838e+00 9.38005257e+00 9.38161659e+00 9.38322926e+00 9.38500690e+00 9.38643360e+00 9.38806534e+00 9.39026451e+00 9.39211559e+00 9.39379978e+00 9.39538956e+00 9.39734554e+00 9.39847946e+00 9.39972210e+00 9.40208817e+00 9.40400124e+00 9.40624809e+00 9.40863228e+00 9.41074944e+00 9.41220856e+00 9.41326141e+00 9.41440010e+00 9.41556072e+00 9.41717434e+00 9.41936588e+00 9.42101288e+00 9.42238522e+00 9.42401123e+00 9.42588520e+00 9.42767715e+00 9.42892742e+00 9.43078709e+00 9.43268108e+00 9.43393517e+00 9.43522072e+00 9.43753338e+00 9.43948174e+00 9.44099522e+00 9.44246292e+00 9.44445801e+00 9.44596195e+00 9.44801998e+00 9.44950294e+00 9.45138836e+00 9.45246029e+00 9.45396996e+00 9.45569801e+00 9.45809460e+00 9.46020603e+00 9.46141243e+00 9.46284866e+00 9.46438694e+00 9.46545696e+00 9.46674633e+00 9.46814823e+00 9.47018147e+00 9.47230911e+00 9.47375965e+00 9.47638798e+00 9.47843742e+00 9.48048019e+00 9.48345566e+00 9.48500919e+00 9.48720074e+00 9.48917103e+00 9.49100971e+00 9.49268818e+00 9.49453735e+00 9.49625397e+00 9.49796009e+00 9.49924088e+00 9.50070667e+00 9.50177288e+00 9.50489807e+00 9.50623894e+00 9.50863075e+00 9.51104546e+00 9.51285076e+00 9.51532078e+00 9.51696396e+00 9.51792908e+00 9.51958847e+00 9.52109241e+00 9.52300644e+00 9.52502346e+00 9.52708340e+00 9.52870941e+00 9.53137207e+00 9.53281403e+00 9.53448200e+00 9.53595161e+00 9.53857613e+00 9.54019165e+00 9.54144192e+00 9.54282856e+00 9.54504967e+00 9.54780674e+00 9.55014610e+00 9.55193615e+00 9.55451679e+00 9.55623055e+00 9.55857086e+00 9.56076527e+00 9.56273079e+00 9.56445599e+00 9.56638050e+00 9.56811714e+00 9.57019901e+00 9.57288933e+00 9.57413769e+00 9.57650471e+00 9.57903576e+00 9.58159542e+00 9.58448219e+00 9.58695889e+00 9.58992100e+00 9.59242058e+00 9.59443855e+00 9.59648132e+00 9.59881973e+00 9.60134792e+00 9.60405540e+00 9.60667038e+00 9.60848427e+00 9.61150265e+00 9.61337090e+00 9.61530781e+00 9.61676025e+00 9.61881542e+00 9.62071419e+00 9.62356472e+00 9.62520790e+00 9.62739372e+00 9.62913036e+00 9.63223362e+00 9.63328838e+00 9.63641357e+00 9.63833714e+00 9.64085007e+00 9.64311123e+00 9.64458370e+00 9.64605236e+00 9.64951897e+00 9.65134048e+00 9.65397930e+00 9.65680408e+00 9.65956593e+00 9.66184235e+00 9.66434956e+00 9.66618633e+00 9.66799831e+00 9.67113209e+00 9.67430019e+00 9.67666912e+00 9.67864704e+00 9.68083572e+00 9.68409824e+00 9.68669319e+00 9.68921089e+00 9.69154930e+00 9.69413090e+00 9.69741631e+00 9.69947910e+00 9.70185852e+00 9.70373344e+00 9.70543575e+00 9.70768642e+00 9.70964336e+00 9.71301556e+00 9.71497250e+00 9.71712971e+00 9.72060013e+00 9.72273445e+00 9.72592831e+00 9.72864056e+00 9.73114395e+00 9.73247910e+00 9.73547268e+00 9.73753738e+00 9.73943424e+00 9.74258041e+00 9.74597073e+00 9.74757385e+00 9.74963093e+00 9.75180435e+00 9.75465679e+00 9.75854015e+00 9.76150703e+00 9.76343632e+00 9.76740360e+00 9.77076912e+00 9.77341843e+00 9.77548409e+00 9.77789688e+00 9.78024292e+00 9.78383160e+00 9.78586006e+00 9.78873920e+00 9.79122353e+00 9.79391193e+00 9.79716015e+00 9.80076313e+00 9.80299759e+00 9.80671978e+00 9.81040859e+00 9.81337070e+00 9.81624508e+00 9.81867409e+00 9.82159328e+00 9.82453156e+00 9.82670784e+00 9.82943821e+00 9.83325958e+00 9.83541012e+00 9.83859634e+00 9.84064865e+00 9.84314537e+00 9.84581661e+00 9.84968662e+00 9.85358143e+00 9.85642910e+00 9.85918045e+00 9.86164474e+00 9.86519432e+00 9.86763859e+00 9.87064743e+00 9.87314320e+00 9.87569523e+00 9.87932682e+00 9.88123703e+00 9.88378239e+00 9.88576317e+00 9.89014053e+00 9.89298630e+00 9.89539337e+00 9.89887428e+00 9.90160370e+00 9.90513134e+00 9.90883064e+00 9.91099262e+00 9.91399479e+00 9.91626167e+00 9.91976070e+00 9.92328167e+00 9.92687511e+00 9.93072224e+00 9.93303108e+00 9.93680668e+00 9.94007874e+00 9.94265366e+00 9.94607735e+00 9.94964600e+00 9.95461845e+00 9.95874119e+00 9.96246815e+00 9.96670151e+00 9.96967697e+00 9.97365665e+00 9.97644806e+00 9.97978973e+00 9.98326683e+00 9.98621655e+00 9.99069118e+00 9.99363804e+00 9.99684811e+00 9.99903870e+00 1.00012493e+01 1.00037060e+01 1.00067844e+01 1.00106459e+01 1.00144005e+01 1.00170994e+01 1.00213289e+01 1.00260782e+01 1.00305691e+01 1.00336418e+01 1.00368910e+01 1.00398273e+01 1.00439510e+01 1.00478153e+01 1.00511026e+01 1.00540657e+01 1.00570412e+01 1.00616016e+01 1.00672913e+01 1.00712719e+01 1.00756969e+01 1.00791750e+01 1.00826702e+01 1.00865650e+01 1.00899162e+01 1.00934954e+01 1.00981588e+01 1.01025047e+01 1.01073856e+01 1.01122637e+01 1.01154881e+01 1.01200914e+01 1.01238623e+01 1.01265602e+01 1.01298838e+01 1.01335611e+01 1.01378231e+01 1.01419687e+01 1.01448584e+01 1.01484222e+01 1.01537075e+01 1.01590338e+01 1.01642656e+01 1.01681919e+01 1.01729221e+01 1.01783590e+01 1.01827974e+01 1.01871033e+01 1.01907873e+01 1.01959743e+01 1.02023354e+01 1.02067337e+01 1.02113466e+01 1.02166014e+01 1.02211018e+01 1.02261429e+01 1.02307272e+01 1.02342072e+01 1.02381039e+01 1.02420282e+01 1.02497749e+01 1.02559090e+01 1.02621841e+01 1.02664127e+01 1.02734547e+01 1.02785549e+01 1.02833138e+01 1.02883387e+01 1.02930326e+01 1.02973623e+01 1.03021374e+01 1.03066721e+01 1.03115215e+01 1.03173018e+01 1.03253517e+01 1.03289299e+01 1.03341541e+01 1.03404055e+01 1.03464031e+01 1.03499136e+01 1.03557377e+01 1.03608503e+01 1.03687353e+01 1.03751011e+01 1.03815498e+01 1.03842831e+01 1.03892832e+01 1.03939438e+01 1.03987474e+01 1.04028864e+01 1.04096651e+01 1.04164429e+01 1.04242659e+01 1.04290419e+01 1.04333897e+01 1.04396038e+01 1.04441328e+01 1.04495850e+01 1.04598799e+01 1.04646988e+01 1.04711132e+01 1.04781437e+01 1.04843626e+01 1.04904318e+01 1.04987249e+01 1.05050745e+01 1.05136976e+01 1.05204706e+01 1.05274315e+01 1.05318737e+01 1.05367727e+01 1.05436869e+01 1.05507822e+01 1.05596046e+01 1.05654154e+01 1.05726604e+01 1.05811024e+01 1.05871620e+01 1.05931950e+01 1.06024637e+01 1.06120844e+01 1.06186256e+01 1.06280508e+01 1.06348906e+01 1.06413116e+01 1.06533356e+01 1.06578512e+01 1.06629095e+01 1.06765585e+01 1.06835976e+01 1.06919374e+01 1.07036514e+01 1.07103186e+01 1.07199078e+01 1.07295809e+01 1.07367039e+01 1.07470913e+01 1.07600183e+01 1.07704821e+01 1.07755709e+01 1.07812223e+01 1.07923288e+01 1.08019209e+01 1.08092451e+01 1.08168764e+01 1.08278275e+01 1.08363400e+01 1.08478794e+01 1.08589458e+01 1.08717031e+01 1.08808680e+01 1.08888702e+01 1.08979664e+01 1.09070673e+01 1.09194584e+01 1.09298611e+01 1.09411221e+01 1.09507523e+01 1.09616203e+01 1.09731398e+01 1.09884491e+01 1.09996357e+01 1.10182781e+01 1.10309668e+01 1.10442839e+01 1.10562763e+01 1.10701990e+01 1.10852127e+01 1.10941515e+01 1.11036644e+01 1.11173010e+01 1.11318293e+01 1.11476393e+01 1.11615810e+01 1.11786232e+01 1.11904039e+01 1.12101707e+01 1.12263441e+01 1.12427454e+01 1.12634745e+01 1.12786789e+01 1.12980824e+01 1.13148184e+01 1.13356829e+01 1.13543329e+01 1.13713179e+01 1.13927202e+01 1.14143324e+01 1.14435530e+01 1.14661112e+01 1.14882421e+01 1.15129976e+01 1.15378294e+01 1.15658388e+01 1.15845547e+01 1.16035891e+01 1.16292381e+01 1.16486759e+01 1.16674423e+01 1.16910324e+01 1.17148352e+01 1.17500038e+01 1.17753077e+01 1.18154554e+01 1.18516245e+01 1.18937712e+01 1.19311981e+01 1.19887962e+01 1.20296612e+01 1.20715380e+01 1.21337776e+01 1.22096405e+01 1.22776327e+01 1.23304234e+01 1.24025002e+01 1.24862642e+01 1.26062689e+01 1.27314606e+01 1.28527451e+01 1.29619951e+01 1.31359768e+01 1.44389791e+01 
            </HistogramBinning>
          </PDF>
        </CumulativePDF_cls0>
        <CumulativePDF_cls1>
          <PDF Name="GaussTransform var0 cls1" MinNSmooth="0" MaxNSmooth="0" InterpolMethod="1" KDE_type="0" KDE_iter="1" KDE_border="1" KDE_finefactor="0.0000000000000000e+00">
            <Histogram Name="Cumulative_Var0_cls1_original" NBins="1983" XMin="5.8369188308715820e+00" XMax="1.4469573974609375e+01" HasEquidistantBins="0">
