<?xml version="1.0"?>
<MethodSetup Method="BDT::2012_BDT_1">
  <GeneralInfo>
    <Info name="TMVA Release" value="4.2.0 [262656]"/>
    <Info name="ROOT Release" value="5.34/29 [336413]"/>
    <Info name="Creator" value="matt"/>
    <Info name="Date" value="Fri Apr 17 17:44:52 2015"/>
    <Info name="Host" value="Darwin pc7.home 14.1.0 Darwin Kernel Version 14.1.0: Thu Feb 26 19:26:47 PST 2015; root:xnu-2782.10.73~1/RELEASE_X86_64 x86_64"/>
    <Info name="Dir" value="/Users/matt/Scratch/lhcb/Bs2KstKst"/>
    <Info name="Training events" value="61278"/>
    <Info name="TrainingTime" value="2.44578736e+02"/>
    <Info name="AnalysisType" value="Classification"/>
  </GeneralInfo>
  <Options>
    <Option name="V" modified="Yes">False</Option>
    <Option name="VerbosityLevel" modified="No">Default</Option>
    <Option name="VarTransform" modified="Yes">D,G</Option>
    <Option name="H" modified="Yes">False</Option>
    <Option name="CreateMVAPdfs" modified="No">False</Option>
    <Option name="IgnoreNegWeightsInTraining" modified="No">False</Option>
    <Option name="NTrees" modified="Yes">400</Option>
    <Option name="MaxDepth" modified="Yes">3</Option>
    <Option name="MinNodeSize" modified="Yes">5</Option>
    <Option name="nCuts" modified="Yes">-1</Option>
    <Option name="BoostType" modified="Yes">AdaBoost</Option>
    <Option name="AdaBoostR2Loss" modified="No">quadratic</Option>
    <Option name="UseBaggedBoost" modified="Yes">True</Option>
    <Option name="Shrinkage" modified="No">1.000000e+00</Option>
    <Option name="AdaBoostBeta" modified="Yes">5.000000e-01</Option>
    <Option name="UseRandomisedTrees" modified="No">False</Option>
    <Option name="UseNvars" modified="No">4</Option>
    <Option name="UsePoissonNvars" modified="No">True</Option>
    <Option name="BaggedSampleFraction" modified="Yes">5.000000e-01</Option>
    <Option name="UseYesNoLeaf" modified="No">True</Option>
    <Option name="NegWeightTreatment" modified="Yes">ignorenegweightsintraining</Option>
    <Option name="Css" modified="No">1.000000e+00</Option>
    <Option name="Cts_sb" modified="No">1.000000e+00</Option>
    <Option name="Ctb_ss" modified="No">1.000000e+00</Option>
    <Option name="Cbb" modified="No">1.000000e+00</Option>
    <Option name="NodePurityLimit" modified="No">5.000000e-01</Option>
    <Option name="SeparationType" modified="Yes">giniindex</Option>
    <Option name="DoBoostMonitor" modified="No">False</Option>
    <Option name="UseFisherCuts" modified="No">False</Option>
    <Option name="MinLinCorrForFisher" modified="No">8.000000e-01</Option>
    <Option name="UseExclusiveVars" modified="No">False</Option>
    <Option name="DoPreselection" modified="No">False</Option>
    <Option name="SigToBkgFraction" modified="No">1.000000e+00</Option>
    <Option name="PruneMethod" modified="No">nopruning</Option>
    <Option name="PruneStrength" modified="No">0.000000e+00</Option>
    <Option name="PruningValFraction" modified="No">5.000000e-01</Option>
    <Option name="nEventsMin" modified="No">0</Option>
    <Option name="UseBaggedGrad" modified="No">False</Option>
    <Option name="GradBaggingFraction" modified="No">5.000000e-01</Option>
    <Option name="UseNTrainEvents" modified="No">0</Option>
    <Option name="NNodesMax" modified="No">0</Option>
  </Options>
  <Variables NVar="14">
    <Variable VarIndex="0" Expression="ln_B_s0_PT" Label="ln_B_s0_PT" Title="ln_B_s0_PT" Unit="" Internal="ln_B_s0_PT" Type="F" Min="2.17526340e+00" Max="1.11314001e+01"/>
    <Variable VarIndex="1" Expression="ln_Kst_PT" Label="ln_Kst_PT" Title="ln_Kst_PT" Unit="" Internal="ln_Kst_PT" Type="F" Min="6.80321503e+00" Max="1.09307518e+01"/>
    <Variable VarIndex="2" Expression="ln_Kstb_PT" Label="ln_Kstb_PT" Title="ln_Kstb_PT" Unit="" Internal="ln_Kstb_PT" Type="F" Min="6.80257416e+00" Max="1.09245358e+01"/>
    <Variable VarIndex="3" Expression="ln_max_track_PT" Label="ln_max_track_PT" Title="ln_max_track_PT" Unit="" Internal="ln_max_track_PT" Type="F" Min="7.34983063e+00" Max="1.07867289e+01"/>
    <Variable VarIndex="4" Expression="ln_min_track_PT" Label="ln_min_track_PT" Title="ln_min_track_PT" Unit="" Internal="ln_min_track_PT" Type="F" Min="6.21461248e+00" Max="9.06322670e+00"/>
    <Variable VarIndex="5" Expression="B_s0_eta" Label="B_s0_eta" Title="B_s0_eta" Unit="" Internal="B_s0_eta" Type="F" Min="1.90870821e+00" Max="9.84165192e+00"/>
    <Variable VarIndex="6" Expression="Kst_eta" Label="Kst_eta" Title="Kst_eta" Unit="" Internal="Kst_eta" Type="F" Min="1.79824805e+00" Max="5.23117018e+00"/>
    <Variable VarIndex="7" Expression="Kstb_eta" Label="Kstb_eta" Title="Kstb_eta" Unit="" Internal="Kstb_eta" Type="F" Min="1.75479114e+00" Max="5.24634695e+00"/>
    <Variable VarIndex="8" Expression="max_track_eta" Label="max_track_eta" Title="max_track_eta" Unit="" Internal="max_track_eta" Type="F" Min="2.05494738e+00" Max="5.18772888e+00"/>
    <Variable VarIndex="9" Expression="min_track_eta" Label="min_track_eta" Title="min_track_eta" Unit="" Internal="min_track_eta" Type="F" Min="1.65664852e+00" Max="4.54960585e+00"/>
    <Variable VarIndex="10" Expression="B_s0_ARCCOS_DIRA_OWNPV" Label="B_s0_ARCCOS_DIRA_OWNPV" Title="B_s0_ARCCOS_DIRA_OWNPV" Unit="" Internal="B_s0_ARCCOS_DIRA_OWNPV" Type="F" Min="2.00601949e-06" Max="1.39913425e-01"/>
    <Variable VarIndex="11" Expression="B_s0_ENDVERTEX_CHI2" Label="B_s0_ENDVERTEX_CHI2" Title="B_s0_ENDVERTEX_CHI2" Unit="" Internal="B_s0_ENDVERTEX_CHI2" Type="F" Min="8.97875950e-02" Max="5.99846954e+01"/>
    <Variable VarIndex="12" Expression="B_s0_MMERRoMM" Label="B_s0_MMERRoMM" Title="B_s0_MMERRoMM" Unit="" Internal="B_s0_MMERRoMM" Type="F" Min="1.39846257e-03" Max="1.50269633e-02"/>
    <Variable VarIndex="13" Expression="max_track_CHI2" Label="max_track_CHI2" Title="max_track_CHI2" Unit="" Internal="max_track_CHI2" Type="F" Min="6.37899458e-01" Max="2.99990845e+00"/>
  </Variables>
  <Spectators NSpec="0"/>
  <Classes NClass="2">
    <Class Name="Background" Index="0"/>
    <Class Name="Signal" Index="1"/>
  </Classes>
  <Transformations NTransformations="2">
    <Transform Name="Decorrelation">
      <Selection>
        <Input NInputs="14">
          <Input Type="Variable" Label="ln_B_s0_PT" Expression="ln_B_s0_PT"/>
          <Input Type="Variable" Label="ln_Kst_PT" Expression="ln_Kst_PT"/>
          <Input Type="Variable" Label="ln_Kstb_PT" Expression="ln_Kstb_PT"/>
          <Input Type="Variable" Label="ln_max_track_PT" Expression="ln_max_track_PT"/>
          <Input Type="Variable" Label="ln_min_track_PT" Expression="ln_min_track_PT"/>
          <Input Type="Variable" Label="B_s0_eta" Expression="B_s0_eta"/>
          <Input Type="Variable" Label="Kst_eta" Expression="Kst_eta"/>
          <Input Type="Variable" Label="Kstb_eta" Expression="Kstb_eta"/>
          <Input Type="Variable" Label="max_track_eta" Expression="max_track_eta"/>
          <Input Type="Variable" Label="min_track_eta" Expression="min_track_eta"/>
          <Input Type="Variable" Label="B_s0_ARCCOS_DIRA_OWNPV" Expression="B_s0_ARCCOS_DIRA_OWNPV"/>
          <Input Type="Variable" Label="B_s0_ENDVERTEX_CHI2" Expression="B_s0_ENDVERTEX_CHI2"/>
          <Input Type="Variable" Label="B_s0_MMERRoMM" Expression="B_s0_MMERRoMM"/>
          <Input Type="Variable" Label="max_track_CHI2" Expression="max_track_CHI2"/>
        </Input>
        <Output NOutputs="14">
          <Output Type="Variable" Label="ln_B_s0_PT" Expression="ln_B_s0_PT"/>
          <Output Type="Variable" Label="ln_Kst_PT" Expression="ln_Kst_PT"/>
          <Output Type="Variable" Label="ln_Kstb_PT" Expression="ln_Kstb_PT"/>
          <Output Type="Variable" Label="ln_max_track_PT" Expression="ln_max_track_PT"/>
          <Output Type="Variable" Label="ln_min_track_PT" Expression="ln_min_track_PT"/>
          <Output Type="Variable" Label="B_s0_eta" Expression="B_s0_eta"/>
          <Output Type="Variable" Label="Kst_eta" Expression="Kst_eta"/>
          <Output Type="Variable" Label="Kstb_eta" Expression="Kstb_eta"/>
          <Output Type="Variable" Label="max_track_eta" Expression="max_track_eta"/>
          <Output Type="Variable" Label="min_track_eta" Expression="min_track_eta"/>
          <Output Type="Variable" Label="B_s0_ARCCOS_DIRA_OWNPV" Expression="B_s0_ARCCOS_DIRA_OWNPV"/>
          <Output Type="Variable" Label="B_s0_ENDVERTEX_CHI2" Expression="B_s0_ENDVERTEX_CHI2"/>
          <Output Type="Variable" Label="B_s0_MMERRoMM" Expression="B_s0_MMERRoMM"/>
          <Output Type="Variable" Label="max_track_CHI2" Expression="max_track_CHI2"/>
        </Output>
      </Selection>
      <Matrix Rows="14" Columns="14">
        7.655073315181781e+00 -3.003013443188580e+00 -2.934063669452334e+00 -1.170456206781204e+00 -2.127833514288215e-01 6.846821622879860e+00 -3.294960539336704e+00 -3.217464937113371e+00 -2.413136943990639e-01 2.995991943775991e-01 1.297173963475927e+00 -1.389095973221679e-02 -9.403346305986975e-01 2.848856263071924e-02 -3.003013443188579e+00 4.709682830125086e+00 2.583826335779619e+00 -8.237225569557924e-01 -7.812999973348049e-01 -2.719835688601771e+00 2.059349162330325e+00 1.541993626810673e+00 1.186069211324148e-02 -6.619514433723127e-01 -9.812791025976253e-02 -2.822929942039950e-03 -2.708848459975872e-01 -2.523721665081225e-03 -2.934063669452335e+00 2.583826335779619e+00 4.623919857033962e+00 -8.189704153622680e-01 -7.961130108131806e-01 -2.664267553497505e+00 1.564131425312313e+00 2.018422158391845e+00 5.959580034287093e-05 -6.727254638480838e-01 -9.077361671020867e-02 -2.332137593989393e-03 -2.710165802024784e-01 1.712994042580522e-02 -1.170456206781206e+00 -8.237225569557918e-01 -8.189704153622676e-01 4.578521055173744e+00 5.865313298460074e-01 -3.867054593092838e-01 1.368309661577505e-01 1.302160762588933e-01 1.779155482099229e-01 -2.379271240598615e-02 4.136525617600100e-01 -3.236316484558784e-03 -1.010889608761019e+00 -1.410875040114896e-02 -2.127833514288213e-01 -7.812999973348048e-01 -7.961130108131805e-01 5.865313298460072e-01 4.456007081779443e+00 -2.850847632379572e-02 -1.560257295122600e-01 -1.438599464928652e-01 3.328132507600120e-01 5.309912447480215e-02 -6.632330452698643e-02 -7.324585406007862e-04 2.774800586564079e-01 8.711159175847934e-02 6.846821622879860e+00 -2.719835688601771e+00 -2.664267553497505e+00 -3.867054593092826e-01 -2.850847632379584e-02 7.917220570286291e+00 -3.481674541873426e+00 -3.396965265212073e+00 -1.875399324054663e-01 -9.113316495853940e-02 1.679765051122502e+00 8.431579598307598e-03 -1.097578483349783e+00 3.546860394152050e-02 -3.294960539336704e+00 2.059349162330326e+00 1.564131425312313e+00 1.368309661577502e-01 -1.560257295122598e-01 -3.481674541873427e+00 5.432512788542607e+00 3.049726775298438e+00 -1.762788429742534e+00 -2.176680651644799e+00 -1.849685931119893e-01 -6.519725589992117e-04 -3.935886612132036e-01 5.553132985792532e-02 -3.217464937113372e+00 1.541993626810674e+00 2.018422158391846e+00 1.302160762588932e-01 -1.438599464928650e-01 -3.396965265212075e+00 3.049726775298439e+00 5.374088130774964e+00 -1.769652733335003e+00 -2.174859691698933e+00 -1.794098672648090e-01 -9.724813118865304e-04 -3.797038868903079e-01 6.828614176546223e-02 -2.413136943990629e-01 1.186069211324096e-02 5.959580034253057e-05 1.779155482099225e-01 3.328132507600119e-01 -1.875399324054652e-01 -1.762788429742534e+00 -1.769652733335004e+00 4.120626477719087e+00 6.501663516759985e-01 1.242226794411003e-01 -5.490246826645256e-03 1.966731250509725e-02 4.005568086077670e-02 2.995991943775972e-01 -6.619514433723146e-01 -6.727254638480840e-01 -2.379271240598637e-02 5.309912447480215e-02 -9.113316495853653e-02 -2.176680651644800e+00 -2.174859691698934e+00 6.501663516759998e-01 5.020091419627583e+00 -1.209218003647606e-01 1.932295419591569e-03 8.596843696157903e-02 9.292172137028978e-02 1.297173963475776e+00 -9.812791025976668e-02 -9.077361671017711e-02 4.136525617600175e-01 -6.632330452698634e-02 1.679765051122426e+00 -1.849685931119436e-01 -1.794098672647984e-01 1.242226794411026e-01 -1.209218003647603e-01 9.588687896424936e+01 9.054315728328639e-06 -3.882328284563024e+00 3.425223893842597e-02 -1.389095973221682e-02 -2.822929942039941e-03 -2.332137593989383e-03 -3.236316484558781e-03 -7.324585406007861e-04 8.431579598307572e-03 -6.519725589991987e-04 -9.724813118865156e-04 -5.490246826645258e-03 1.932295419591570e-03 9.054315728382334e-06 5.854608746491268e-02 4.847897287310099e-04 -7.834466340789947e-03 -9.403346305986938e-01 -2.708848459975863e-01 -2.710165802024783e-01 -1.010889608761019e+00 2.774800586564079e-01 -1.097578483349781e+00 -3.935886612132058e-01 -3.797038868903089e-01 1.966731250509793e-02 8.596843696157894e-02 -3.882328284563038e+00 4.847897287310014e-04 2.598908691276647e+03 -2.079545191006299e-01 2.848856263071892e-02 -2.523721665081088e-03 1.712994042580535e-02 -1.410875040114894e-02 8.711159175847936e-02 3.546860394152016e-02 5.553132985792544e-02 6.828614176546234e-02 4.005568086077672e-02 9.292172137028987e-02 3.425223893842566e-02 -7.834466340789943e-03 -2.079545191006300e-01 2.028605463850425e+00 
      </Matrix>
      <Matrix Rows="14" Columns="14">
        7.854276898513280e+00 -2.782878442659723e+00 -2.810379839680639e+00 -1.792305570897498e+00 -3.888269131195902e-01 5.097872814438766e+00 -2.814748490139299e+00 -2.836879383154272e+00 -4.041400195392231e-03 9.030139756883022e-01 1.254864804586168e+00 -1.973886492751946e-03 -6.152243237932744e-01 1.163401053606724e-02 -2.782878442659722e+00 3.965981052419298e+00 2.204065834330469e+00 -5.900141656142697e-01 -8.175191094755433e-01 -1.605753616803500e+00 1.332715407117284e+00 1.017572226491539e+00 2.466082083412576e-01 -7.266949915949179e-01 -3.161831404981878e-01 -1.792686785122963e-03 -5.211496008928647e-01 3.324909989608549e-02 -2.810379839680639e+00 2.204065834330469e+00 3.983674356412868e+00 -5.814131928112266e-01 -8.326592167021543e-01 -1.644302594115376e+00 1.006711455486719e+00 1.362450456153917e+00 2.446128329009165e-01 -7.134383129121323e-01 -3.290599451032948e-01 -2.796954276892674e-03 -5.263080947876786e-01 3.370547404897008e-02 -1.792305570897498e+00 -5.900141656142696e-01 -5.814131928112266e-01 4.310022882953834e+00 7.832547373870321e-01 -1.890727819648400e-01 3.157515326511561e-01 3.118448690677577e-01 1.192603415268936e-01 -3.419093071574075e-01 9.978009816854463e-02 -6.990523381278138e-04 -1.187039001598988e+00 2.510104243461060e-02 -3.888269131195906e-01 -8.175191094755432e-01 -8.326592167021540e-01 7.832547373870322e-01 2.944477928006663e+00 -9.471982751060917e-02 -7.003937458641703e-03 -1.368288730447226e-02 2.311733000395437e-01 -1.830289527790546e-02 -4.117557411979245e-02 -1.767992690122965e-03 7.758746403528887e-01 3.318636803477433e-03 5.097872814438765e+00 -1.605753616803499e+00 -1.644302594115376e+00 -1.890727819648400e-01 -9.471982751060923e-02 8.078134823617408e+00 -3.701539005382203e+00 -3.713703874208129e+00 3.116603964852597e-01 -7.405094942211297e-02 1.347445715139980e+00 4.734350022750558e-04 -9.643827468310129e-01 2.227764804840609e-02 -2.814748490139300e+00 1.332715407117285e+00 1.006711455486719e+00 3.157515326511561e-01 -7.003937458641743e-03 -3.701539005382204e+00 8.123132931587183e+00 5.665877723064444e+00 -4.477682872855008e+00 -4.596769677966018e+00 -3.058392708163051e-01 3.060332591212168e-03 -1.281407189465634e+00 5.184335841526532e-03 -2.836879383154275e+00 1.017572226491539e+00 1.362450456153917e+00 3.118448690677578e-01 -1.368288730447216e-02 -3.713703874208131e+00 5.665877723064444e+00 8.155925437865996e+00 -4.535121099629300e+00 -4.560609885716769e+00 -3.404538501144282e-01 3.333936283512166e-03 -1.304291303336770e+00 1.735316810116314e-02 -4.041400195390787e-03 2.466082083412566e-01 2.446128329009163e-01 1.192603415268937e-01 2.311733000395436e-01 3.116603964852615e-01 -4.477682872855008e+00 -4.535121099629301e+00 6.908893971998702e+00 2.707002320024225e+00 1.081684636597560e-01 3.369731853912701e-03 8.078597270786950e-01 6.467655637578730e-03 9.030139756883035e-01 -7.266949915949188e-01 -7.134383129121323e-01 -3.419093071574077e-01 -1.830289527790547e-02 -7.405094942211189e-02 -4.596769677966020e+00 -4.560609885716771e+00 2.707002320024227e+00 7.662394357523626e+00 1.576475134038902e-04 1.853979631557328e-05 4.812792456618639e-01 3.158588687347102e-03 1.254864804586169e+00 -3.161831404981878e-01 -3.290599451032947e-01 9.978009816854461e-02 -4.117557411979245e-02 1.347445715139980e+00 -3.058392708163051e-01 -3.404538501144280e-01 1.081684636597561e-01 1.576475134035135e-04 3.458039936597443e+02 -7.449977744838871e-03 -1.649050424820989e+00 3.926391734425996e-02 -1.973886492751946e-03 -1.792686785122962e-03 -2.796954276892674e-03 -6.990523381278136e-04 -1.767992690122966e-03 4.734350022750548e-04 3.060332591212162e-03 3.333936283512160e-03 3.369731853912704e-03 1.853979631557898e-05 -7.449977744838869e-03 1.726007383438055e-01 -1.687052977356435e-03 -9.830355021988214e-03 -6.152243237932744e-01 -5.211496008928650e-01 -5.263080947876786e-01 -1.187039001598988e+00 7.758746403528888e-01 -9.643827468310129e-01 -1.281407189465633e+00 -1.304291303336770e+00 8.078597270786944e-01 4.812792456618630e-01 -1.649050424820989e+00 -1.687052977356438e-03 3.315014397591167e+03 -1.750747792212707e-01 1.163401053606724e-02 3.324909989608552e-02 3.370547404897009e-02 2.510104243461057e-02 3.318636803477421e-03 2.227764804840606e-02 5.184335841526513e-03 1.735316810116313e-02 6.467655637578749e-03 3.158588687347114e-03 3.926391734425996e-02 -9.830355021988212e-03 -1.750747792212706e-01 3.134912058803577e+00 
      </Matrix>
      <Matrix Rows="14" Columns="14">
        7.176063750448451e+00 -2.682704001719692e+00 -2.664540572565929e+00 -1.246649040341221e+00 -3.018789543182712e-01 6.323935410681718e+00 -2.958915666158064e+00 -2.928939120742087e+00 -2.244070829246786e-01 2.238536802826698e-01 1.411834369264501e+00 8.692828799029863e-04 -9.892221239470018e-01 1.057618179487479e-01 -2.682704001719691e+00 4.166664345293860e+00 2.210230046536570e+00 -8.598594501410565e-01 -9.002297010048212e-01 -2.325021413729723e+00 1.739283865742884e+00 1.313080025515066e+00 1.205196698697988e-01 -5.777570994721543e-01 -1.407871015858069e-01 5.478504136657625e-03 -2.431950665304612e-01 4.518259715015627e-02 -2.664540572565928e+00 2.210230046536570e+00 4.137829441900905e+00 -8.522650981018471e-01 -9.150281325422561e-01 -2.317667696428959e+00 1.326486749069522e+00 1.737358439968359e+00 1.101900876798346e-01 -5.825325994671740e-01 -1.443479737875704e-01 5.946151873136088e-03 -2.453877640400606e-01 5.836955600422548e-02 -1.246649040341218e+00 -8.598594501410567e-01 -8.522650981018471e-01 4.312175920577018e+00 6.660448475940369e-01 -4.512025209066172e-01 2.032461807086906e-01 1.979190648466234e-01 1.916082439149715e-01 -1.304600106930061e-02 1.924405501516049e-01 1.891643674778476e-03 -9.801537488642680e-01 7.962870155666270e-03 -3.018789543182718e-01 -9.002297010048218e-01 -9.150281325422569e-01 6.660448475940374e-01 3.519883486707116e+00 -6.123239526521394e-02 -9.496370548784769e-02 -9.420580572597530e-02 3.188440343813671e-01 3.303576563416094e-02 1.203447518581780e-01 8.599296751428974e-03 5.386665122804448e-01 1.135986553238173e-01 6.323935410681718e+00 -2.325021413729724e+00 -2.317667696428959e+00 -4.512025209066192e-01 -6.123239526521369e-02 7.520149354935382e+00 -3.233879806548113e+00 -3.193098074912631e+00 -1.715335284282856e-01 -1.382477225159430e-01 1.529853205678634e+00 1.527639348015674e-03 -1.107346458021311e+00 1.508019310772982e-02 -2.958915666158064e+00 1.739283865742884e+00 1.326486749069522e+00 2.032461807086901e-01 -9.496370548784763e-02 -3.233879806548112e+00 5.680548261180670e+00 3.281159079618309e+00 -2.181874992549131e+00 -2.518216613831361e+00 -4.447361584526881e-01 -3.512921496357786e-03 -4.717650558327859e-01 1.811116148168874e-02 -2.928939120742087e+00 1.313080025515065e+00 1.737358439968359e+00 1.979190648466237e-01 -9.420580572597541e-02 -3.193098074912631e+00 3.281159079618309e+00 5.662197998465870e+00 -2.203723180550715e+00 -2.505928289714050e+00 -4.436141793882236e-01 -3.443414412704276e-03 -4.658348419034879e-01 3.194162985818400e-02 -2.244070829246790e-01 1.205196698697988e-01 1.101900876798348e-01 1.916082439149725e-01 3.188440343813674e-01 -1.715335284282860e-01 -2.181874992549131e+00 -2.203723180550715e+00 4.602131805707096e+00 9.449111836520808e-01 1.206175733472482e-01 -8.373709294927239e-03 1.230171142168069e-01 9.858069815439397e-03 2.238536802826721e-01 -5.777570994721550e-01 -5.825325994671749e-01 -1.304600106930046e-02 3.303576563416089e-02 -1.382477225159403e-01 -2.518216613831362e+00 -2.505928289714053e+00 9.449111836520809e-01 5.422216977029010e+00 1.820217881506538e-01 4.895857809832946e-03 1.582217977212252e-02 1.149238915995353e-01 1.411834369264508e+00 -1.407871015858107e-01 -1.443479737875722e-01 1.924405501516039e-01 1.203447518581780e-01 1.529853205678638e+00 -4.447361584526869e-01 -4.436141793882240e-01 1.206175733472470e-01 1.820217881506521e-01 1.044663504717371e+02 -1.290296388140734e-02 -3.497393392166579e+00 -2.295725628147962e-01 8.692828799029824e-04 5.478504136657619e-03 5.946151873136084e-03 1.891643674778477e-03 8.599296751428972e-03 1.527639348015676e-03 -3.512921496357789e-03 -3.443414412704280e-03 -8.373709294927239e-03 4.895857809832951e-03 -1.290296388140734e-02 6.216769543943099e-02 -3.831326292962345e-04 -1.845803818635813e-02 -9.892221239541309e-01 -2.431950665294126e-01 -2.453877640405087e-01 -9.801537488639821e-01 5.386665122804918e-01 -1.107346458026548e+00 -4.717650558331605e-01 -4.658348419024849e-01 1.230171142183793e-01 1.582217977259930e-02 -3.497393392167865e+00 -3.831326292960281e-04 2.803663130515833e+03 -2.098492026908135e-01 1.057618179487484e-01 4.518259715015627e-02 5.836955600422543e-02 7.962870155666234e-03 1.135986553238173e-01 1.508019310773001e-02 1.811116148168895e-02 3.194162985818420e-02 9.858069815439071e-03 1.149238915995350e-01 -2.295725628147963e-01 -1.845803818635812e-02 -2.098492026907763e-01 2.221098465976537e+00 
      </Matrix>
    </Transform>
    <Transform Name="Gauss" FlatOrGauss="Gauss">
      <Selection>
        <Input NInputs="14">
          <Input Type="Variable" Label="ln_B_s0_PT" Expression="ln_B_s0_PT"/>
          <Input Type="Variable" Label="ln_Kst_PT" Expression="ln_Kst_PT"/>
          <Input Type="Variable" Label="ln_Kstb_PT" Expression="ln_Kstb_PT"/>
          <Input Type="Variable" Label="ln_max_track_PT" Expression="ln_max_track_PT"/>
          <Input Type="Variable" Label="ln_min_track_PT" Expression="ln_min_track_PT"/>
          <Input Type="Variable" Label="B_s0_eta" Expression="B_s0_eta"/>
          <Input Type="Variable" Label="Kst_eta" Expression="Kst_eta"/>
          <Input Type="Variable" Label="Kstb_eta" Expression="Kstb_eta"/>
          <Input Type="Variable" Label="max_track_eta" Expression="max_track_eta"/>
          <Input Type="Variable" Label="min_track_eta" Expression="min_track_eta"/>
          <Input Type="Variable" Label="B_s0_ARCCOS_DIRA_OWNPV" Expression="B_s0_ARCCOS_DIRA_OWNPV"/>
          <Input Type="Variable" Label="B_s0_ENDVERTEX_CHI2" Expression="B_s0_ENDVERTEX_CHI2"/>
          <Input Type="Variable" Label="B_s0_MMERRoMM" Expression="B_s0_MMERRoMM"/>
          <Input Type="Variable" Label="max_track_CHI2" Expression="max_track_CHI2"/>
        </Input>
        <Output NOutputs="14">
          <Output Type="Variable" Label="ln_B_s0_PT" Expression="ln_B_s0_PT"/>
          <Output Type="Variable" Label="ln_Kst_PT" Expression="ln_Kst_PT"/>
          <Output Type="Variable" Label="ln_Kstb_PT" Expression="ln_Kstb_PT"/>
          <Output Type="Variable" Label="ln_max_track_PT" Expression="ln_max_track_PT"/>
          <Output Type="Variable" Label="ln_min_track_PT" Expression="ln_min_track_PT"/>
          <Output Type="Variable" Label="B_s0_eta" Expression="B_s0_eta"/>
          <Output Type="Variable" Label="Kst_eta" Expression="Kst_eta"/>
          <Output Type="Variable" Label="Kstb_eta" Expression="Kstb_eta"/>
          <Output Type="Variable" Label="max_track_eta" Expression="max_track_eta"/>
          <Output Type="Variable" Label="min_track_eta" Expression="min_track_eta"/>
          <Output Type="Variable" Label="B_s0_ARCCOS_DIRA_OWNPV" Expression="B_s0_ARCCOS_DIRA_OWNPV"/>
          <Output Type="Variable" Label="B_s0_ENDVERTEX_CHI2" Expression="B_s0_ENDVERTEX_CHI2"/>
          <Output Type="Variable" Label="B_s0_MMERRoMM" Expression="B_s0_MMERRoMM"/>
          <Output Type="Variable" Label="max_track_CHI2" Expression="max_track_CHI2"/>
        </Output>
      </Selection>
      <Variable VarIndex="0">
        <CumulativePDF_cls0>
          <PDF Name="GaussTransform var0 cls0" MinNSmooth="0" MaxNSmooth="0" InterpolMethod="1" KDE_type="0" KDE_iter="1" KDE_border="1" KDE_finefactor="0.0000000000000000e+00">
            <Histogram Name="Cumulative_Var0_cls0_original" NBins="1975" XMin="4.2495427131652832e+00" XMax="1.4646938323974609e+01" HasEquidistantBins="0">
              4.33087931e-04 9.12816089e-04 1.41753012e-03 1.92557555e-03 2.43195519e-03 2.93833483e-03 3.44471470e-03 3.95109458e-03 4.45747422e-03 4.96385386e-03 5.47023350e-03 5.97661315e-03 6.48299279e-03 6.98937289e-03 7.49575254e-03 8.00213218e-03 8.50851182e-03 9.01489146e-03 9.52127110e-03 1.00276507e-02 1.05340304e-02 1.10404100e-02 1.15467906e-02 1.20531702e-02 1.25595499e-02 1.30659295e-02 1.35723092e-02 1.40786888e-02 1.45850684e-02 1.50914481e-02 1.55978277e-02 1.61042083e-02 1.66105870e-02 1.71169676e-02 1.76233463e-02 1.81297269e-02 1.86361056e-02 1.91424862e-02 1.96488649e-02 2.01552454e-02 2.06616241e-02 2.11680047e-02 2.16743853e-02 2.21807640e-02 2.26871446e-02 2.31935233e-02 2.36999039e-02 2.42062826e-02 2.47126631e-02 2.52190419e-02 2.57254224e-02 2.62318011e-02 2.67381817e-02 2.72445623e-02 2.77509410e-02 2.82573216e-02 2.87637003e-02 2.92700808e-02 2.97764596e-02 3.02828401e-02 3.07892188e-02 3.12955976e-02 3.18019800e-02 3.23083587e-02 3.28147374e-02 3.33211198e-02 3.38274986e-02 3.43338773e-02 3.48402560e-02 3.53466384e-02 3.58530171e-02 3.63593958e-02 3.68657745e-02 3.73721570e-02 3.78785357e-02 3.83849144e-02 3.88912931e-02 3.93976755e-02 3.99040543e-02 4.04104330e-02 4.09168154e-02 4.14231941e-02 4.19295728e-02 4.24359515e-02 4.29423340e-02 4.34487127e-02 4.39550914e-02 4.44614701e-02 4.49678525e-02 4.54742312e-02 4.59806100e-02 4.64869924e-02 4.69933711e-02 4.74997498e-02 4.80061285e-02 4.85125110e-02 4.90188897e-02 4.95252684e-02 5.00316471e-02 5.05380295e-02 5.10444082e-02 5.15507869e-02 5.20571694e-02 5.25635481e-02 5.30699268e-02 5.35763055e-02 5.40826879e-02 5.45890667e-02 5.50954454e-02 5.56018241e-02 5.61082065e-02 5.66145852e-02 5.71209639e-02 5.76273464e-02 5.81337251e-02 5.86401038e-02 5.91464825e-02 5.96528649e-02 6.01592436e-02 6.06656224e-02 6.11720011e-02 6.16783835e-02 6.21847622e-02 6.26911446e-02 6.31975234e-02 6.37039021e-02 6.42102808e-02 6.47166595e-02 6.52230382e-02 6.57294169e-02 6.62358031e-02 6.67421818e-02 6.72485605e-02 6.77549392e-02 6.82613179e-02 6.87676966e-02 6.92740753e-02 6.97804540e-02 7.02868402e-02 7.07932189e-02 7.12995976e-02 7.18059763e-02 7.23123550e-02 7.28187338e-02 7.33251125e-02 7.38314986e-02 7.43378773e-02 7.48442560e-02 7.53506348e-02 7.58570135e-02 7.63633922e-02 7.68697709e-02 7.73761570e-02 7.78825358e-02 7.83889145e-02 7.88952932e-02 7.94016719e-02 7.99080506e-02 8.04144293e-02 8.09208080e-02 8.14271942e-02 8.19335729e-02 8.24399516e-02 8.29463303e-02 8.34527090e-02 8.39590877e-02 8.44654664e-02 8.49718526e-02 8.54782313e-02 8.59846100e-02 8.64909887e-02 8.69973674e-02 8.75037462e-02 8.80101249e-02 8.85165110e-02 8.90228897e-02 8.95292684e-02 9.00356472e-02 9.05420259e-02 9.10484046e-02 9.15547833e-02 9.20611620e-02 9.25675482e-02 9.30739269e-02 9.35803056e-02 9.40866843e-02 9.45930630e-02 9.50994417e-02 9.56058204e-02 9.61122066e-02 9.66185853e-02 9.71249640e-02 9.76313427e-02 9.81377214e-02 9.86441001e-02 9.91504788e-02 9.96568576e-02 1.00163244e-01 1.00669622e-01 1.01176001e-01 1.01682380e-01 1.02188759e-01 1.02695137e-01 1.03201516e-01 1.03707902e-01 1.04214281e-01 1.04720660e-01 1.05227038e-01 1.05733417e-01 1.06239796e-01 1.06746174e-01 1.07252561e-01 1.07758939e-01 1.08265318e-01 1.08771697e-01 1.09278075e-01 1.09784454e-01 1.10290833e-01 1.10797212e-01 1.11303598e-01 1.11809976e-01 1.12316355e-01 1.12822734e-01 1.13329113e-01 1.13835491e-01 1.14341870e-01 1.14848256e-01 1.15354635e-01 1.15861014e-01 1.16367392e-01 1.16873771e-01 1.17380150e-01 1.17886528e-01 1.18392907e-01 1.18899293e-01 1.19405672e-01 1.19912051e-01 1.20418429e-01 1.20924808e-01 1.21431187e-01 1.21937566e-01 1.22443952e-01 1.22950330e-01 1.23456709e-01 1.23963088e-01 1.24469467e-01 1.24975845e-01 1.25482231e-01 1.25988603e-01 1.26494989e-01 1.27001360e-01 1.27507746e-01 1.28014132e-01 1.28520504e-01 1.29026890e-01 1.29533261e-01 1.30039647e-01 1.30546018e-01 1.31052405e-01 1.31558791e-01 1.32065162e-01 1.32571548e-01 1.33077919e-01 1.33584306e-01 1.34090677e-01 1.34597063e-01 1.35103434e-01 1.35609820e-01 1.36116207e-01 1.36622578e-01 1.37128964e-01 1.37635335e-01 1.38141721e-01 1.38648093e-01 1.39154479e-01 1.39660865e-01 1.40167236e-01 1.40673622e-01 1.41179994e-01 1.41686380e-01 1.42192751e-01 1.42699137e-01 1.43205523e-01 1.43711895e-01 1.44218281e-01 1.44724652e-01 1.45231038e-01 1.45737410e-01 1.46243796e-01 1.46750182e-01 1.47256553e-01 1.47762939e-01 1.48269311e-01 1.48775697e-01 1.49282068e-01 1.49788454e-01 1.50294840e-01 1.50801212e-01 1.51307598e-01 1.51813969e-01 1.52320355e-01 1.52826726e-01 1.53333113e-01 1.53839484e-01 1.54345870e-01 1.54852256e-01 1.55358627e-01 1.55865014e-01 1.56371385e-01 1.56877771e-01 1.57384142e-01 1.57890528e-01 1.58396915e-01 1.58903286e-01 1.59409672e-01 1.59916043e-01 1.60422429e-01 1.60928801e-01 1.61435187e-01 1.61941573e-01 1.62447944e-01 1.62954330e-01 1.63460702e-01 1.63967088e-01 1.64473459e-01 1.64979845e-01 1.65486231e-01 1.65992603e-01 1.66498989e-01 1.67005360e-01 1.67511746e-01 1.68018118e-01 1.68524504e-01 1.69030890e-01 1.69537261e-01 1.70043647e-01 1.70550019e-01 1.71056405e-01 1.71562776e-01 1.72069162e-01 1.72575533e-01 1.73081920e-01 1.73588306e-01 1.74094677e-01 1.74601063e-01 1.75107434e-01 1.75613821e-01 1.76120192e-01 1.76626578e-01 1.77132964e-01 1.77639335e-01 1.78145722e-01 1.78652093e-01 1.79158479e-01 1.79664850e-01 1.80171236e-01 1.80677623e-01 1.81183994e-01 1.81690380e-01 1.82196751e-01 1.82703137e-01 1.83209509e-01 1.83715895e-01 1.84222281e-01 1.84728652e-01 1.85235038e-01 1.85741410e-01 1.86247796e-01 1.86754167e-01 1.87260553e-01 1.87766939e-01 1.88273311e-01 1.88779697e-01 1.89286068e-01 1.89792454e-01 1.90298826e-01 1.90805212e-01 1.91311583e-01 1.91817969e-01 1.92324355e-01 1.92830727e-01 1.93337113e-01 1.93843484e-01 1.94349870e-01 1.94856241e-01 1.95362628e-01 1.95869014e-01 1.96375385e-01 1.96881771e-01 1.97388142e-01 1.97894529e-01 1.98400900e-01 1.98907286e-01 1.99413672e-01 1.99920043e-01 2.00426430e-01 2.00932801e-01 2.01439187e-01 2.01945558e-01 2.02451944e-01 2.02958331e-01 2.03464702e-01 2.03971088e-01 2.04477459e-01 2.04983845e-01 2.05490217e-01 2.05996603e-01 2.06502989e-01 2.07009360e-01 2.07515746e-01 2.08022118e-01 2.08528504e-01 2.09034875e-01 2.09541261e-01 2.10047632e-01 2.10554019e-01 2.11060405e-01 2.11566776e-01 2.12073162e-01 2.12579533e-01 2.13085920e-01 2.13592291e-01 2.14098677e-01 2.14605063e-01 2.15111434e-01 2.15617821e-01 2.16124192e-01 2.16630578e-01 2.17136949e-01 2.17643335e-01 2.18149722e-01 2.18656093e-01 2.19162479e-01 2.19668850e-01 2.20175236e-01 2.20681608e-01 2.21187994e-01 2.21694380e-01 2.22200751e-01 2.22707137e-01 2.23213509e-01 2.23719895e-01 2.24226266e-01 2.24732652e-01 2.25239038e-01 2.25745410e-01 2.26251796e-01 2.26758167e-01 2.27264553e-01 2.27770925e-01 2.28277311e-01 2.28783682e-01 2.29290068e-01 2.29796454e-01 2.30302826e-01 2.30809212e-01 2.31315583e-01 2.31821969e-01 2.32328340e-01 2.32834727e-01 2.33341113e-01 2.33847484e-01 2.34353870e-01 2.34860241e-01 2.35366628e-01 2.35872999e-01 2.36379385e-01 2.36885771e-01 2.37392142e-01 2.37898529e-01 2.38404900e-01 2.38911286e-01 2.39417657e-01 2.39924043e-01 2.40430430e-01 2.40936801e-01 2.41443187e-01 2.41949558e-01 2.42455944e-01 2.42962316e-01 2.43468702e-01 2.43975088e-01 2.44481459e-01 2.44987845e-01 2.45494217e-01 2.46000603e-01 2.46506974e-01 2.47013360e-01 2.47519732e-01 2.48026118e-01 2.48532504e-01 2.49038875e-01 2.49545261e-01 2.50051647e-01 2.50558019e-01 2.51064390e-01 2.51570791e-01 2.52077162e-01 2.52583534e-01 2.53089905e-01 2.53596306e-01 2.54102677e-01 2.54609048e-01 2.55115449e-01 2.55621821e-01 2.56128192e-01 2.56634563e-01 2.57140964e-01 2.57647336e-01 2.58153707e-01 2.58660078e-01 2.59166479e-01 2.59672850e-01 2.60179222e-01 2.60685623e-01 2.61191994e-01 2.61698365e-01 2.62204736e-01 2.62711138e-01 2.63217509e-01 2.63723880e-01 2.64230281e-01 2.64736652e-01 2.65243024e-01 2.65749395e-01 2.66255796e-01 2.66762167e-01 2.67268538e-01 2.67774940e-01 2.68281311e-01 2.68787682e-01 2.69294053e-01 2.69800454e-01 2.70306826e-01 2.70813197e-01 2.71319598e-01 2.71825969e-01 2.72332340e-01 2.72838712e-01 2.73345113e-01 2.73851484e-01 2.74357855e-01 2.74864256e-01 2.75370628e-01 2.75876999e-01 2.76383370e-01 2.76889771e-01 2.77396142e-01 2.77902514e-01 2.78408915e-01 2.78915286e-01 2.79421657e-01 2.79928029e-01 2.80434430e-01 2.80940801e-01 2.81447172e-01 2.81953573e-01 2.82459944e-01 2.82966316e-01 2.83472687e-01 2.83979088e-01 2.84485459e-01 2.84991831e-01 2.85498232e-01 2.86004603e-01 2.86510974e-01 2.87017345e-01 2.87523746e-01 2.88030118e-01 2.88536489e-01 2.89042890e-01 2.89549261e-01 2.90055633e-01 2.90562004e-01 2.91068405e-01 2.91574776e-01 2.92081147e-01 2.92587548e-01 2.93093920e-01 2.93600291e-01 2.94106662e-01 2.94613063e-01 2.95119435e-01 2.95625806e-01 2.96132177e-01 2.96638578e-01 2.97144949e-01 2.97651321e-01 2.98157722e-01 2.98664093e-01 2.99170464e-01 2.99676836e-01 3.00183237e-01 3.00689608e-01 3.01195979e-01 3.01702380e-01 3.02208751e-01 3.02715123e-01 3.03221494e-01 3.03727895e-01 3.04234266e-01 3.04740638e-01 3.05247039e-01 3.05753410e-01 3.06259781e-01 3.06766152e-01 3.07272553e-01 3.07778925e-01 3.08285296e-01 3.08791697e-01 3.09298068e-01 3.09804440e-01 3.10310811e-01 3.10817212e-01 3.11323583e-01 3.11829954e-01 3.12336355e-01 3.12842727e-01 3.13349098e-01 3.13855469e-01 3.14361870e-01 3.14868242e-01 3.15374613e-01 3.15881014e-01 3.16387385e-01 3.16893756e-01 3.17400128e-01 3.17906529e-01 3.18412900e-01 3.18919271e-01 3.19425672e-01 3.19932044e-01 3.20438415e-01 3.20944786e-01 3.21451187e-01 3.21957558e-01 3.22463930e-01 3.22970331e-01 3.23476702e-01 3.23983073e-01 3.24489444e-01 3.24995846e-01 3.25502217e-01 3.26008588e-01 3.26514989e-01 3.27021360e-01 3.27527732e-01 3.28034103e-01 3.28540504e-01 3.29046875e-01 3.29553246e-01 3.30059648e-01 3.30566019e-01 3.31072390e-01 3.31578761e-01 3.32085162e-01 3.32591534e-01 3.33097905e-01 3.33604276e-01 3.34110677e-01 3.34617049e-01 3.35123420e-01 3.35629821e-01 3.36136192e-01 3.36642563e-01 3.37148935e-01 3.37655336e-01 3.38161707e-01 3.38668078e-01 3.39174479e-01 3.39680851e-01 3.40187222e-01 3.40693593e-01 3.41199994e-01 3.41706365e-01 3.42212737e-01 3.42719138e-01 3.43225509e-01 3.43731880e-01 3.44238251e-01 3.44744653e-01 3.45251024e-01 3.45757395e-01 3.46263796e-01 3.46770167e-01 3.47276539e-01 3.47782910e-01 3.48289311e-01 3.48795682e-01 3.49302053e-01 3.49808455e-01 3.50314826e-01 3.50821197e-01 3.51327568e-01 3.51833969e-01 3.52340341e-01 3.52846712e-01 3.53353113e-01 3.53859484e-01 3.54365855e-01 3.54872227e-01 3.55378628e-01 3.55884999e-01 3.56391370e-01 3.56897771e-01 3.57404143e-01 3.57910514e-01 3.58416885e-01 3.58923286e-01 3.59429657e-01 3.59936029e-01 3.60442430e-01 3.60948801e-01 3.61455172e-01 3.61961544e-01 3.62467945e-01 3.62974316e-01 3.63480687e-01 3.63987088e-01 3.64493459e-01 3.64999831e-01 3.65506202e-01 3.66012603e-01 3.66518974e-01 3.67025346e-01 3.67531747e-01 3.68038118e-01 3.68544489e-01 3.69050860e-01 3.69557261e-01 3.70063633e-01 3.70570004e-01 3.71076375e-01 3.71582776e-01 3.72089148e-01 3.72595519e-01 3.73101920e-01 3.73608291e-01 3.74114662e-01 3.74621034e-01 3.75127435e-01 3.75633806e-01 3.76140177e-01 3.76646578e-01 3.77152950e-01 3.77659321e-01 3.78165692e-01 3.78672093e-01 3.79178464e-01 3.79684836e-01 3.80191237e-01 3.80697608e-01 3.81203979e-01 3.81710351e-01 3.82216752e-01 3.82723123e-01 3.83229494e-01 3.83735895e-01 3.84242266e-01 3.84748638e-01 3.85255009e-01 3.85761410e-01 3.86267781e-01 3.86774153e-01 3.87280554e-01 3.87786925e-01 3.88293296e-01 3.88799667e-01 3.89306068e-01 3.89812440e-01 3.90318811e-01 3.90825212e-01 3.91331583e-01 3.91837955e-01 3.92344326e-01 3.92850727e-01 3.93357098e-01 3.93863469e-01 3.94369870e-01 3.94876242e-01 3.95382613e-01 3.95888984e-01 3.96395385e-01 3.96901757e-01 3.97408128e-01 3.97914529e-01 3.98420900e-01 3.98927271e-01 3.99433643e-01 3.99940044e-01 4.00446415e-01 4.00952786e-01 4.01459187e-01 4.01965559e-01 4.02471930e-01 4.02978301e-01 4.03484702e-01 4.03991073e-01 4.04497445e-01 4.05003846e-01 4.05510217e-01 4.06016588e-01 4.06522959e-01 4.07029361e-01 4.07535732e-01 4.08042103e-01 4.08548474e-01 4.09054875e-01 4.09561247e-01 4.10067618e-01 4.10574019e-01 4.11080390e-01 4.11586761e-01 4.12093133e-01 4.12599534e-01 4.13105905e-01 4.13612276e-01 4.14118677e-01 4.14625049e-01 4.15131420e-01 4.15637791e-01 4.16144192e-01 4.16650563e-01 4.17156935e-01 4.17663336e-01 4.18169707e-01 4.18676078e-01 4.19182450e-01 4.19688851e-01 4.20195222e-01 4.20701593e-01 4.21207994e-01 4.21714365e-01 4.22220737e-01 4.22727108e-01 4.23233509e-01 4.23739880e-01 4.24246252e-01 4.24752653e-01 4.25259024e-01 4.25765395e-01 4.26271766e-01 4.26778167e-01 4.27284539e-01 4.27790910e-01 4.28297311e-01 4.28803682e-01 4.29310054e-01 4.29816425e-01 4.30322826e-01 4.30829197e-01 4.31335568e-01 4.31841969e-01 4.32348341e-01 4.32854712e-01 4.33361083e-01 4.33867484e-01 4.34373856e-01 4.34880227e-01 4.35386628e-01 4.35892999e-01 4.36399370e-01 4.36905742e-01 4.37412143e-01 4.37918514e-01 4.38424885e-01 4.38931286e-01 4.39437658e-01 4.39944029e-01 4.40450400e-01 4.40956801e-01 4.41463172e-01 4.41969544e-01 4.42475945e-01 4.42982316e-01 4.43488687e-01 4.43995059e-01 4.44501460e-01 4.45007831e-01 4.45514202e-01 4.46020603e-01 4.46526974e-01 4.47033346e-01 4.47539717e-01 4.48046118e-01 4.48552489e-01 4.49058861e-01 4.49565232e-01 4.50071633e-01 4.50578004e-01 4.51084375e-01 4.51590776e-01 4.52097148e-01 4.52603519e-01 4.53109890e-01 4.53616291e-01 4.54122663e-01 4.54629034e-01 4.55135435e-01 4.55641806e-01 4.56148177e-01 4.56654549e-01 4.57160950e-01 4.57667321e-01 4.58173692e-01 4.58680093e-01 4.59186465e-01 4.59692836e-01 4.60199207e-01 4.60705608e-01 4.61211979e-01 4.61718351e-01 4.62224752e-01 4.62731123e-01 4.63237494e-01 4.63743865e-01 4.64250267e-01 4.64756638e-01 4.65263009e-01 4.65769410e-01 4.66275781e-01 4.66782153e-01 4.67288524e-01 4.67794925e-01 4.68301296e-01 4.68807667e-01 4.69314069e-01 4.69820440e-01 4.70326811e-01 4.70833182e-01 4.71339583e-01 4.71845955e-01 4.72352326e-01 4.72858727e-01 4.73365098e-01 4.73871469e-01 4.74377841e-01 4.74884242e-01 4.75390613e-01 4.75896984e-01 4.76403385e-01 4.76909757e-01 4.77416128e-01 4.77922499e-01 4.78428900e-01 4.78935272e-01 4.79441643e-01 4.79948044e-01 4.80454415e-01 4.80960786e-01 4.81467158e-01 4.81973559e-01 4.82479930e-01 4.82986301e-01 4.83492702e-01 4.83999074e-01 4.84505445e-01 4.85011816e-01 4.85518217e-01 4.86024588e-01 4.86530960e-01 4.87037331e-01 4.87543732e-01 4.88050103e-01 4.88556474e-01 4.89062876e-01 4.89569247e-01 4.90075618e-01 4.90581989e-01 4.91088390e-01 4.91594762e-01 4.92101133e-01 4.92607534e-01 4.93113905e-01 4.93620276e-01 4.94126648e-01 4.94633049e-01 4.95139420e-01 4.95645791e-01 4.96152192e-01 4.96658564e-01 4.97164935e-01 4.97671306e-01 4.98177707e-01 4.98684078e-01 4.99190450e-01 4.99696851e-01 5.00203192e-01 5.00709593e-01 5.01215994e-01 5.01722336e-01 5.02228737e-01 5.02735138e-01 5.03241479e-01 5.03747880e-01 5.04254282e-01 5.04760623e-01 5.05267024e-01 5.05773365e-01 5.06279767e-01 5.06786168e-01 5.07292509e-01 5.07798910e-01 5.08305311e-01 5.08811653e-01 5.09318054e-01 5.09824455e-01 5.10330796e-01 5.10837197e-01 5.11343598e-01 5.11849940e-01 5.12356341e-01 5.12862682e-01 5.13369083e-01 5.13875484e-01 5.14381826e-01 5.14888227e-01 5.15394628e-01 5.15900970e-01 5.16407371e-01 5.16913772e-01 5.17420113e-01 5.17926514e-01 5.18432915e-01 5.18939257e-01 5.19445658e-01 5.19951999e-01 5.20458400e-01 5.20964801e-01 5.21471143e-01 5.21977544e-01 5.22483945e-01 5.22990286e-01 5.23496687e-01 5.24003088e-01 5.24509430e-01 5.25015831e-01 5.25522232e-01 5.26028574e-01 5.26534975e-01 5.27041316e-01 5.27547717e-01 5.28054118e-01 5.28560460e-01 5.29066861e-01 5.29573262e-01 5.30079603e-01 5.30586004e-01 5.31092405e-01 5.31598747e-01 5.32105148e-01 5.32611549e-01 5.33117890e-01 5.33624291e-01 5.34130633e-01 5.34637034e-01 5.35143435e-01 5.35649776e-01 5.36156178e-01 5.36662579e-01 5.37168920e-01 5.37675321e-01 5.38181722e-01 5.38688064e-01 5.39194465e-01 5.39700866e-01 5.40207207e-01 5.40713608e-01 5.41219950e-01 5.41726351e-01 5.42232752e-01 5.42739093e-01 5.43245494e-01 5.43751895e-01 5.44258237e-01 5.44764638e-01 5.45271039e-01 5.45777380e-01 5.46283782e-01 5.46790123e-01 5.47296524e-01 5.47802925e-01 5.48309267e-01 5.48815668e-01 5.49322069e-01 5.49828410e-01 5.50334811e-01 5.50841212e-01 5.51347554e-01 5.51853955e-01 5.52360356e-01 5.52866697e-01 5.53373098e-01 5.53879440e-01 5.54385841e-01 5.54892242e-01 5.55398583e-01 5.55904984e-01 5.56411386e-01 5.56917727e-01 5.57424128e-01 5.57930529e-01 5.58436871e-01 5.58943272e-01 5.59449673e-01 5.59956014e-01 5.60462415e-01 5.60968757e-01 5.61475158e-01 5.61981559e-01 5.62487900e-01 5.62994301e-01 5.63500702e-01 5.64007044e-01 5.64513445e-01 5.65019846e-01 5.65526187e-01 5.66032588e-01 5.66538990e-01 5.67045331e-01 5.67551732e-01 5.68058074e-01 5.68564475e-01 5.69070876e-01 5.69577217e-01 5.70083618e-01 5.70590019e-01 5.71096361e-01 5.71602762e-01 5.72109163e-01 5.72615504e-01 5.73121905e-01 5.73628306e-01 5.74134648e-01 5.74641049e-01 5.75147390e-01 5.75653791e-01 5.76160192e-01 5.76666534e-01 5.77172935e-01 5.77679336e-01 5.78185678e-01 5.78692079e-01 5.79198480e-01 5.79704821e-01 5.80211222e-01 5.80717564e-01 5.81223965e-01 5.81730366e-01 5.82236707e-01 5.82743108e-01 5.83249509e-01 5.83755851e-01 5.84262252e-01 5.84768653e-01 5.85274994e-01 5.85781395e-01 5.86287796e-01 5.86794138e-01 5.87300539e-01 5.87806880e-01 5.88313282e-01 5.88819683e-01 5.89326024e-01 5.89832425e-01 5.90338826e-01 5.90845168e-01 5.91351569e-01 5.91857970e-01 5.92364311e-01 5.92870712e-01 5.93377113e-01 5.93883455e-01 5.94389856e-01 5.94896197e-01 5.95402598e-01 5.95908999e-01 5.96415341e-01 5.96921742e-01 5.97428143e-01 5.97934484e-01 5.98440886e-01 5.98947287e-01 5.99453628e-01 5.99960029e-01 6.00466430e-01 6.00972772e-01 6.01479173e-01 6.01985514e-01 6.02491915e-01 6.02998316e-01 6.03504658e-01 6.04011059e-01 6.04517460e-01 6.05023801e-01 6.05530202e-01 6.06036603e-01 6.06542945e-01 6.07049346e-01 6.07555747e-01 6.08062088e-01 6.08568490e-01 6.09074831e-01 6.09581232e-01 6.10087633e-01 6.10593975e-01 6.11100376e-01 6.11606777e-01 6.12113118e-01 6.12619519e-01 6.13125920e-01 6.13632262e-01 6.14138663e-01 6.14645064e-01 6.15151405e-01 6.15657806e-01 6.16164148e-01 6.16670549e-01 6.17176950e-01 6.17683291e-01 6.18189692e-01 6.18696094e-01 6.19202435e-01 6.19708836e-01 6.20215237e-01 6.20721579e-01 6.21227980e-01 6.21734321e-01 6.22240722e-01 6.22747123e-01 6.23253465e-01 6.23759866e-01 6.24266267e-01 6.24772608e-01 6.25279009e-01 6.25785410e-01 6.26291752e-01 6.26798153e-01 6.27304554e-01 6.27810895e-01 6.28317297e-01 6.28823638e-01 6.29330039e-01 6.29836440e-01 6.30342782e-01 6.30849183e-01 6.31355584e-01 6.31861925e-01 6.32368326e-01 6.32874727e-01 6.33381069e-01 6.33887470e-01 6.34393871e-01 6.34900212e-01 6.35406613e-01 6.35912955e-01 6.36419356e-01 6.36925757e-01 6.37432098e-01 6.37938499e-01 6.38444901e-01 6.38951242e-01 6.39457643e-01 6.39964044e-01 6.40470386e-01 6.40976787e-01 6.41483188e-01 6.41989529e-01 6.42495930e-01 6.43002272e-01 6.43508673e-01 6.44015074e-01 6.44521415e-01 6.45027816e-01 6.45534217e-01 6.46040559e-01 6.46546960e-01 6.47053361e-01 6.47559702e-01 6.48066103e-01 6.48572505e-01 6.49078846e-01 6.49585247e-01 6.50091588e-01 6.50597990e-01 6.51104391e-01 6.51610732e-01 6.52117133e-01 6.52623534e-01 6.53129876e-01 6.53636277e-01 6.54142678e-01 6.54649019e-01 6.55155420e-01 6.55661821e-01 6.56168163e-01 6.56674564e-01 6.57180905e-01 6.57687306e-01 6.58193707e-01 6.58700049e-01 6.59206450e-01 6.59712851e-01 6.60219193e-01 6.60725594e-01 6.61231995e-01 6.61738336e-01 6.62244737e-01 6.62751079e-01 6.63257480e-01 6.63763881e-01 6.64270222e-01 6.64776623e-01 6.65283024e-01 6.65789366e-01 6.66295767e-01 6.66802168e-01 6.67308509e-01 6.67814910e-01 6.68321311e-01 6.68827653e-01 6.69334054e-01 6.69840395e-01 6.70346797e-01 6.70853198e-01 6.71359539e-01 6.71865940e-01 6.72372341e-01 6.72878683e-01 6.73385084e-01 6.73891485e-01 6.74397826e-01 6.74904227e-01 6.75410628e-01 6.75916970e-01 6.76423371e-01 6.76929712e-01 6.77436113e-01 6.77942514e-01 6.78448856e-01 6.78955257e-01 6.79461658e-01 6.79967999e-01 6.80474401e-01 6.80980802e-01 6.81487143e-01 6.81993544e-01 6.82499945e-01 6.83006287e-01 6.83512688e-01 6.84019029e-01 6.84525430e-01 6.85031831e-01 6.85538173e-01 6.86044574e-01 6.86550975e-01 6.87057316e-01 6.87563717e-01 6.88070118e-01 6.88576460e-01 6.89082861e-01 6.89589262e-01 6.90095603e-01 6.90602005e-01 6.91108346e-01 6.91614747e-01 6.92121148e-01 6.92627490e-01 6.93133891e-01 6.93640292e-01 6.94146633e-01 6.94653034e-01 6.95159435e-01 6.95665777e-01 6.96172178e-01 6.96678519e-01 6.97184920e-01 6.97691321e-01 6.98197663e-01 6.98704064e-01 6.99210465e-01 6.99716806e-01 7.00223207e-01 7.00729609e-01 7.01235950e-01 7.01742351e-01 7.02248752e-01 7.02755094e-01 7.03261495e-01 7.03767836e-01 7.04274237e-01 7.04780638e-01 7.05286980e-01 7.05793381e-01 7.06299782e-01 7.06806123e-01 7.07312524e-01 7.07818925e-01 7.08325267e-01 7.08831668e-01 7.09338069e-01 7.09844410e-01 7.10350811e-01 7.10857153e-01 7.11363554e-01 7.11869955e-01 7.12376297e-01 7.12882698e-01 7.13389099e-01 7.13895440e-01 7.14401841e-01 7.14908242e-01 7.15414584e-01 7.15920985e-01 7.16427386e-01 7.16933727e-01 7.17440128e-01 7.17946470e-01 7.18452871e-01 7.18959272e-01 7.19465613e-01 7.19972014e-01 7.20478415e-01 7.20984757e-01 7.21491158e-01 7.21997559e-01 7.22503901e-01 7.23010302e-01 7.23516703e-01 7.24023044e-01 7.24529445e-01 7.25035787e-01 7.25542188e-01 7.26048589e-01 7.26554930e-01 7.27061331e-01 7.27567732e-01 7.28074074e-01 7.28580475e-01 7.29086876e-01 7.29593217e-01 7.30099618e-01 7.30606019e-01 7.31112361e-01 7.31618762e-01 7.32125103e-01 7.32631505e-01 7.33137906e-01 7.33644247e-01 7.34150648e-01 7.34657049e-01 7.35163391e-01 7.35669792e-01 7.36176193e-01 7.36682534e-01 7.37188935e-01 7.37695277e-01 7.38201678e-01 7.38708079e-01 7.39214420e-01 7.39720821e-01 7.40227222e-01 7.40733564e-01 7.41239965e-01 7.41746366e-01 7.42252707e-01 7.42759109e-01 7.43265510e-01 7.43771851e-01 7.44278252e-01 7.44784594e-01 7.45290995e-01 7.45797396e-01 7.46303737e-01 7.46810138e-01 7.47316539e-01 7.47822881e-01 7.48329282e-01 7.48835683e-01 7.49342024e-01 7.49848425e-01 7.50354826e-01 7.50861168e-01 7.51367569e-01 7.51873910e-01 7.52380311e-01 7.52886713e-01 7.53393054e-01 7.53899455e-01 7.54405856e-01 7.54912198e-01 7.55418599e-01 7.55925000e-01 7.56431341e-01 7.56937742e-01 7.57444143e-01 7.57950485e-01 7.58456886e-01 7.58963227e-01 7.59469628e-01 7.59976029e-01 7.60482371e-01 7.60988772e-01 7.61495173e-01 7.62001514e-01 7.62507915e-01 7.63014317e-01 7.63520658e-01 7.64027059e-01 7.64533460e-01 7.65039802e-01 7.65546203e-01 7.66052544e-01 7.66558945e-01 7.67065346e-01 7.67571688e-01 7.68078089e-01 7.68584490e-01 7.69090831e-01 7.69597232e-01 7.70103633e-01 7.70609975e-01 7.71116376e-01 7.71622717e-01 7.72129118e-01 7.72635520e-01 7.73141861e-01 7.73648262e-01 7.74154663e-01 7.74661005e-01 7.75167406e-01 7.75673807e-01 7.76180148e-01 7.76686549e-01 7.77192950e-01 7.77699292e-01 7.78205693e-01 7.78712034e-01 7.79218435e-01 7.79724836e-01 7.80231178e-01 7.80737579e-01 7.81243980e-01 7.81750321e-01 7.82256722e-01 7.82763124e-01 7.83269465e-01 7.83775866e-01 7.84282267e-01 7.84788609e-01 7.85295010e-01 7.85801351e-01 7.86307752e-01 7.86814153e-01 7.87320495e-01 7.87826896e-01 7.88333297e-01 7.88839638e-01 7.89346039e-01 7.89852440e-01 7.90358782e-01 7.90865183e-01 7.91371584e-01 7.91877925e-01 7.92384326e-01 7.92890668e-01 7.93397069e-01 7.93903470e-01 7.94409811e-01 7.94916213e-01 7.95422614e-01 7.95928955e-01 7.96435356e-01 7.96941757e-01 7.97448099e-01 7.97954500e-01 7.98460901e-01 7.98967242e-01 7.99473643e-01 7.99979985e-01 8.00486386e-01 8.00992787e-01 8.01499128e-01 8.02005529e-01 8.02511930e-01 8.03018272e-01 8.03524673e-01 8.04031074e-01 8.04537416e-01 8.05043817e-01 8.05550218e-01 8.06056559e-01 8.06562960e-01 8.07069302e-01 8.07575703e-01 8.08082104e-01 8.08588445e-01 8.09094846e-01 8.09601247e-01 8.10107589e-01 8.10613990e-01 8.11120391e-01 8.11626732e-01 8.12133133e-01 8.12639475e-01 8.13145876e-01 8.13652277e-01 8.14158618e-01 8.14665020e-01 8.15171421e-01 8.15677762e-01 8.16184163e-01 8.16690564e-01 8.17196906e-01 8.17703307e-01 8.18209708e-01 8.18716049e-01 8.19222450e-01 8.19728792e-01 8.20235193e-01 8.20741594e-01 8.21247935e-01 8.21754336e-01 8.22260737e-01 8.22767079e-01 8.23273480e-01 8.23779881e-01 8.24286222e-01 8.24792624e-01 8.25299025e-01 8.25805366e-01 8.26311767e-01 8.26818109e-01 8.27324510e-01 8.27830911e-01 8.28337252e-01 8.28843653e-01 8.29350054e-01 8.29856396e-01 8.30362797e-01 8.30869198e-01 8.31375539e-01 8.31881940e-01 8.32388341e-01 8.32894683e-01 8.33401084e-01 8.33907425e-01 8.34413826e-01 8.34920228e-01 8.35426569e-01 8.35932970e-01 8.36439371e-01 8.36945713e-01 8.37452114e-01 8.37958515e-01 8.38464856e-01 8.38971257e-01 8.39477658e-01 8.39984000e-01 8.40490401e-01 8.40996742e-01 8.41503143e-01 8.42009544e-01 8.42515886e-01 8.43022287e-01 8.43528688e-01 8.44035029e-01 8.44541430e-01 8.45047832e-01 8.45554173e-01 8.46060574e-01 8.46566975e-01 8.47073317e-01 8.47579718e-01 8.48086059e-01 8.48592460e-01 8.49098861e-01 8.49605203e-01 8.50111604e-01 8.50618005e-01 8.51124346e-01 8.51630747e-01 8.52137148e-01 8.52643490e-01 8.53149891e-01 8.53656232e-01 8.54162633e-01 8.54669034e-01 8.55175376e-01 8.55681777e-01 8.56188178e-01 8.56694520e-01 8.57200921e-01 8.57707322e-01 8.58213663e-01 8.58720064e-01 8.59226465e-01 8.59732807e-01 8.60239208e-01 8.60745549e-01 8.61251950e-01 8.61758351e-01 8.62264693e-01 8.62771094e-01 8.63277495e-01 8.63783836e-01 8.64290237e-01 8.64796638e-01 8.65302980e-01 8.65809381e-01 8.66315782e-01 8.66822124e-01 8.67328525e-01 8.67834866e-01 8.68341267e-01 8.68847668e-01 8.69354010e-01 8.69860411e-01 8.70366812e-01 8.70873153e-01 8.71379554e-01 8.71885955e-01 8.72392297e-01 8.72898698e-01 8.73405099e-01 8.73911440e-01 8.74417841e-01 8.74924183e-01 8.75430584e-01 8.75936985e-01 8.76443326e-01 8.76949728e-01 8.77456129e-01 8.77962470e-01 8.78468871e-01 8.78975272e-01 8.79481614e-01 8.79988015e-01 8.80494416e-01 8.81000757e-01 8.81507158e-01 8.82013500e-01 8.82519901e-01 8.83026302e-01 8.83532643e-01 8.84039044e-01 8.84545445e-01 8.85051787e-01 8.85558188e-01 8.86064589e-01 8.86570930e-01 8.87077332e-01 8.87583673e-01 8.88090074e-01 8.88596475e-01 8.89102817e-01 8.89609218e-01 8.90115619e-01 8.90621960e-01 8.91128361e-01 8.91634762e-01 8.92141104e-01 8.92647505e-01 8.93153906e-01 8.93660247e-01 8.94166648e-01 8.94672990e-01 8.95179391e-01 8.95685792e-01 8.96192133e-01 8.96698534e-01 8.97204936e-01 8.97711277e-01 8.98217678e-01 8.98724079e-01 8.99230421e-01 8.99736822e-01 9.00243223e-01 9.00749564e-01 9.01255965e-01 9.01762307e-01 9.02268708e-01 9.02775109e-01 9.03281450e-01 9.03787851e-01 9.04294252e-01 9.04800594e-01 9.05306995e-01 9.05813396e-01 9.06319737e-01 9.06826138e-01 9.07332540e-01 9.07838881e-01 9.08345282e-01 9.08851624e-01 9.09358025e-01 9.09864426e-01 9.10370767e-01 9.10877168e-01 9.11383569e-01 9.11889911e-01 9.12396312e-01 9.12902713e-01 9.13409054e-01 9.13915455e-01 9.14421856e-01 9.14928198e-01 9.15434599e-01 9.15940940e-01 9.16447341e-01 9.16953743e-01 9.17460084e-01 9.17966485e-01 9.18472886e-01 9.18979228e-01 9.19485629e-01 9.19992030e-01 9.20498371e-01 9.21004772e-01 9.21511173e-01 9.22017515e-01 9.22523916e-01 9.23030257e-01 9.23536658e-01 9.24043059e-01 9.24549401e-01 9.25055802e-01 9.25562203e-01 9.26068544e-01 9.26574945e-01 9.27081347e-01 9.27587688e-01 9.28094089e-01 9.28600430e-01 9.29106832e-01 9.29613233e-01 9.30119574e-01 9.30625975e-01 9.31132376e-01 9.31638718e-01 9.32145119e-01 9.32651520e-01 9.33157861e-01 9.33664262e-01 9.34170663e-01 9.34677005e-01 9.35183406e-01 9.35689747e-01 9.36196148e-01 9.36702549e-01 9.37208891e-01 9.37715292e-01 9.38221693e-01 9.38728034e-01 9.39234436e-01 9.39740837e-01 9.40247178e-01 9.40753579e-01 9.41259980e-01 9.41766322e-01 9.42272723e-01 9.42779064e-01 9.43285465e-01 9.43791866e-01 9.44298208e-01 9.44804609e-01 9.45311010e-01 9.45817351e-01 9.46323752e-01 9.46830153e-01 9.47336495e-01 9.47842896e-01 9.48349297e-01 9.48855639e-01 9.49362040e-01 9.49868381e-01 9.50374782e-01 9.50881183e-01 9.51387525e-01 9.51893926e-01 9.52400327e-01 9.52906668e-01 9.53413069e-01 9.53919470e-01 9.54425812e-01 9.54932213e-01 9.55438614e-01 9.55944955e-01 9.56451356e-01 9.56957698e-01 9.57464099e-01 9.57970500e-01 9.58476841e-01 9.58983243e-01 9.59489644e-01 9.59995985e-01 9.60502386e-01 9.61008787e-01 9.61515129e-01 9.62021530e-01 9.62527871e-01 9.63034272e-01 9.63540673e-01 9.64047015e-01 9.64553416e-01 9.65059817e-01 9.65566158e-01 9.66072559e-01 9.66578960e-01 9.67085302e-01 9.67591703e-01 9.68098104e-01 9.68604445e-01 9.69110847e-01 9.69617188e-01 9.70123589e-01 9.70629990e-01 9.71136332e-01 9.71642733e-01 9.72149134e-01 9.72655475e-01 9.73161876e-01 9.73668277e-01 9.74174619e-01 9.74681020e-01 9.75187421e-01 9.75693762e-01 9.76200163e-01 9.76706505e-01 9.77212906e-01 9.77719307e-01 9.78225648e-01 9.78732049e-01 9.79238451e-01 9.79744792e-01 9.80251193e-01 9.80757594e-01 9.81263936e-01 9.81770337e-01 9.82276738e-01 9.82783079e-01 9.83289480e-01 9.83795822e-01 9.84302223e-01 9.84808624e-01 9.85314965e-01 9.85821366e-01 9.86327767e-01 9.86834109e-01 9.87340510e-01 9.87846911e-01 9.88353252e-01 9.88859653e-01 9.89366055e-01 9.89872396e-01 9.90378797e-01 9.90885139e-01 9.91391540e-01 9.91897941e-01 9.92404282e-01 9.92910683e-01 9.93417084e-01 9.93923426e-01 9.94429827e-01 9.94936228e-01 9.95442569e-01 9.95948970e-01 9.96455371e-01 9.96961713e-01 9.97468114e-01 9.97974455e-01 9.98480856e-01 9.98987257e-01 9.99493599e-01 1.00000000e+00 
            </Histogram>
            <HistogramBinning NBins="1975">
              4.24954271e+00 4.24964285e+00 5.13759089e+00 5.43014050e+00 5.64767170e+00 5.74498987e+00 5.84353733e+00 5.96529770e+00 6.04412889e+00 6.09361076e+00 6.13738203e+00 6.18458796e+00 6.24003696e+00 6.27651834e+00 6.33603382e+00 6.35764122e+00 6.38861322e+00 6.42684746e+00 6.45674229e+00 6.47995758e+00 6.49434614e+00 6.51591444e+00 6.52678299e+00 6.55169487e+00 6.57432318e+00 6.60483837e+00 6.62764120e+00 6.64501333e+00 6.66275549e+00 6.67608118e+00 6.69341612e+00 6.70989275e+00 6.73627043e+00 6.75072956e+00 6.76186991e+00 6.77341127e+00 6.78723574e+00 6.80747652e+00 6.82206106e+00 6.83350468e+00 6.84629679e+00 6.85829830e+00 6.87098312e+00 6.88018942e+00 6.89172840e+00 6.90386105e+00 6.91522264e+00 6.92732954e+00 6.93766785e+00 6.95080662e+00 6.95988178e+00 6.97177076e+00 6.98276424e+00 6.99226665e+00 6.99950933e+00 7.00801992e+00 7.01918268e+00 7.02791119e+00 7.03512287e+00 7.04200983e+00 7.05160475e+00 7.05825472e+00 7.06758547e+00 7.07517910e+00 7.08608866e+00 7.09290791e+00 7.10172033e+00 7.10844088e+00 7.11514473e+00 7.12218380e+00 7.12755537e+00 7.13573217e+00 7.14330339e+00 7.14833117e+00 7.15426970e+00 7.16100645e+00 7.16783142e+00 7.17326069e+00 7.17998600e+00 7.18493032e+00 7.19277811e+00 7.19825792e+00 7.20293093e+00 7.20737457e+00 7.21240330e+00 7.21507883e+00 7.22117329e+00 7.22813177e+00 7.23357821e+00 7.24055338e+00 7.24441719e+00 7.25152969e+00 7.25654030e+00 7.26146936e+00 7.26528120e+00 7.27254200e+00 7.27809906e+00 7.28440189e+00 7.29013729e+00 7.29604340e+00 7.30208683e+00 7.30691004e+00 7.31162882e+00 7.31727171e+00 7.32402372e+00 7.32927513e+00 7.33508825e+00 7.34058380e+00 7.34412241e+00 7.34952974e+00 7.35305929e+00 7.35926485e+00 7.36471558e+00 7.36957169e+00 7.37308073e+00 7.37679386e+00 7.38061619e+00 7.38600111e+00 7.39018154e+00 7.39379501e+00 7.39912844e+00 7.40266085e+00 7.40644836e+00 7.41162920e+00 7.41571093e+00 7.41960239e+00 7.42282057e+00 7.42801142e+00 7.43252659e+00 7.43680286e+00 7.43932533e+00 7.44359255e+00 7.44729567e+00 7.45030260e+00 7.45403862e+00 7.45728064e+00 7.46118450e+00 7.46393967e+00 7.46679783e+00 7.47129440e+00 7.47539043e+00 7.47824049e+00 7.48182392e+00 7.48532677e+00 7.48833513e+00 7.49215031e+00 7.49630547e+00 7.50143385e+00 7.50621319e+00 7.50918245e+00 7.51221228e+00 7.51570654e+00 7.51907587e+00 7.52235365e+00 7.52549934e+00 7.53001595e+00 7.53210545e+00 7.53518009e+00 7.53834629e+00 7.54119730e+00 7.54423714e+00 7.54656649e+00 7.54980469e+00 7.55221272e+00 7.55480766e+00 7.55753994e+00 7.56002903e+00 7.56392717e+00 7.56566381e+00 7.56949615e+00 7.57340479e+00 7.57715034e+00 7.58175659e+00 7.58445120e+00 7.58657885e+00 7.58939791e+00 7.59482622e+00 7.59673023e+00 7.59954739e+00 7.60238457e+00 7.60705280e+00 7.61030483e+00 7.61301279e+00 7.61585236e+00 7.61907768e+00 7.62138891e+00 7.62500906e+00 7.62860584e+00 7.63144541e+00 7.63542414e+00 7.63882208e+00 7.64249802e+00 7.64504194e+00 7.64767599e+00 7.65016222e+00 7.65294790e+00 7.65561247e+00 7.65718985e+00 7.65978289e+00 7.66228199e+00 7.66444206e+00 7.66686773e+00 7.66961241e+00 7.67201042e+00 7.67518091e+00 7.67723036e+00 7.68029451e+00 7.68202019e+00 7.68521118e+00 7.68856525e+00 7.69142723e+00 7.69415283e+00 7.69683456e+00 7.69926739e+00 7.70226049e+00 7.70427036e+00 7.70608330e+00 7.70793200e+00 7.70962191e+00 7.71138000e+00 7.71441317e+00 7.71642351e+00 7.71865416e+00 7.72132111e+00 7.72348642e+00 7.72688627e+00 7.73016024e+00 7.73209715e+00 7.73428392e+00 7.73632002e+00 7.73912430e+00 7.74173832e+00 7.74307823e+00 7.74662352e+00 7.74850035e+00 7.75223923e+00 7.75416565e+00 7.75723553e+00 7.75966454e+00 7.76285458e+00 7.76553202e+00 7.76816416e+00 7.77047777e+00 7.77345467e+00 7.77592325e+00 7.77771664e+00 7.78014660e+00 7.78301334e+00 7.78439951e+00 7.78603792e+00 7.78810692e+00 7.79027605e+00 7.79259014e+00 7.79455423e+00 7.79620075e+00 7.79880762e+00 7.80037737e+00 7.80367517e+00 7.80651236e+00 7.80923796e+00 7.81101322e+00 7.81385899e+00 7.81567526e+00 7.81789970e+00 7.82043648e+00 7.82266998e+00 7.82446623e+00 7.82646370e+00 7.82847166e+00 7.83097124e+00 7.83303118e+00 7.83473778e+00 7.83682966e+00 7.83918238e+00 7.84103203e+00 7.84241247e+00 7.84485722e+00 7.84740877e+00 7.84989071e+00 7.85179949e+00 7.85413885e+00 7.85559320e+00 7.85784435e+00 7.85991812e+00 7.86183691e+00 7.86473417e+00 7.86634922e+00 7.86840868e+00 7.87052536e+00 7.87208509e+00 7.87353516e+00 7.87547636e+00 7.87730837e+00 7.87961769e+00 7.88171864e+00 7.88327742e+00 7.88517809e+00 7.88665676e+00 7.88846016e+00 7.89100170e+00 7.89283276e+00 7.89422178e+00 7.89613676e+00 7.89760685e+00 7.90023327e+00 7.90171671e+00 7.90330076e+00 7.90529585e+00 7.90725756e+00 7.90864706e+00 7.91025972e+00 7.91244316e+00 7.91408396e+00 7.91592169e+00 7.91879511e+00 7.92136240e+00 7.92336702e+00 7.92478466e+00 7.92652416e+00 7.92812824e+00 7.92976570e+00 7.93164158e+00 7.93313360e+00 7.93518925e+00 7.93692541e+00 7.93887234e+00 7.94165611e+00 7.94402456e+00 7.94576311e+00 7.94806719e+00 7.95071220e+00 7.95256424e+00 7.95453072e+00 7.95596933e+00 7.95774651e+00 7.95938587e+00 7.96112299e+00 7.96291256e+00 7.96453905e+00 7.96669865e+00 7.96899176e+00 7.97107887e+00 7.97275496e+00 7.97538519e+00 7.97708082e+00 7.97960186e+00 7.98112297e+00 7.98346901e+00 7.98669720e+00 7.98882961e+00 7.99130869e+00 7.99304152e+00 7.99417877e+00 7.99561119e+00 7.99781466e+00 8.00005150e+00 8.00162125e+00 8.00372982e+00 8.00555992e+00 8.00805664e+00 8.00970459e+00 8.01095295e+00 8.01301670e+00 8.01450348e+00 8.01603413e+00 8.01802063e+00 8.01989937e+00 8.02202129e+00 8.02329540e+00 8.02480602e+00 8.02630901e+00 8.02835846e+00 8.03031921e+00 8.03174114e+00 8.03388882e+00 8.03549862e+00 8.03724766e+00 8.03922081e+00 8.04052353e+00 8.04192543e+00 8.04349136e+00 8.04496002e+00 8.04652691e+00 8.04786015e+00 8.04930782e+00 8.05185795e+00 8.05323124e+00 8.05473423e+00 8.05747986e+00 8.05834103e+00 8.06007195e+00 8.06122971e+00 8.06322384e+00 8.06500721e+00 8.06640434e+00 8.06852341e+00 8.07014847e+00 8.07146168e+00 8.07336044e+00 8.07508945e+00 8.07716656e+00 8.07861233e+00 8.08062363e+00 8.08178616e+00 8.08348083e+00 8.08473015e+00 8.08693504e+00 8.08874321e+00 8.09046745e+00 8.09172058e+00 8.09401512e+00 8.09558582e+00 8.09733009e+00 8.09860420e+00 8.10013866e+00 8.10118771e+00 8.10254478e+00 8.10393715e+00 8.10573864e+00 8.10803986e+00 8.10945225e+00 8.11074638e+00 8.11192322e+00 8.11373043e+00 8.11492157e+00 8.11605930e+00 8.11744499e+00 8.11874008e+00 8.12067223e+00 8.12271976e+00 8.12402058e+00 8.12530804e+00 8.12679100e+00 8.12878323e+00 8.13030434e+00 8.13245106e+00 8.13427830e+00 8.13618565e+00 8.13776016e+00 8.13884354e+00 8.14022636e+00 8.14172459e+00 8.14310360e+00 8.14480591e+00 8.14629078e+00 8.14854527e+00 8.14947796e+00 8.15083504e+00 8.15179253e+00 8.15381622e+00 8.15501118e+00 8.15641594e+00 8.15775394e+00 8.16008472e+00 8.16112041e+00 8.16278839e+00 8.16423035e+00 8.16557217e+00 8.16688347e+00 8.16795826e+00 8.16932487e+00 8.17110634e+00 8.17252541e+00 8.17385387e+00 8.17507172e+00 8.17648506e+00 8.17810059e+00 8.17892551e+00 8.18082237e+00 8.18197918e+00 8.18354321e+00 8.18515301e+00 8.18677235e+00 8.18843079e+00 8.19017887e+00 8.19155407e+00 8.19317532e+00 8.19490337e+00 8.19604397e+00 8.19703674e+00 8.19826698e+00 8.20029068e+00 8.20174408e+00 8.20307350e+00 8.20389080e+00 8.20484829e+00 8.20607567e+00 8.20758629e+00 8.20937824e+00 8.21033669e+00 8.21142387e+00 8.21291924e+00 8.21413136e+00 8.21579361e+00 8.21735954e+00 8.21863556e+00 8.22069645e+00 8.22212219e+00 8.22306347e+00 8.22432232e+00 8.22586727e+00 8.22746849e+00 8.22885513e+00 8.22984505e+00 8.23090744e+00 8.23285484e+00 8.23418331e+00 8.23538494e+00 8.23695946e+00 8.23781395e+00 8.23895836e+00 8.24055290e+00 8.24163628e+00 8.24316692e+00 8.24449444e+00 8.24612427e+00 8.24730968e+00 8.24846649e+00 8.24956894e+00 8.25078773e+00 8.25255680e+00 8.25378513e+00 8.25521469e+00 8.25610542e+00 8.25707245e+00 8.25813389e+00 8.25967407e+00 8.26074600e+00 8.26259613e+00 8.26434326e+00 8.26543808e+00 8.26648331e+00 8.26771355e+00 8.26862717e+00 8.27010536e+00 8.27195263e+00 8.27358723e+00 8.27470303e+00 8.27632332e+00 8.27767658e+00 8.27892971e+00 8.28052044e+00 8.28192806e+00 8.28307056e+00 8.28444576e+00 8.28576660e+00 8.28726864e+00 8.28844452e+00 8.28980255e+00 8.29080677e+00 8.29208469e+00 8.29329872e+00 8.29416275e+00 8.29529572e+00 8.29674911e+00 8.29792786e+00 8.29996395e+00 8.30115700e+00 8.30221558e+00 8.30373859e+00 8.30489731e+00 8.30656433e+00 8.30775166e+00 8.30912590e+00 8.31089306e+00 8.31238461e+00 8.31355572e+00 8.31463051e+00 8.31603336e+00 8.31683064e+00 8.31805420e+00 8.31967926e+00 8.32138729e+00 8.32247448e+00 8.32464695e+00 8.32532120e+00 8.32681942e+00 8.32767582e+00 8.32894802e+00 8.33033562e+00 8.33142948e+00 8.33258915e+00 8.33384991e+00 8.33528805e+00 8.33669376e+00 8.33762264e+00 8.33905602e+00 8.34077072e+00 8.34179878e+00 8.34290886e+00 8.34467602e+00 8.34576797e+00 8.34695911e+00 8.34835434e+00 8.34917736e+00 8.35045624e+00 8.35157585e+00 8.35319614e+00 8.35441208e+00 8.35564518e+00 8.35723495e+00 8.35840511e+00 8.35981178e+00 8.36080456e+00 8.36233997e+00 8.36386395e+00 8.36509228e+00 8.36646080e+00 8.36783886e+00 8.36873913e+00 8.37049675e+00 8.37154007e+00 8.37270164e+00 8.37390518e+00 8.37474442e+00 8.37601471e+00 8.37755203e+00 8.37864876e+00 8.37975121e+00 8.38054085e+00 8.38169575e+00 8.38276100e+00 8.38415718e+00 8.38479519e+00 8.38586617e+00 8.38675022e+00 8.38759995e+00 8.38922405e+00 8.39074802e+00 8.39165306e+00 8.39313221e+00 8.39455509e+00 8.39634800e+00 8.39746284e+00 8.39855385e+00 8.39990330e+00 8.40172577e+00 8.40312386e+00 8.40518188e+00 8.40634823e+00 8.40780640e+00 8.40898037e+00 8.41034794e+00 8.41153908e+00 8.41244125e+00 8.41369438e+00 8.41511250e+00 8.41660881e+00 8.41808891e+00 8.41887856e+00 8.41949177e+00 8.42073250e+00 8.42231083e+00 8.42375088e+00 8.42529678e+00 8.42623806e+00 8.42756557e+00 8.42888165e+00 8.43059349e+00 8.43190670e+00 8.43316841e+00 8.43488026e+00 8.43583775e+00 8.43739223e+00 8.43844604e+00 8.43980026e+00 8.44120312e+00 8.44212723e+00 8.44352531e+00 8.44522476e+00 8.44622040e+00 8.44769955e+00 8.44882202e+00 8.44997501e+00 8.45114994e+00 8.45172310e+00 8.45302868e+00 8.45377636e+00 8.45487404e+00 8.45625591e+00 8.45707226e+00 8.45774937e+00 8.45849514e+00 8.45950985e+00 8.46059132e+00 8.46195126e+00 8.46326733e+00 8.46456051e+00 8.46586227e+00 8.46716404e+00 8.46830845e+00 8.46982765e+00 8.47096443e+00 8.47239971e+00 8.47383690e+00 8.47502041e+00 8.47615051e+00 8.47819233e+00 8.47934151e+00 8.48097706e+00 8.48226643e+00 8.48341370e+00 8.48502827e+00 8.48627186e+00 8.48748112e+00 8.48865700e+00 8.48971939e+00 8.49059200e+00 8.49202824e+00 8.49300098e+00 8.49436855e+00 8.49562645e+00 8.49640179e+00 8.49752617e+00 8.49840355e+00 8.49990559e+00 8.50113201e+00 8.50216484e+00 8.50360775e+00 8.50472927e+00 8.50546265e+00 8.50650597e+00 8.50815296e+00 8.50958538e+00 8.51115131e+00 8.51257610e+00 8.51357079e+00 8.51442432e+00 8.51570797e+00 8.51683903e+00 8.51789093e+00 8.51871014e+00 8.51978111e+00 8.52105045e+00 8.52204037e+00 8.52296638e+00 8.52437019e+00 8.52547836e+00 8.52645397e+00 8.52742481e+00 8.52844429e+00 8.52959061e+00 8.53036976e+00 8.53189754e+00 8.53266239e+00 8.53419876e+00 8.53540230e+00 8.53665352e+00 8.53735638e+00 8.53819847e+00 8.53971004e+00 8.54077911e+00 8.54179287e+00 8.54292011e+00 8.54453850e+00 8.54574871e+00 8.54654121e+00 8.54753304e+00 8.54865074e+00 8.54983711e+00 8.55110645e+00 8.55266762e+00 8.55360794e+00 8.55484581e+00 8.55555916e+00 8.55682087e+00 8.55830288e+00 8.55948162e+00 8.56035995e+00 8.56187534e+00 8.56267929e+00 8.56400013e+00 8.56490898e+00 8.56581688e+00 8.56696987e+00 8.56754971e+00 8.56900787e+00 8.56983566e+00 8.57095146e+00 8.57184601e+00 8.57300472e+00 8.57422256e+00 8.57520103e+00 8.57608414e+00 8.57715321e+00 8.57824230e+00 8.57933235e+00 8.58042812e+00 8.58188248e+00 8.58287239e+00 8.58365917e+00 8.58467960e+00 8.58621407e+00 8.58708096e+00 8.58826065e+00 8.58921242e+00 8.59039021e+00 8.59160519e+00 8.59267044e+00 8.59349442e+00 8.59449768e+00 8.59538269e+00 8.59656525e+00 8.59787750e+00 8.59887505e+00 8.59999466e+00 8.60146141e+00 8.60262871e+00 8.60382748e+00 8.60474396e+00 8.60549641e+00 8.60654736e+00 8.60721207e+00 8.60820198e+00 8.60954094e+00 8.61038399e+00 8.61149788e+00 8.61297035e+00 8.61409569e+00 8.61536121e+00 8.61653709e+00 8.61729336e+00 8.61807060e+00 8.61885929e+00 8.62026882e+00 8.62128353e+00 8.62197876e+00 8.62298584e+00 8.62451935e+00 8.62552452e+00 8.62679672e+00 8.62776852e+00 8.62883663e+00 8.62994671e+00 8.63089275e+00 8.63188171e+00 8.63311195e+00 8.63406086e+00 8.63498306e+00 8.63632488e+00 8.63702393e+00 8.63843346e+00 8.64039707e+00 8.64165115e+00 8.64266205e+00 8.64373112e+00 8.64467621e+00 8.64566231e+00 8.64698315e+00 8.64809799e+00 8.64918041e+00 8.65068531e+00 8.65177917e+00 8.65266228e+00 8.65359116e+00 8.65440464e+00 8.65517521e+00 8.65625286e+00 8.65771198e+00 8.65864372e+00 8.65962791e+00 8.66077995e+00 8.66147709e+00 8.66278076e+00 8.66416359e+00 8.66508198e+00 8.66604614e+00 8.66699696e+00 8.66773987e+00 8.66883945e+00 8.66987133e+00 8.67060947e+00 8.67180443e+00 8.67258358e+00 8.67412758e+00 8.67530346e+00 8.67646503e+00 8.67763042e+00 8.67926407e+00 8.68050766e+00 8.68153191e+00 8.68243122e+00 8.68342209e+00 8.68430996e+00 8.68536091e+00 8.68623924e+00 8.68714046e+00 8.68861771e+00 8.68991852e+00 8.69088268e+00 8.69155312e+00 8.69247913e+00 8.69345856e+00 8.69474506e+00 8.69596672e+00 8.69646168e+00 8.69735527e+00 8.69834518e+00 8.69948483e+00 8.70073605e+00 8.70195484e+00 8.70304298e+00 8.70373440e+00 8.70468998e+00 8.70579243e+00 8.70721722e+00 8.70796680e+00 8.70907021e+00 8.71017838e+00 8.71117592e+00 8.71271515e+00 8.71325111e+00 8.71473694e+00 8.71585751e+00 8.71701050e+00 8.71794701e+00 8.71934509e+00 8.72007275e+00 8.72105694e+00 8.72178459e+00 8.72342396e+00 8.72420979e+00 8.72518539e+00 8.72592640e+00 8.72778702e+00 8.72873497e+00 8.72983932e+00 8.73095894e+00 8.73215389e+00 8.73331738e+00 8.73452950e+00 8.73596859e+00 8.73678112e+00 8.73775959e+00 8.73902607e+00 8.73986340e+00 8.74097347e+00 8.74196434e+00 8.74302578e+00 8.74460793e+00 8.74593163e+00 8.74678230e+00 8.74789333e+00 8.74901676e+00 8.74978065e+00 8.75107765e+00 8.75212955e+00 8.75282860e+00 8.75360680e+00 8.75456810e+00 8.75560379e+00 8.75638771e+00 8.75755882e+00 8.75857735e+00 8.75959682e+00 8.76085377e+00 8.76199055e+00 8.76269627e+00 8.76391697e+00 8.76485825e+00 8.76591587e+00 8.76680470e+00 8.76782608e+00 8.76880074e+00 8.77014637e+00 8.77104664e+00 8.77244473e+00 8.77343845e+00 8.77419758e+00 8.77503967e+00 8.77600384e+00 8.77712631e+00 8.77803898e+00 8.77907276e+00 8.77997875e+00 8.78062916e+00 8.78147125e+00 8.78250599e+00 8.78355408e+00 8.78471375e+00 8.78621197e+00 8.78775406e+00 8.78880596e+00 8.79073906e+00 8.79168034e+00 8.79243088e+00 8.79336357e+00 8.79409409e+00 8.79521370e+00 8.79592514e+00 8.79698563e+00 8.79785919e+00 8.79867935e+00 8.79984665e+00 8.80112934e+00 8.80209637e+00 8.80290031e+00 8.80479622e+00 8.80618572e+00 8.80735683e+00 8.80832577e+00 8.80909824e+00 8.80985641e+00 8.81056881e+00 8.81177235e+00 8.81263256e+00 8.81395721e+00 8.81531906e+00 8.81662369e+00 8.81778812e+00 8.81859684e+00 8.81959915e+00 8.82052612e+00 8.82179642e+00 8.82290649e+00 8.82441044e+00 8.82543278e+00 8.82656670e+00 8.82783031e+00 8.82886982e+00 8.82997799e+00 8.83079720e+00 8.83182144e+00 8.83288383e+00 8.83438969e+00 8.83575439e+00 8.83726215e+00 8.83885384e+00 8.84020615e+00 8.84120178e+00 8.84236622e+00 8.84379768e+00 8.84457779e+00 8.84567165e+00 8.84662533e+00 8.84803391e+00 8.84908962e+00 8.84986782e+00 8.85118866e+00 8.85241795e+00 8.85362053e+00 8.85525417e+00 8.85614395e+00 8.85723305e+00 8.85928822e+00 8.86074829e+00 8.86171150e+00 8.86295319e+00 8.86464691e+00 8.86585331e+00 8.86686993e+00 8.86770725e+00 8.86853790e+00 8.86936188e+00 8.87018394e+00 8.87132645e+00 8.87250137e+00 8.87387753e+00 8.87465858e+00 8.87544823e+00 8.87640762e+00 8.87780094e+00 8.87874317e+00 8.88047409e+00 8.88115788e+00 8.88210011e+00 8.88315868e+00 8.88418961e+00 8.88512897e+00 8.88668537e+00 8.88787079e+00 8.88884926e+00 8.89013290e+00 8.89127731e+00 8.89257050e+00 8.89370251e+00 8.89432526e+00 8.89544678e+00 8.89634895e+00 8.89773178e+00 8.89924622e+00 8.90044308e+00 8.90182781e+00 8.90296936e+00 8.90396595e+00 8.90513039e+00 8.90642929e+00 8.90721703e+00 8.90841293e+00 8.90919209e+00 8.91006470e+00 8.91130543e+00 8.91267395e+00 8.91355705e+00 8.91478062e+00 8.91600418e+00 8.91699028e+00 8.91799545e+00 8.91891479e+00 8.92000866e+00 8.92099285e+00 8.92222977e+00 8.92301655e+00 8.92376328e+00 8.92456245e+00 8.92556095e+00 8.92721844e+00 8.92830658e+00 8.92892551e+00 8.93016052e+00 8.93130016e+00 8.93215561e+00 8.93315887e+00 8.93437195e+00 8.93562031e+00 8.93687725e+00 8.93816853e+00 8.93915749e+00 8.94087029e+00 8.94170189e+00 8.94271374e+00 8.94384480e+00 8.94466019e+00 8.94585800e+00 8.94701576e+00 8.94801044e+00 8.94900990e+00 8.95000553e+00 8.95126247e+00 8.95285702e+00 8.95415688e+00 8.95506859e+00 8.95649624e+00 8.95760155e+00 8.95880985e+00 8.95986271e+00 8.96069622e+00 8.96168709e+00 8.96273232e+00 8.96370411e+00 8.96452141e+00 8.96597958e+00 8.96718597e+00 8.96812534e+00 8.96895027e+00 8.97027588e+00 8.97152710e+00 8.97239113e+00 8.97344971e+00 8.97459126e+00 8.97552013e+00 8.97683811e+00 8.97774696e+00 8.97869587e+00 8.97983170e+00 8.98045635e+00 8.98257637e+00 8.98375320e+00 8.98499680e+00 8.98610783e+00 8.98717880e+00 8.98858070e+00 8.98952866e+00 8.99043274e+00 8.99164009e+00 8.99287415e+00 8.99399185e+00 8.99464130e+00 8.99556732e+00 8.99647522e+00 8.99739170e+00 8.99836636e+00 8.99949646e+00 9.00034046e+00 9.00205612e+00 9.00319004e+00 9.00458717e+00 9.00547791e+00 9.00719452e+00 9.00843906e+00 9.00970078e+00 9.01098728e+00 9.01268387e+00 9.01397038e+00 9.01523113e+00 9.01696491e+00 9.01801109e+00 9.01931858e+00 9.02051926e+00 9.02157974e+00 9.02266979e+00 9.02413368e+00 9.02509022e+00 9.02635765e+00 9.02784634e+00 9.02927780e+00 9.03058529e+00 9.03191376e+00 9.03287029e+00 9.03361416e+00 9.03483772e+00 9.03572464e+00 9.03659916e+00 9.03762341e+00 9.03897190e+00 9.04094696e+00 9.04195499e+00 9.04351711e+00 9.04439068e+00 9.04524899e+00 9.04611111e+00 9.04709625e+00 9.04808331e+00 9.04964447e+00 9.05059242e+00 9.05182934e+00 9.05317307e+00 9.05438995e+00 9.05551434e+00 9.05622196e+00 9.05728626e+00 9.05860043e+00 9.05980873e+00 9.06091690e+00 9.06239986e+00 9.06332016e+00 9.06448746e+00 9.06544590e+00 9.06679821e+00 9.06842709e+00 9.06947136e+00 9.07054710e+00 9.07226849e+00 9.07326221e+00 9.07440376e+00 9.07565117e+00 9.07684994e+00 9.07796478e+00 9.07924271e+00 9.08040619e+00 9.08135033e+00 9.08227158e+00 9.08348846e+00 9.08493519e+00 9.08607578e+00 9.08701992e+00 9.08880806e+00 9.08949757e+00 9.09090900e+00 9.09281826e+00 9.09418106e+00 9.09544468e+00 9.09639931e+00 9.09716797e+00 9.09856033e+00 9.10004330e+00 9.10130215e+00 9.10252380e+00 9.10379219e+00 9.10541725e+00 9.10647583e+00 9.10777283e+00 9.10910702e+00 9.11043549e+00 9.11202145e+00 9.11355782e+00 9.11429882e+00 9.11562347e+00 9.11669445e+00 9.11778450e+00 9.11914825e+00 9.12019539e+00 9.12157536e+00 9.12297440e+00 9.12432098e+00 9.12556934e+00 9.12772846e+00 9.12924385e+00 9.13018608e+00 9.13151169e+00 9.13296509e+00 9.13457870e+00 9.13627243e+00 9.13764668e+00 9.13879108e+00 9.13993645e+00 9.14093781e+00 9.14227009e+00 9.14346600e+00 9.14514923e+00 9.14605236e+00 9.14718342e+00 9.14816284e+00 9.14942741e+00 9.15079403e+00 9.15203571e+00 9.15331745e+00 9.15458202e+00 9.15618801e+00 9.15744686e+00 9.15920734e+00 9.16077995e+00 9.16223812e+00 9.16314983e+00 9.16408062e+00 9.16503906e+00 9.16688728e+00 9.16809177e+00 9.16948032e+00 9.17061806e+00 9.17169476e+00 9.17334080e+00 9.17504215e+00 9.17645168e+00 9.17735481e+00 9.17861080e+00 9.17957687e+00 9.18086052e+00 9.18249035e+00 9.18392086e+00 9.18501377e+00 9.18645287e+00 9.18857479e+00 9.19047928e+00 9.19156075e+00 9.19250679e+00 9.19436550e+00 9.19543648e+00 9.19634819e+00 9.19794083e+00 9.19894505e+00 9.20097637e+00 9.20173359e+00 9.20292473e+00 9.20405769e+00 9.20546055e+00 9.20668125e+00 9.20772076e+00 9.20924473e+00 9.21057510e+00 9.21159744e+00 9.21257877e+00 9.21378708e+00 9.21463585e+00 9.21611023e+00 9.21718121e+00 9.21810341e+00 9.21956730e+00 9.22078419e+00 9.22265911e+00 9.22388744e+00 9.22545242e+00 9.22661114e+00 9.22765064e+00 9.22918320e+00 9.23026085e+00 9.23157978e+00 9.23276234e+00 9.23357773e+00 9.23525333e+00 9.23653889e+00 9.23795509e+00 9.23939705e+00 9.24064445e+00 9.24179745e+00 9.24336815e+00 9.24465370e+00 9.24585533e+00 9.24706268e+00 9.24878216e+00 9.25022793e+00 9.25156498e+00 9.25278854e+00 9.25415707e+00 9.25603580e+00 9.25749207e+00 9.25844765e+00 9.25978374e+00 9.26158810e+00 9.26321030e+00 9.26462650e+00 9.26673126e+00 9.26840115e+00 9.26950264e+00 9.27029228e+00 9.27243137e+00 9.27341652e+00 9.27503109e+00 9.27633667e+00 9.27772141e+00 9.28034210e+00 9.28208160e+00 9.28348255e+00 9.28540230e+00 9.28650284e+00 9.28787041e+00 9.28962421e+00 9.29090118e+00 9.29197311e+00 9.29329681e+00 9.29449940e+00 9.29530621e+00 9.29631901e+00 9.29736233e+00 9.29879189e+00 9.30065441e+00 9.30182076e+00 9.30360031e+00 9.30503845e+00 9.30661964e+00 9.30810165e+00 9.30944633e+00 9.31109905e+00 9.31253242e+00 9.31477261e+00 9.31662273e+00 9.31774235e+00 9.31867409e+00 9.32087994e+00 9.32223320e+00 9.32344055e+00 9.32538891e+00 9.32680702e+00 9.32810879e+00 9.32920647e+00 9.33035946e+00 9.33176994e+00 9.33306408e+00 9.33438206e+00 9.33609104e+00 9.33793259e+00 9.33938599e+00 9.34082794e+00 9.34250641e+00 9.34377956e+00 9.34554958e+00 9.34689713e+00 9.34782219e+00 9.34943676e+00 9.35089111e+00 9.35248089e+00 9.35396862e+00 9.35522938e+00 9.35680866e+00 9.35807991e+00 9.35977364e+00 9.36225224e+00 9.36386204e+00 9.36557388e+00 9.36718559e+00 9.36851406e+00 9.36969757e+00 9.37080097e+00 9.37228298e+00 9.37408543e+00 9.37592316e+00 9.37704754e+00 9.37812519e+00 9.37961006e+00 9.38101006e+00 9.38272953e+00 9.38414669e+00 9.38596630e+00 9.38711643e+00 9.38935375e+00 9.39162159e+00 9.39342403e+00 9.39452648e+00 9.39614010e+00 9.39819622e+00 9.39973354e+00 9.40159893e+00 9.40314960e+00 9.40449142e+00 9.40571499e+00 9.40730572e+00 9.40840721e+00 9.40983009e+00 9.41126823e+00 9.41264439e+00 9.41384697e+00 9.41517353e+00 9.41629505e+00 9.41852283e+00 9.42018127e+00 9.42169952e+00 9.42371845e+00 9.42561531e+00 9.42745209e+00 9.42899513e+00 9.43084335e+00 9.43271065e+00 9.43387318e+00 9.43567944e+00 9.43769455e+00 9.43901730e+00 9.44028664e+00 9.44222355e+00 9.44432926e+00 9.44604778e+00 9.44768238e+00 9.44924641e+00 9.45144749e+00 9.45340061e+00 9.45621109e+00 9.45809650e+00 9.45969296e+00 9.46144104e+00 9.46352673e+00 9.46578789e+00 9.46709347e+00 9.46884918e+00 9.47097588e+00 9.47287655e+00 9.47433853e+00 9.47634983e+00 9.47776699e+00 9.47950268e+00 9.48196411e+00 9.48379326e+00 9.48512745e+00 9.48718739e+00 9.48875237e+00 9.49010849e+00 9.49098778e+00 9.49233723e+00 9.49438953e+00 9.49620533e+00 9.49839020e+00 9.49976826e+00 9.50149536e+00 9.50280952e+00 9.50449467e+00 9.50599957e+00 9.50849628e+00 9.51018524e+00 9.51255894e+00 9.51448250e+00 9.51554394e+00 9.51735783e+00 9.51968193e+00 9.52091122e+00 9.52258205e+00 9.52422619e+00 9.52591896e+00 9.52725601e+00 9.52878761e+00 9.53056145e+00 9.53244114e+00 9.53467274e+00 9.53697681e+00 9.53868294e+00 9.54032707e+00 9.54161453e+00 9.54314327e+00 9.54438400e+00 9.54635429e+00 9.54763126e+00 9.54924011e+00 9.55204105e+00 9.55359459e+00 9.55536366e+00 9.55734062e+00 9.55928421e+00 9.56109333e+00 9.56202030e+00 9.56358337e+00 9.56581306e+00 9.56752396e+00 9.56867599e+00 9.57080460e+00 9.57252121e+00 9.57379913e+00 9.57533264e+00 9.57794094e+00 9.58017159e+00 9.58233452e+00 9.58374500e+00 9.58539677e+00 9.58817291e+00 9.59049416e+00 9.59221268e+00 9.59377575e+00 9.59585381e+00 9.59747028e+00 9.60010624e+00 9.60277843e+00 9.60434628e+00 9.60596466e+00 9.60774040e+00 9.61069393e+00 9.61248779e+00 9.61431313e+00 9.61629963e+00 9.61880493e+00 9.62059975e+00 9.62339020e+00 9.62543201e+00 9.62851715e+00 9.63012981e+00 9.63209057e+00 9.63522625e+00 9.63803196e+00 9.64062023e+00 9.64325714e+00 9.64503860e+00 9.64683437e+00 9.64896011e+00 9.65248775e+00 9.65499306e+00 9.65778160e+00 9.65918064e+00 9.66111851e+00 9.66259861e+00 9.66522026e+00 9.66880798e+00 9.67058372e+00 9.67316532e+00 9.67544842e+00 9.67708015e+00 9.67912769e+00 9.68092060e+00 9.68374920e+00 9.68523216e+00 9.68709946e+00 9.68986320e+00 9.69250107e+00 9.69536972e+00 9.69754601e+00 9.70133400e+00 9.70389462e+00 9.70602131e+00 9.70884514e+00 9.71067715e+00 9.71263885e+00 9.71452713e+00 9.71730042e+00 9.72061443e+00 9.72317314e+00 9.72469139e+00 9.72761059e+00 9.73089981e+00 9.73304653e+00 9.73538685e+00 9.73809338e+00 9.74059200e+00 9.74191189e+00 9.74469090e+00 9.74639416e+00 9.74924946e+00 9.75138187e+00 9.75334835e+00 9.75532913e+00 9.75884533e+00 9.76233196e+00 9.76389027e+00 9.76637363e+00 9.76884270e+00 9.77154064e+00 9.77393532e+00 9.77730656e+00 9.77913475e+00 9.78127384e+00 9.78391552e+00 9.78601551e+00 9.78879833e+00 9.79076958e+00 9.79298019e+00 9.79465771e+00 9.79772282e+00 9.80025959e+00 9.80260277e+00 9.80492210e+00 9.80767059e+00 9.81068134e+00 9.81432724e+00 9.81731415e+00 9.81962299e+00 9.82190323e+00 9.82492542e+00 9.82720661e+00 9.82912731e+00 9.83126163e+00 9.83315277e+00 9.83588123e+00 9.83895969e+00 9.84189510e+00 9.84452820e+00 9.84773731e+00 9.85060024e+00 9.85423946e+00 9.85670090e+00 9.86034775e+00 9.86289120e+00 9.86655807e+00 9.86935902e+00 9.87301445e+00 9.87662029e+00 9.87977505e+00 9.88308144e+00 9.88495922e+00 9.88785744e+00 9.88998985e+00 9.89342403e+00 9.89665031e+00 9.89855957e+00 9.90099049e+00 9.90337849e+00 9.90681267e+00 9.90986252e+00 9.91241074e+00 9.91644764e+00 9.91974545e+00 9.92255783e+00 9.92611313e+00 9.92976665e+00 9.93331909e+00 9.93563080e+00 9.93856144e+00 9.94153690e+00 9.94463444e+00 9.94721794e+00 9.95038509e+00 9.95415401e+00 9.95757294e+00 9.96143532e+00 9.96530819e+00 9.96798038e+00 9.97078228e+00 9.97426224e+00 9.97834301e+00 9.98087978e+00 9.98357677e+00 9.98798943e+00 9.99102879e+00 9.99510860e+00 9.99853134e+00 1.00023689e+01 1.00059423e+01 1.00091820e+01 1.00121975e+01 1.00148973e+01 1.00184097e+01 1.00205345e+01 1.00243540e+01 1.00284128e+01 1.00312452e+01 1.00357409e+01 1.00387611e+01 1.00418491e+01 1.00449400e+01 1.00483751e+01 1.00511436e+01 1.00535946e+01 1.00565233e+01 1.00613270e+01 1.00646620e+01 1.00689421e+01 1.00713940e+01 1.00748720e+01 1.00784445e+01 1.00826492e+01 1.00862646e+01 1.00898209e+01 1.00928288e+01 1.00962276e+01 1.01016140e+01 1.01070013e+01 1.01096010e+01 1.01132755e+01 1.01179714e+01 1.01224661e+01 1.01248407e+01 1.01286612e+01 1.01328249e+01 1.01361923e+01 1.01419239e+01 1.01462030e+01 1.01514378e+01 1.01551018e+01 1.01594152e+01 1.01633158e+01 1.01671629e+01 1.01703291e+01 1.01757832e+01 1.01801777e+01 1.01829290e+01 1.01871090e+01 1.01898956e+01 1.01957560e+01 1.02000408e+01 1.02031536e+01 1.02071285e+01 1.02118330e+01 1.02174463e+01 1.02234859e+01 1.02264376e+01 1.02318935e+01 1.02354746e+01 1.02397757e+01 1.02447748e+01 1.02483635e+01 1.02535944e+01 1.02599545e+01 1.02644606e+01 1.02675381e+01 1.02716131e+01 1.02759914e+01 1.02815228e+01 1.02862492e+01 1.02902584e+01 1.02949476e+01 1.03004417e+01 1.03063679e+01 1.03107224e+01 1.03148870e+01 1.03202915e+01 1.03258820e+01 1.03331852e+01 1.03384008e+01 1.03411627e+01 1.03443804e+01 1.03480577e+01 1.03540668e+01 1.03590212e+01 1.03654165e+01 1.03701315e+01 1.03772545e+01 1.03812361e+01 1.03868580e+01 1.03922844e+01 1.03999062e+01 1.04040489e+01 1.04076881e+01 1.04150743e+01 1.04228191e+01 1.04272795e+01 1.04312620e+01 1.04359159e+01 1.04417458e+01 1.04484177e+01 1.04553633e+01 1.04590330e+01 1.04650822e+01 1.04713593e+01 1.04769030e+01 1.04820061e+01 1.04864559e+01 1.04947186e+01 1.05029116e+01 1.05081778e+01 1.05133162e+01 1.05190229e+01 1.05248976e+01 1.05308056e+01 1.05393543e+01 1.05463371e+01 1.05524073e+01 1.05581007e+01 1.05645599e+01 1.05728798e+01 1.05777893e+01 1.05824471e+01 1.05896263e+01 1.05976877e+01 1.06023998e+01 1.06097841e+01 1.06164875e+01 1.06213179e+01 1.06272678e+01 1.06355791e+01 1.06408033e+01 1.06495724e+01 1.06559324e+01 1.06670313e+01 1.06735678e+01 1.06791401e+01 1.06899815e+01 1.06959085e+01 1.07049408e+01 1.07115726e+01 1.07254925e+01 1.07323904e+01 1.07427998e+01 1.07517767e+01 1.07610579e+01 1.07704830e+01 1.07793169e+01 1.07884283e+01 1.08010654e+01 1.08135853e+01 1.08214626e+01 1.08289700e+01 1.08354120e+01 1.08448744e+01 1.08521490e+01 1.08593311e+01 1.08670988e+01 1.08766994e+01 1.08861828e+01 1.08957834e+01 1.09063883e+01 1.09175940e+01 1.09283972e+01 1.09368906e+01 1.09498367e+01 1.09576244e+01 1.09670849e+01 1.09804077e+01 1.09917412e+01 1.10016127e+01 1.10139675e+01 1.10271616e+01 1.10421400e+01 1.10525455e+01 1.10752325e+01 1.10855789e+01 1.10935087e+01 1.11041508e+01 1.11159420e+01 1.11374760e+01 1.11474438e+01 1.11598873e+01 1.11684141e+01 1.11783409e+01 1.11899748e+01 1.12075777e+01 1.12247410e+01 1.12361546e+01 1.12492208e+01 1.12671204e+01 1.12883759e+01 1.13080273e+01 1.13255863e+01 1.13391371e+01 1.13525944e+01 1.13707705e+01 1.13821974e+01 1.14011774e+01 1.14155207e+01 1.14327726e+01 1.14628286e+01 1.14915094e+01 1.15127411e+01 1.15337009e+01 1.15688782e+01 1.15919275e+01 1.16168404e+01 1.16455994e+01 1.16614294e+01 1.16879616e+01 1.17111082e+01 1.17363558e+01 1.17572079e+01 1.17852221e+01 1.18176994e+01 1.18393888e+01 1.18830366e+01 1.19247398e+01 1.19693098e+01 1.20048971e+01 1.20584373e+01 1.21010609e+01 1.21376305e+01 1.22078314e+01 1.22757702e+01 1.23628521e+01 1.24064617e+01 1.24800520e+01 1.25578089e+01 1.26871367e+01 1.28309002e+01 1.29653425e+01 1.31866188e+01 1.44971981e+01 1.46469383e+01 
            </HistogramBinning>
          </PDF>
        </CumulativePDF_cls0>
        <CumulativePDF_cls1>
          <PDF Name="GaussTransform var0 cls1" MinNSmooth="0" MaxNSmooth="0" InterpolMethod="1" KDE_type="0" KDE_iter="1" KDE_border="1" KDE_finefactor="0.0000000000000000e+00">
            <Histogram Name="Cumulative_Var0_cls1_original" NBins="1984" XMin="5.8729214668273926e+00" XMax="1.4063058853149414e+01" HasEquidistantBins="0">
